0.345 0.891 -0.03814282268285751 -0.2300270050764084 0.11940218508243561 -0.5299220681190491 -0.349992960691452 0.15667402744293213 -0.1903093308210373 -0.35742732882499695 0.12570659816265106 -0.08423179388046265 0.45695629715919495 0.24882091581821442 0.040607478469610214 -0.19432517886161804 -0.3326677680015564 0.06400046497583389 -0.029613524675369263 -0.04696665331721306 -0.16292688250541687 0.019597431644797325 0.2312629073858261 0.03791571035981178 -0.1971568614244461 0.21434879302978516 0.23637078702449799 0.07835577428340912 0.14511674642562866 0.27382853627204895 0.192670539021492 0.06905878335237503 -0.0814286321401596 -0.19324077665805817 0.1270093470811844 -0.2474307119846344 0.2725466191768646 -0.20609129965305328 -0.1486232727766037 0.20351339876651764 0.21235519647598267 -6.461720913648605E-4 0.31423965096473694 0.31557807326316833 -0.11879529058933258 0.26278743147850037 0.04320893436670303 -0.23272937536239624 -0.2825484275817871 -0.2261561155319214 -0.05590907856822014 -0.2521611750125885 0.055140186101198196 0.26074081659317017 0.0907517597079277 -0.08303990215063095 0.03983929753303528 0.11229250580072403 0.22252075374126434 0.08505638688802719 -0.36479997634887695 0.4076016843318939 0.057304996997117996 0.08444029092788696 0.21657714247703552 0.369949072599411 0.05320106819272041 0.2690280079841614 -0.12649774551391602 -0.24135862290859222 -0.1200195699930191 -0.1436755508184433 0.050064414739608765 -0.14188942313194275 0.4944950342178345 -0.12360107153654099 0.24804836511611938 -0.3487328588962555 -0.21405759453773499 -0.19050747156143188 -0.19184108078479767 -0.11390767246484756 0.27270349860191345 0.06174203380942345 0.37501856684684753 0.32354897260665894 0.346 0.8475 0.9274 0.74 0.982 0.3748 0.234 0.783 0.1546 0.856