-0.030967656522989273 0.0021253458689898252 -0.06605887413024902 -0.04057198762893677 0.01668955758213997 -0.004210993181914091 -0.011761791072785854 -0.028055153787136078 -0.0029645683243870735 -0.037170108407735825 -3.709009906742722E-4 0.138362318277359 0.012532159686088562 0.08263231813907623 -0.004531572572886944 8.159720455296338E-4 -0.03943467140197754 -0.026293093338608742 -0.04083041101694107 -0.026308290660381317 -0.04675554856657982 -0.2894148528575897 0.28331252932548523 0.02937469817698002 -0.08544474840164185 -0.07868588715791702 0.33521196246147156 0.13227927684783936 -0.2284667193889618 0.48099181056022644 0.1900578886270523 0.2365417182445526 0.07687584310770035 -0.15565156936645508 -0.16102561354637146 -0.12935994565486908 -0.09242358058691025 0.11402423679828644 -0.073630690574646 -0.3417972922325134 0.01361120119690895 0.05936310812830925 0.09759031981229782 0.3541561961174011 -0.1119205504655838 -0.14732635021209717 0.32186514139175415 0.34304749965667725 -0.08442111313343048 0.36699041724205017 0.12152651697397232 0.0428314246237278 -0.1711319237947464 -0.12757918238639832 0.30661922693252563 0.15101994574069977 -0.0669906735420227 0.2623726725578308 -0.2063790112733841 0.18825671076774597 0.06248338520526886 0.09449954330921173 0.11726170033216476 0.5496392846107483 -5.231721443124115E-4 0.10228732228279114 -0.1748487949371338 0.4329359233379364 0.25923845171928406 0.32467934489250183 0.3166396915912628 -0.03406508266925812 0.11421559005975723 -0.438529372215271 -0.03500347584486008 0.30782052874565125 -0.36695730686187744 0.07607830315828323 0.09946919977664948 0.44448527693748474 -0.1983175426721573 0.2000608742237091 -0.14831241965293884 -0.37114429473876953 -0.039903514087200165 0.5401298403739929 -0.10353565216064453 0.20095472037792206 0.3277803659439087 -0.17003484070301056 -0.07010666280984879 -0.03241647779941559 -0.05145583674311638 0.23177851736545563 0.2879081666469574 -0.1624525636434555 0.19595395028591156 -0.20173011720180511 0.29558229446411133 0.40494874119758606 -0.09282948076725006 0.09139935672283173 -0.33597421646118164 0.09612181037664413 -0.002991901244968176 -0.010236965492367744 -0.298533171415329 0.0388212725520134 -0.12928205728530884 0.22170281410217285 0.24286463856697083 0.13484694063663483 -0.19657979905605316 -0.08550896495580673 0.11340924352407455 -0.03757363557815552 0.1928691565990448 0.18262037634849548 0.05317132920026779 -0.32073044776916504 0.026912780478596687 -0.14581651985645294 0.1501220315694809 0.30024638772010803 -0.1571599543094635 -0.1582310050725937 -0.03912924602627754 0.21440696716308594 -0.24284395575523376 -0.0759090706706047 0.2436596304178238 0.028652120381593704 0.1329808533191681 -0.2936517000198364 0.32463571429252625 -0.19592763483524323 -0.013755248859524727 0.1238645687699318 -0.10886988788843155 -0.07688825577497482 0.1962193101644516 0.22776241600513458 0.20135505497455597 -0.1880127489566803 -0.08197087794542313 -0.3973037898540497 -0.15007515251636505 0.545005202293396 -0.03590591996908188 0.11123846471309662 0.26156264543533325 0.37882786989212036 0.0250660739839077 0.1945834457874298 0.21714060008525848 0.18341785669326782 -0.5387269258499146 0.24865996837615967 0.05718196928501129 0.27410003542900085 0.04278833046555519 0.2512221932411194 0.3612462878227234 -0.087619848549366 -0.36711302399635315 0.055002644658088684 0.16619274020195007 0.0826992318034172 0.1888408660888672 0.051982130855321884 0.18961060047149658 -0.06033167615532875 -0.30136725306510925 0.2955264151096344 -0.20447665452957153 -0.035841383039951324 0.30187368392944336 0.003997352905571461 0.10057023912668228 0.2735324203968048 0.012106162495911121 0.42959481477737427 0.24712365865707397 0.33884939551353455 0.18157103657722473 0.24139133095741272 0.12056507915258408 0.3281210958957672 0.22884882986545563 -0.30919018387794495 0.09343493729829788 -0.31138938665390015 0.2462233453989029 0.03788140416145325 -0.044859666377305984 0.35670554637908936 0.15971902012825012 -0.09197691828012466 0.05014985054731369 0.4135517179965973 0.039140842854976654 0.35955241322517395 -0.049083951860666275 0.07272527366876602 -0.06097967550158501 0.2561124861240387 0.1909337192773819 0.11712196469306946 0.007645642850548029 -0.29854074120521545 -0.17045699059963226 -0.05543858930468559 0.047742582857608795 -0.2221916913986206 0.03948431462049484 0.029378829523921013 -0.07223252952098846 -0.33590400218963623 -0.06942176818847656 -0.14506863057613373 -0.10036026686429977 -0.07872667908668518 0.49901050329208374 -0.07337000966072083 -0.3784688413143158 0.29564547538757324 0.24780341982841492 -0.28613418340682983 -0.2931067943572998 0.0011725859949365258 0.19334334135055542 0.007523436564952135 0.2596661150455475 -0.24040353298187256 0.5788212418556213 -0.19635559618473053 0.16568537056446075 0.3666011095046997 -0.0399785116314888 0.047324467450380325 0.18176762759685516 0.03775399178266525 -0.055947836488485336 -0.2054002434015274 -0.23007279634475708 0.021661486476659775 -0.1926063746213913 -0.0055702137760818005 -0.10557582974433899 0.14057038724422455 0.3628847897052765 0.46499350666999817 0.3149760961532593 -0.12413583695888519 -0.0011120662093162537 -0.11943970620632172 0.392031192779541 0.033736880868673325 -0.1888025999069214 0.11202528327703476 -0.10407377779483795 -0.14075994491577148 0.06433922052383423 0.1401713341474533 0.018663685768842697 -0.015598342753946781 -0.25589752197265625 0.17636270821094513 0.12762202322483063 0.32154539227485657 0.4510246515274048 0.11029307544231415 -0.18570367991924286 -0.06990627199411392 0.08751169592142105 0.11809644848108292 0.1427052915096283 0.22273103892803192 -0.08659959584474564 0.18725068867206573 0.06454446911811829 -0.013850286602973938 0.40200474858283997 -0.3174835741519928 0.06404422968626022 0.48859983682632446 0.044821105897426605 0.26875752210617065 -0.01458071544766426 0.27115580439567566 -0.25252529978752136 -0.14088933169841766 -0.11209553480148315 -0.03276475518941879 -0.0544821172952652 -0.048480723053216934 0.19252586364746094 0.13371838629245758 -0.08797802031040192 -0.10432729125022888 -0.14472781121730804 0.30326226353645325 0.3521926701068878 -0.06929676234722137 0.2414417564868927 0.05928545445203781 -0.2974618971347809 -0.032135821878910065 -0.04856574535369873 0.18584197759628296 -0.32855725288391113 -0.4475969672203064 -0.13472586870193481 0.03153238818049431 0.10209286212921143 0.17022818326950073 0.34292295575141907 0.15533579885959625 -0.19534166157245636 -0.09500109404325485 -0.22709591686725616 0.13990668952465057 0.24306297302246094 0.3269132971763611 -0.10366157442331314 -0.08499269932508469 -0.14491556584835052 0.2585124671459198 -0.37793177366256714 0.3391300439834595 0.3612256348133087 0.13394637405872345 -0.5543848872184753 -0.06290879845619202 -0.34181541204452515 -0.0035737419966608286 0.3023916780948639 -0.07386915385723114 -0.0773775652050972 -0.1364595741033554 -0.13326287269592285 -0.2034797966480255 0.35726290941238403 0.3614181578159332 0.019603827968239784 0.10118801146745682 0.15047359466552734 -0.0021040155552327633 -0.2029190957546234 0.09070782363414764 0.18771670758724213 -0.12753789126873016 -0.1304328292608261 0.09033212810754776 0.11606933176517487 0.07438064366579056 0.3188473582267761 0.49000921845436096 0.2834458649158478 0.20634789764881134 -0.18691186606884003 0.04592474550008774 0.19506166875362396 -0.2812066674232483 -0.40145188570022583 0.17705489695072174 0.11554525047540665 0.27057135105133057 -0.27105093002319336 0.2530025243759155 -0.1863521933555603 0.06601257622241974 -0.14938972890377045 -0.20024093985557556 -0.15346410870552063 0.43679288029670715 0.3808038532733917 0.09325090795755386 0.025293612852692604 0.18198871612548828 0.19617772102355957 0.0161557886749506 0.09172463417053223 -0.37752172350883484 0.24698837101459503 0.16132503747940063 0.06535141170024872 -0.11117573827505112 0.1495843529701233 0.09199897199869156 -0.17313815653324127 -0.20895446836948395 -0.06755504757165909 0.25596481561660767 0.40872499346733093 -0.03069816529750824 0.23385046422481537 0.4283566176891327 0.13945987820625305 0.10852090269327164 -0.18282204866409302 0.4567130208015442 0.48395609855651855 -0.05298124998807907 -0.13561297953128815 0.019344907253980637 -0.17341019213199615 -0.09291759878396988 0.5403746366500854 -0.07904102653265 -0.3749193251132965 -0.02247377298772335 -0.07083602249622345 0.07058544456958771 0.26853546500205994 -0.27182820439338684 0.3667793869972229 0.232263445854187 -0.3863568902015686 0.23194237053394318 -0.322938472032547 -0.3039538860321045 -0.1349310278892517 0.29636043310165405 0.09936565160751343 -0.1966724991798401 -0.1538131833076477 -0.20497877895832062 -0.6946529746055603 -0.13346736133098602 0.6253414750099182 -0.22047166526317596 -3.080461756326258E-4 0.26724934577941895 0.35901525616645813 -0.02572237327694893 -0.019021106883883476 -0.047649651765823364 -0.1489022970199585 -0.2325817048549652 0.03786861151456833 -0.36963745951652527 -0.24809905886650085 -0.057289402931928635 0.4704767167568207 -0.050879959017038345 0.11090369522571564 0.33424142003059387 0.20156201720237732 -0.06372731178998947 0.14687126874923706 0.04628431424498558 -0.08410146832466125 0.1953841596841812 0.23793357610702515 0.24929118156433105 0.49512484669685364 0.0021309193689376116 0.05002410709857941 0.21687379479408264 0.14780159294605255 -0.19920195639133453 0.4265090823173523 0.42704102396965027 0.2723766267299652 0.25785455107688904 0.375642865896225 -0.06461732089519501 0.3738618791103363 0.5283501148223877 -0.28082332015037537 -0.057652655988931656 -0.2841670513153076 0.03572116792201996 -0.2697274684906006 0.37554076313972473 0.07261670380830765 0.07138729840517044 0.20345306396484375 0.16654323041439056 -0.20809254050254822 0.19466018676757812 0.20412887632846832 -0.2977910041809082 0.32966944575309753 0.36510324478149414 0.1326613873243332 -0.10157071799039841 0.10856842994689941 -0.38554006814956665 -0.17649854719638824 -0.16280363500118256 0.05548647791147232 -0.23736463487148285 0.07829542458057404 0.0834415927529335 0.49116721749305725 -0.08517521619796753 0.29089951515197754 0.3232439160346985 -0.17794299125671387 0.10318615287542343 0.3382309377193451 -0.16802874207496643 0.13089318573474884 -0.324634313583374 -0.5035930871963501 0.18164999783039093 0.2018025815486908 -0.3546421229839325 -0.35405996441841125 -0.3878098428249359 0.06424379348754883 -0.003729624208062887 -0.024683542549610138 -0.05685678869485855 0.07622554898262024 -0.07506785541772842 -0.16572318971157074 0.2660500407218933 0.014872190542519093 0.008807115256786346 0.002678485820069909 -0.012006118893623352 -0.01105996873229742 0.006660685874521732 0.0018221449572592974 -0.01406063511967659 -5.052473861724138E-4 -0.017415309324860573 0.012729968875646591 -0.007230944000184536 -0.022406086325645447 0.004647191148251295 -0.036049261689186096 0.007694993168115616 0.012386143207550049 3.8330661482177675E-4 0.008055068552494049 0.001088317483663559 -0.028142746537923813 0.028550129383802414 0.0017050252063199878 -0.010898263193666935 0.009168722666800022 -0.012315606698393822 -0.029927073046565056 -0.006211249623447657 -0.0037008123472332954 0.0021981350146234035 -0.019248945638537407 -0.02605471946299076 -0.00646063731983304 -0.006039052736014128 -0.022533392533659935 -0.026976395398378372 -0.013036120682954788 2.879280364140868E-4 -0.009219464845955372 -0.04216739162802696 -0.0034674264024943113 -0.009728691540658474 -5.048192688263953E-4 0.021503427997231483 -0.012561019510030746 -0.014235441572964191 -0.012988604605197906 -0.02895651012659073 -0.006440951023250818 3.4388224594295025E-4 -0.017567137256264687 0.09412379562854767 -0.12361854314804077 -0.04668692126870155 -0.08367027342319489 0.15356402099132538 -0.10876981914043427 -7.173767662607133E-4 0.1311960071325302 -0.029569409787654877 -0.005514656659215689 0.05547577142715454 0.1944751888513565 0.1898702085018158 0.02820141799747944 0.02853463962674141 0.07439124584197998 -0.05343587324023247 0.020052924752235413 0.02551226317882538 -0.1354612112045288 0.050661083310842514 0.04199133813381195 -0.04039398953318596 0.11867842078208923 -0.32528814673423767 0.1320611834526062 -0.05168882757425308 -0.0034892470575869083 -0.1737506240606308 -0.059668149799108505 -0.0649634599685669 0.2786245346069336 -0.057368263602256775 -0.13006184995174408 0.04475567117333412 -0.098653644323349 -0.1526087522506714 -0.13206270337104797 0.11868120729923248 -0.29640287160873413 0.13562652468681335 -0.00629444420337677 0.04313863813877106 -0.31942394375801086 -0.05561675503849983 -0.12041155248880386 0.11642879247665405 -0.04337992146611214 -0.10058805346488953 -0.15429261326789856 -0.25733181834220886 -0.026346685364842415 0.012873162515461445 -0.08960969001054764 -0.1832975596189499 0.02640645019710064 -0.11223775148391724 -0.11197631061077118 0.12937310338020325 0.0018948864890262485 -0.016511503607034683 0.19374391436576843 -0.14627809822559357 0.08350104093551636 -0.07489524036645889 -0.004969546105712652 0.0016716428799554706 -0.14667323231697083 -0.00605809548869729 0.08606594055891037 0.15796765685081482 0.08592120558023453 0.10519450157880783 -0.1949526071548462 0.1538313627243042 -0.13817758858203888 -0.14855201542377472 0.06588415056467056 0.019214436411857605 -0.15624386072158813 -0.24965494871139526 0.0038182560820132494 0.26585444808006287 -0.1340121328830719 -0.15526416897773743 0.03200415149331093 -0.16446536779403687 0.05222892388701439 0.10099495947360992 0.0634000226855278 0.13025976717472076 0.04641544818878174 0.17390871047973633 -0.03375684469938278 -0.12749922275543213 -0.09316035360097885 0.13986563682556152 -0.03998946771025658 0.03513786569237709 -0.08346791565418243 0.2442065328359604 -0.03523325175046921 -0.02610345557332039 -0.07702808827161789 0.06819203495979309 -0.07998354732990265 -0.004854906350374222 -0.08430428802967072 0.002651684219017625 0.10033544898033142 0.01229447778314352 -0.06242335960268974 0.020772136747837067 -0.005276987794786692 0.14678837358951569 -0.010602672584354877 -0.04554928466677666 0.11906557530164719 -0.054535362869501114 -0.06865236908197403 -0.033481962978839874 -0.08296643197536469 0.13148784637451172 0.08140142261981964 -0.16902309656143188 -0.06659974157810211 0.17861957848072052 0.021038653329014778 0.02539360709488392 -0.007571634370833635 0.11403603851795197 -0.0993068739771843 -0.0446850061416626 -0.01804358698427677 0.036303482949733734 0.15218192338943481 0.14602850377559662 0.18228934705257416 0.02585511840879917 0.04264845699071884 0.219611257314682 0.04106097295880318 0.18886590003967285 -0.17328141629695892 -0.07703813165426254 0.07991582155227661 0.13714198768138885 -0.24906429648399353 -0.05505586415529251 0.03231120482087135 -0.1604848951101303 0.14230799674987793 0.08546031266450882 -0.02718951739370823 -0.15677276253700256 0.08196935057640076 -0.17481142282485962 0.1110725924372673 -0.22479212284088135 0.026446333155035973 0.0934140607714653 -0.10969151556491852 -0.3054032027721405 -0.11831580847501755 -0.040960561484098434 -0.07041491568088531 0.01783750206232071 0.13969898223876953 0.0311147328466177 -0.004947262350469828 -0.021702148020267487 0.0070551917888224125 0.024116666987538338 -0.004937601741403341 -0.07839664071798325 -0.07204189151525497 -0.11130189150571823 0.0756482258439064 -0.0366610512137413 0.14800548553466797 -0.07301834225654602 0.2019369900226593 -0.03609870374202728 0.1764308661222458 -0.1324598789215088 -0.12021436542272568 -0.049361392855644226 -0.11881538480520248 0.12432274222373962 0.16953761875629425 -0.10513509064912796 -0.06670726835727692 -0.17385464906692505 0.09382402151823044 0.21259595453739166 0.13817527890205383 -0.0899360403418541 0.08254479616880417 -0.13638047873973846 -0.17383040487766266 -0.1897088587284088 0.16834993660449982 -0.1396457701921463 -0.12376406043767929 0.02542392536997795 0.07658908516168594 -0.1313110888004303 0.08589884638786316 -0.10034607350826263 0.28736811876296997 -0.1439385712146759 -0.18169482052326202 -0.014050220139324665 0.09757627546787262 1.5034859825391322E-4 0.17087893187999725 0.02746017836034298 -0.07687008380889893 0.08396090567111969 -0.09985647350549698 0.023435935378074646 -0.16285185515880585 0.026105128228664398 -0.21098753809928894 -0.05992421880364418 0.13094200193881989 -0.057899605482816696 0.013057711534202099 -0.002599596045911312 -0.21435387432575226 -0.12608540058135986 -0.048021890223026276 0.004718759562820196 0.23025181889533997 0.23501019179821014 -0.08104730397462845 -2.3212266387417912E-4 -0.061490729451179504 0.16439546644687653 0.1219928041100502 0.0714166983962059 -0.07413653284311295 0.16057702898979187 -0.09451957792043686 0.0024178652092814445 -0.012013871222734451 0.0834205225110054 0.1936255544424057 -0.08559247851371765 0.017810458317399025 -0.07600750774145126 0.04494617506861687 -0.08014730364084244 -0.051191553473472595 -0.07626382261514664 0.053198881447315216 -0.15114909410476685 -0.1257459819316864 -0.10265535116195679 0.010529992170631886 0.20959465205669403 0.1280900537967682 0.011321197263896465 -0.1662055402994156 -0.26824823021888733 0.014076469466090202 0.025311065837740898 -0.05372300371527672 -0.0010100757936015725 0.049021825194358826 0.15934276580810547 -0.0421026274561882 -0.19124597311019897 -0.024884464219212532 0.1726565808057785 0.005307785701006651 0.0794580951333046 0.08916772156953812 -0.03045441024005413 0.04086821898818016 0.09402817487716675 -0.031207336112856865 -0.025472329929471016 0.10066121071577072 0.10923662036657333 -0.0268827136605978 -0.02073325216770172 0.08079558610916138 -0.0191340371966362 -0.12023667246103287 0.00916146207600832 -0.07619090378284454 0.03776547685265541 0.14932318031787872 -0.07572616636753082 -0.0531197115778923 0.20005100965499878 0.04269726574420929 -0.009071111679077148 0.08137599378824234 -0.05867264047265053 0.009117481298744678 -0.24485903978347778 -0.22809651494026184 0.19543702900409698 0.04898678511381149 0.20836426317691803 0.14400160312652588 -0.07599584013223648 0.011591288261115551 0.12527194619178772 -0.015152724459767342 -0.008715357631444931 0.13175469636917114 0.06055612489581108 0.04235090687870979 -0.09479078650474548 -0.1883617788553238 -0.027936987578868866 0.15113502740859985 -0.02715127542614937 -0.2051018625497818 0.06667213141918182 -0.013024394400417805 0.09044305235147476 -0.008788764476776123 -0.19586940109729767 -0.03924667462706566 0.0070152669213712215 0.10680999606847763 -0.0819314643740654 0.021227510645985603 -0.033702585846185684 -0.1413211226463318 0.3051508665084839 -0.22901864349842072 0.028027137741446495 -0.09817299991846085 -0.3440597951412201 0.03351180627942085 0.05211877077817917 -0.1642334759235382 0.07576540112495422 -0.05263631418347359 0.1192186027765274 -0.06534817069768906 0.01042868196964264 -0.11634104698896408 0.19316400587558746 0.047829508781433105 0.12323032319545746 -0.09602563828229904 -0.0666695311665535 -0.18309268355369568 0.15366965532302856 0.027296505868434906 -0.12904050946235657 -0.05628411844372749 0.05461188033223152 -0.0517842061817646 0.03965582698583603 0.2757594883441925 0.12727583944797516 -0.07472515851259232 0.15341582894325256 0.048752229660749435 0.09381040185689926 0.022957535460591316 0.0030534418765455484 0.051445525139570236 -0.08556433767080307 0.24594953656196594 0.12166020274162292 0.07676059007644653 -0.008984948508441448 -0.14189578592777252 -0.06491106748580933 0.18582285940647125 -0.3221450448036194 -0.03143481910228729 0.00628594821318984 0.0886269062757492 0.01692964695394039 -0.27547475695610046 -0.08918891102075577 0.060477279126644135 -0.027330046519637108 0.04315122589468956 -0.08962602913379669 -0.01763337291777134 -0.07313258945941925 -0.26840445399284363 -0.06019052118062973 -0.05830036848783493 0.07367527484893799 0.15015754103660583 -0.01934148371219635 0.10562316328287125 -0.10049501806497574 0.013547609560191631 0.10306992381811142 0.07018263638019562 0.048572320491075516 0.17560110986232758 -0.17780187726020813 0.1672755628824234 -0.11166482418775558 -0.04498288035392761 0.07210240513086319 -0.038316428661346436 -0.2830066680908203 -0.14451822638511658 0.04585147276520729 -0.04276081547141075 -0.2863098978996277 9.081646567210555E-4 -0.03249827399849892 -0.09366811066865921 -0.19518892467021942 -0.047733865678310394 0.05675475671887398 -0.07552560418844223 0.059927988797426224 2.2697057283949107E-4 -0.011116007342934608 -0.009216896258294582 -0.14394207298755646 -0.1528215855360031 0.004637597594410181 0.0014824456302449107 0.027960890904068947 0.15532252192497253 0.09413793683052063 0.09184552729129791 -0.10895269364118576 -0.13670434057712555 -0.004182257689535618 -0.04832572117447853 0.017805607989430428 0.00805690698325634 0.10610618442296982 0.15555885434150696 -0.2018350511789322 -0.01964784413576126 0.0884498655796051 0.05999617278575897 0.007019525393843651 0.02829107828438282 0.09682224690914154 -3.491560055408627E-4 -0.05980473384261131 0.23229016363620758 0.07649050652980804 0.14298924803733826 0.3646865785121918 0.0782858207821846 -0.02539501152932644 -0.2326311618089676 -0.27843552827835083 0.04695465788245201 0.08104375004768372 0.055730801075696945 -0.1785329431295395 -0.06317064166069031 0.13690349459648132 -0.1606992781162262 0.14102919399738312 0.21100866794586182 -0.06106482446193695 0.03555523231625557 0.15499843657016754 -0.2874697744846344 -0.20445731282234192 0.04481387138366699 -0.06683389097452164 -0.09695717692375183 0.05580056458711624 -0.006283523049205542 -0.16572880744934082 0.11773903667926788 0.12696190178394318 -0.17158833146095276 0.05659094080328941 0.11826647818088531 0.22667939960956573 0.17939652502536774 -0.10946091264486313 0.17476771771907806 0.016966067254543304 -0.04600835591554642 -0.12908117473125458 0.19265933334827423 0.004942082334309816 0.025464704260230064 0.11185702681541443 0.08776713162660599 0.009688225574791431 -0.07008523494005203 -0.09782213717699051 -0.1388033926486969 -0.06751371920108795 0.011957756243646145 -0.05528536066412926 0.14837825298309326 -0.16809377074241638 -0.15358875691890717 0.047993965446949005 0.017107199877500534 -0.22819533944129944 0.08516708016395569 -0.11400216817855835 0.05905129387974739 0.07682791352272034 -0.06663931906223297 0.1867917776107788 0.02009863220155239 0.17844147980213165 0.12351680546998978 -0.006162644829601049 -0.10368090867996216 0.18627575039863586 0.039719559252262115 -0.24721865355968475 0.05311086028814316 -0.13500726222991943 -0.14622773230075836 0.058285344392061234 -0.06034735590219498 0.030448613688349724 0.04710853099822998 0.15345604717731476 0.10928773880004883 0.1473284810781479 -0.08363685011863708 -0.0334964245557785 -0.19521409273147583 -0.02293623611330986 -0.062105536460876465 -0.14992894232273102 0.03582657873630524 0.1854955106973648 0.3047275245189667 0.0330163910984993 -0.20972321927547455 0.056275855749845505 -0.10461577773094177 0.14673025906085968 0.10153365135192871 -0.2003946453332901 -0.016970153898000717 -0.012788120657205582 -0.11335086077451706 0.1525469720363617 0.20412389934062958 0.038110796362161636 0.034242596477270126 -0.15904825925827026 0.04999246075749397 0.01945469155907631 0.025217223912477493 0.1177421435713768 -0.17834824323654175 0.19345133006572723 0.12095705419778824 -0.09588412940502167 0.2207406759262085 -0.03749445080757141 -0.15566426515579224 0.06688354909420013 0.10149414837360382 0.12367567420005798 0.06648842990398407 0.13193121552467346 -0.10954513400793076 -0.04201816767454147 0.021666714921593666 0.11071362346410751 -0.1734188199043274 -0.129306823015213 0.05617787316441536 0.11104961484670639 -0.030148055404424667 -0.0999826118350029 -0.010029016062617302 -0.23515748977661133 -0.06115734204649925 -0.12815885245800018 -0.13653719425201416 -0.0546484999358654 0.19530253112316132 -0.04408784210681915 -0.02864501252770424 -0.29211246967315674 -0.015867983922362328 -0.17565126717090607 -0.05149667710065842 -0.33328941464424133 -0.06616684794425964 -0.04213150590658188 0.011304684914648533 0.09152893722057343 0.037235334515571594 -0.08434581756591797 -0.16453835368156433 0.16807261109352112 -0.2357933074235916 0.15129917860031128 -0.0704251304268837 0.08153389394283295 0.06412696838378906 0.061987388879060745 -0.21468102931976318 -0.007525116670876741 0.02466515265405178 -0.029708001762628555 0.07475767284631729 0.19066964089870453 0.10837122797966003 0.10297709703445435 -0.209243044257164 -0.017040671780705452 -0.12284880876541138 0.06767573952674866 -0.01837257668375969 -0.040399327874183655 0.07924768328666687 -0.038191329687833786 -0.020618025213479996 -0.14164195954799652 -0.1948329210281372 -0.21842709183692932 -0.2662968933582306 -0.006972690112888813 -0.09520594030618668 -0.23553045094013214 0.05149286985397339 -0.1616092324256897 0.0010816841386258602 -0.23847834765911102 0.06280755996704102 -0.24789667129516602 0.0029450030997395515 -0.14050672948360443 0.049565643072128296 -0.25593218207359314 -0.21062785387039185 -0.20277224481105804 -0.04465380683541298 -0.3473701477050781 0.08271627128124237 -0.13231374323368073 0.06792337447404861 -0.017665483057498932 -0.033160023391246796 -0.05169614031910896 0.16082066297531128 0.10061817616224289 0.0455789677798748 0.08215571194887161 0.0933864638209343 0.07518074661493301 -0.019950320944190025 -0.13058874011039734 0.05211520567536354 -0.10563872009515762 0.03360074386000633 0.07130444049835205 -0.05969105288386345 -0.10338309407234192 0.14910788834095 -0.08830209821462631 -0.22169607877731323 0.043790627270936966 0.0374622568488121 -0.05128716304898262 0.04776855185627937 -0.15427003800868988 -0.04276962950825691 -0.06229948624968529 -0.03138476237654686 0.19616708159446716 -0.078961580991745 0.1612679660320282 -0.18316562473773956 0.2180435210466385 -0.026125401258468628 0.298991858959198 -0.066217340528965 -0.15344788134098053 -0.04018715023994446 0.1832307130098343 -0.39690491557121277 0.06672301143407822 0.04450928047299385 0.11397626996040344 0.22275422513484955 -0.1430714875459671 0.007755262777209282 -0.006837869994342327 0.12086353451013565 -0.12588432431221008 0.09761831909418106 -0.03829328715801239 -0.17575998604297638 -0.17330124974250793 0.1675562858581543 0.0672675296664238 0.14713799953460693 0.1570630669593811 -0.03311996906995773 -0.2182462513446808 -0.16454273462295532 0.09201211482286453 0.09263225644826889 -0.1463690847158432 0.00858539342880249 0.1046476811170578 0.008758761920034885 -0.029035907238721848 -0.15290556848049164 0.3089521527290344 0.15357226133346558 -0.08797354251146317 0.07760836184024811 -0.11412506550550461 -0.09426753968000412 0.06211620569229126 -0.09247203171253204 0.17453747987747192 0.013733156025409698 -0.1161409541964531 -0.0348106324672699 0.23077696561813354 0.0028251889161765575 -0.03461989015340805 0.08397810906171799 0.03532446175813675 -0.15267491340637207 0.11716040223836899 0.03222890570759773 -0.11983860284090042 0.12364432215690613 0.2741105556488037 0.11311743408441544 0.01812281832098961 -0.21673308312892914 0.14282876253128052 -0.013050009496510029 -0.009387873113155365 -0.04669161140918732 -0.03479069471359253 -0.11427690833806992 -0.08222022652626038 0.047016702592372894 0.1326720267534256 -0.2359454184770584 0.22206930816173553 -0.015556282363831997 0.03381193429231644 -0.007403277326375246 -0.18179084360599518 -0.09549085050821304 -0.04989071935415268 -0.08883874863386154 0.09276767075061798 -0.12602463364601135 0.059701140969991684 0.2379888892173767 -0.04085768014192581 0.22759871184825897 0.11960495263338089 0.28378990292549133 -0.039538271725177765 -0.11000009626150131 0.14198310673236847 0.0792715847492218 0.03810449317097664 -0.038446057587862015 -0.1952597200870514 -0.06966166198253632 -0.0386829748749733 -0.3520609140396118 0.10275080054998398 -0.2132992148399353 0.05808558315038681 0.08626201748847961 -0.12605421245098114 0.0891454890370369 0.4095800817012787 -0.003510227892547846 -0.15705595910549164 -0.04560490697622299 0.04469471052289009 -0.02212146483361721 -0.23328301310539246 0.015703240409493446 -0.1599123477935791 -0.1436758041381836 0.06877586990594864 -0.03548588976264 -0.08650290966033936 0.3109433352947235 -0.04787261411547661 0.11229314655065536 0.13371750712394714 -0.17322731018066406 -0.19850003719329834 -0.13233038783073425 0.09818189591169357 0.02570858597755432 0.11967906355857849 -0.1915825605392456 0.033178385347127914 -0.04293054714798927 -0.0011035060742869973 -0.02170226350426674 -0.16488945484161377 0.03969984129071236 -0.3175676167011261 -0.021765343844890594 -0.2542652487754822 0.03016781248152256 0.003787063295021653 0.06982017308473587 -0.14198391139507294 -0.009670092724263668 0.137943297624588 -0.04537387564778328 -0.03261277824640274 -0.3041135370731354 -0.21472755074501038 0.08985177427530289 0.016084643080830574 0.061071962118148804 -0.04342072457075119 0.04586653783917427 -0.23328156769275665 0.07700924575328827 -0.056790076196193695 -0.03096465952694416 -0.2801850438117981 0.16273193061351776 0.035652656108140945 -0.04368748143315315 -0.14537543058395386 -0.06906121224164963 0.20983316004276276 0.05963543429970741 0.2310040295124054 0.02410111017525196 0.15550854802131653 0.15097272396087646 0.10424953699111938 0.24419927597045898 -0.04679232835769653 -0.025256816297769547 0.16533774137496948 -0.11491722613573074 -0.09277677536010742 0.1278429925441742 -0.08897510915994644 0.012241949327290058 -0.02100762352347374 0.02274167351424694 0.04121902585029602 0.1716209501028061 -0.03451704978942871 0.2899340093135834 0.1267644166946411 -0.10872942209243774 -0.24066895246505737 -0.16345252096652985 0.06639521569013596 -0.05033264681696892 -0.1773083657026291 -0.0649411752820015 0.05039491131901741 -0.11953016370534897 0.020713185891509056 0.05976015701889992 0.0671311616897583 -0.19800128042697906 -0.17436479032039642 -0.10836324840784073 0.13031210005283356 -0.06462669372558594 -0.19510596990585327 -0.04202374070882797 0.11460379511117935 0.16422374546527863 -0.014658336527645588 -0.09776362776756287 -0.030395451933145523 0.029445813968777657 -0.046396855264902115 0.12020274996757507 0.19705352187156677 0.15750457346439362 -0.06166750565171242 0.2502152621746063 -0.10273143649101257 -0.134416401386261 0.2054951936006546 -0.1863563358783722 -0.05860289931297302 -0.12431387603282928 0.2720075845718384 -0.1916245073080063 -0.007525421213358641 0.006471547298133373 0.13425354659557343 -0.14289449155330658 -0.17856602370738983 0.12762118875980377 0.07067393511533737 0.04074800759553909 0.21859386563301086 0.21285949647426605 -0.04289670288562775 -0.20447227358818054 0.0678221732378006 -0.11981124430894852 -0.01715284027159214 0.10857260972261429 -0.04852929338812828 -0.02863038331270218 -0.08073332160711288 0.05627609044313431 -0.023269664496183395 0.07146331667900085 0.13526971638202667 0.0968819186091423 -0.04809516295790672 0.2389303296804428 0.01435024943202734 -0.12014271318912506 -0.20118668675422668 0.00635470962151885 -0.13432550430297852 -0.017962606623768806 -0.1138964295387268 0.023768329992890358 0.03195424750447273 -0.0788547620177269 -0.012935913167893887 -0.007518736179918051 0.186744824051857 0.2204747051000595 0.1779579073190689 0.0029646677430719137 -0.1476040631532669 0.017425766214728355 -0.06781057268381119 0.202159583568573 -0.04899334907531738 0.06023286655545235 -0.08894872665405273 -0.0294360164552927 0.13651731610298157 0.28298455476760864 0.06332599371671677 0.17615629732608795 0.21577271819114685 -0.2417021244764328 0.025016414001584053 -0.013999196700751781 0.12034185975790024 0.0840737521648407 0.09235009551048279 -0.11597789078950882 -0.030100949108600616 0.001254847040399909 -0.2108502984046936 -0.10855497419834137 -0.1759141981601715 0.14653810858726501 0.13128893077373505 -0.0343765914440155 -0.17897768318653107 -0.1011270061135292 0.06732434034347534 -0.0015239499043673277 -0.06828247010707855 0.04641567915678024 0.024154601618647575 0.08988241851329803 0.001291188644245267 -0.08668343722820282 -0.07495636492967606 0.02832856960594654 -0.16205976903438568 -0.08116239309310913 -0.021736275404691696 0.1806083470582962 -0.1054031029343605 0.008726066909730434 -0.013603361323475838 0.12784802913665771 -0.28899475932121277 0.0036896108649671078 -0.019868796691298485 0.32475745677948 0.16943219304084778 -0.19858434796333313 -0.09812144935131073 -0.09844387322664261 -0.07162655144929886 0.16532909870147705 0.11833886802196503 0.14828236401081085 -0.09021234512329102 0.12770205736160278 -0.01038979273289442 -0.06490414589643478 0.13254716992378235 -0.13615719974040985 -0.043883346021175385 0.0483090840280056 -0.11859486252069473 -0.07296371459960938 -0.09793484956026077 0.19542977213859558 0.0823962390422821 -0.12774325907230377 0.1517709642648697 -0.1916847676038742 0.009941466152668 0.2998661398887634 0.0031151450239121914 0.01890859194099903 0.037262383848428726 -0.2155899703502655 -0.0071127102710306644 0.19675344228744507 0.004166857339441776 0.03657054156064987 -0.019881434738636017 -0.03378286212682724 0.05690836161375046 -0.005843677092343569 0.13408184051513672 -0.03454777970910072 -0.13385097682476044 -0.17212887108325958 -0.14143310487270355 0.05497147887945175 0.1447599083185196 -0.05841169133782387 -0.13240516185760498 0.11999489367008209 0.15905162692070007 -0.10562539100646973 0.011491428129374981 0.03337660804390907 0.025320686399936676 -0.23360119760036469 -0.013200960122048855 0.024516116827726364 0.08697179704904556 -0.2765967845916748 0.13876138627529144 0.009840150363743305 -0.0850195586681366 0.09933876246213913 0.11610047519207001 -0.0323856845498085 0.14301328361034393 0.0429479256272316 0.055541813373565674 0.14897488057613373 -0.051661163568496704 -0.011290518566966057 -0.13827760517597198 0.3455321788787842 0.007492502685636282 -0.10807386040687561 0.07872138917446136 0.14101822674274445 -0.033997923135757446 0.07389982044696808 -0.048927608877420425 0.008841036818921566 -0.13177157938480377 -0.24786803126335144 0.07309725135564804 0.019801940768957138 0.07608506828546524 -0.1368889957666397 0.048575107008218765 0.11453380435705185 -0.06480348110198975 -0.17848628759384155 -0.1059761568903923 -0.02879774197936058 0.04937818646430969 0.03741591423749924 -0.01586185023188591 -0.16207805275917053 -0.18014802038669586 0.11111292988061905 -0.021188469603657722 0.1349494755268097 0.08268608152866364 -0.15661019086837769 0.03773537650704384 0.17406988143920898 -0.06573526561260223 0.05398297682404518 0.049672916531562805 0.03533872589468956 -0.019246350973844528 -0.08173956722021103 0.05451657250523567 -0.08772733807563782 0.12441541254520416 0.10842962563037872 0.16505751013755798 -0.10233145952224731 -0.06427902728319168 -0.025996478274464607 0.11103890836238861 0.12823496758937836 -0.006245093420147896 0.16689571738243103 -0.07937212288379669 -0.15728342533111572 0.20672181248664856 0.2074352204799652 0.10298720002174377 -0.020082920789718628 0.22711536288261414 0.0372014082968235 0.0229276642203331 0.11199533939361572 -0.127059206366539 0.06403647363185883 0.02925379015505314 -0.10084491223096848 -0.1352257877588272 -0.0043107084929943085 -0.05969908460974693 0.015231652185320854 -0.042921267449855804 -0.044874876737594604 -0.057942360639572144 -0.03377300128340721 0.12333060801029205 -0.08094045519828796 -0.12297864258289337 -0.025324976071715355 0.18790499866008759 0.13001327216625214 0.22640304267406464 -0.11284644156694412 0.09497304260730743 0.07410907745361328 -0.020997490733861923 -0.20167124271392822 0.2002444863319397 0.08773130923509598 -0.14529813826084137 -0.056907862424850464 4.176897637080401E-4 0.1809227615594864 -0.04929447919130325 0.0986393392086029 -0.056230880320072174 -0.151028573513031 0.03327542170882225 -0.04252074286341667 -0.02529613859951496 -0.09595543146133423 -0.26903948187828064 -0.0027778237126767635 -0.13053935766220093 0.21418161690235138 0.009971178136765957 -0.055173132568597794 0.03581101447343826 0.12180452793836594 -0.05357877537608147 0.09298424422740936 -0.04849868267774582 -0.18729045987129211 0.10045191645622253 -0.05146174877882004 -0.10692660510540009 0.045658089220523834 -0.11572731286287308 0.19430018961429596 -0.010593145154416561 0.06165754795074463 -0.04071194678544998 -0.05997847765684128 0.11080539226531982 -0.0046592773869633675 -0.11640042066574097 -0.126445010304451 -0.05479886010289192 0.14761334657669067 -0.04605153203010559 0.10622669756412506 -0.001267637824639678 0.1376175731420517 -0.0032071666792035103 0.16592274606227875 -0.06310556083917618 0.1858634054660797 -0.07261305302381516 0.08958786725997925 0.03226882964372635 0.177485391497612 0.1420200765132904 -0.06404689699411392 0.14969153702259064 -0.06980272382497787 0.16906817257404327 0.1394379734992981 -0.05836988985538483 -0.18955671787261963 -0.09322614222764969 0.008047238923609257 -0.018568130210042 0.005156137049198151 -0.05754495784640312 0.03808801621198654 -0.19887258112430573 -0.10356620699167252 0.03749101608991623 0.115284763276577 0.12736065685749054 0.009053673595190048 -0.2427995800971985 0.14690417051315308 -0.09764628112316132 0.13481493294239044 -0.16356241703033447 0.08456945419311523 -5.2524119382724166E-5 0.01310124434530735 0.03203713521361351 -0.2454267293214798 0.13278470933437347 -0.055206548422575 -0.04398266598582268 0.06159229204058647 0.09791180491447449 -0.042054444551467896 0.07185228168964386 0.11438364535570145 0.03929022699594498 -0.04026861488819122 0.04006056487560272 0.1119636669754982 0.07303905487060547 0.006622457876801491 0.03255978971719742 -0.07191596180200577 -0.040749404579401016 0.13506263494491577 -0.009696712717413902 0.2297390252351761 -0.012741544283926487 0.22782781720161438 0.18517673015594482 0.0993787944316864 0.03229271620512009 0.07327309995889664 -0.18176226317882538 0.138756662607193 -0.01021534949541092 -0.13022251427173615 -0.12982721626758575 -0.05749548226594925 -0.037472326308488846 -0.05382446199655533 -0.1518133282661438 0.05741668865084648 0.18502306938171387 -0.14003992080688477 -0.03872629627585411 0.002052329946309328 -0.015378543175756931 -0.02601713500916958 -0.1406206488609314 -0.08056674152612686 0.2029082328081131 0.14049839973449707 0.07150086760520935 -0.0565803162753582 -0.1243460401892662 -0.02837499976158142 0.09660953283309937 0.11412331461906433 0.13603967428207397 -0.06087107211351395 -0.11089824140071869 -0.18998843431472778 0.12810303270816803 -0.04551180824637413 0.011380513198673725 -0.1372227519750595 -0.0590893030166626 -0.0019405510975047946 -0.11116386204957962 -0.016644859686493874 0.04692188650369644 0.16748060286045074 -0.1840868592262268 -0.2083534300327301 -0.02229194901883602 0.053098708391189575 0.06386138498783112 -0.11733561009168625 -0.09676697105169296 0.03878354653716087 -0.043731268495321274 0.036803994327783585 -0.08918570727109909 -0.06761331111192703 0.15592142939567566 0.02754354476928711 -0.11396293342113495 0.20074951648712158 0.020135696977376938 0.0073094540275633335 -0.07226526737213135 0.213981494307518 0.06630247086286545 -0.11781550198793411 -0.1759561151266098 0.027594413608312607 0.11110244691371918 -0.3383042514324188 0.02159028872847557 0.18575677275657654 -0.0528966560959816 0.20618104934692383 0.15239641070365906 0.010077444836497307 -0.005572800524532795 -0.168760284781456 -0.1808871626853943 0.10340449959039688 -0.09897421300411224 -0.20768757164478302 0.008327321149408817 0.042537808418273926 -0.054002679884433746 -0.13883182406425476 0.006861009635031223 -0.045798756182193756 0.14702552556991577 0.31076154112815857 0.13734622299671173 0.09301638603210449 0.058087434619665146 -0.1355661153793335 -0.0680762305855751 -0.086492620408535 -0.08294028043746948 -0.03214528411626816 0.04852701351046562 0.15401484072208405 -0.2564631998538971 0.055349260568618774 -0.04897678643465042 0.05450743809342384 -0.15877676010131836 -0.18737046420574188 -0.07264946401119232 -0.10298661887645721 0.013762359507381916 0.26204022765159607 0.005700995679944754 0.0279398150742054 -0.05548654496669769 0.21749673783779144 0.012799830175936222 -0.23074087500572205 -0.10531718283891678 -0.09996569901704788 -0.04425625503063202 0.0852406769990921 0.10681447386741638 -0.02830754779279232 -0.015648486092686653 0.0979507565498352 -0.26894694566726685 -0.2679491937160492 -0.14561209082603455 -0.022543923929333687 0.14531674981117249 -0.07684644311666489 -0.06038210913538933 -0.20399780571460724 -0.013969097286462784 -0.10039263963699341 -0.0693005695939064 0.02699742466211319 -0.031476326286792755 -0.07063338905572891 0.07485491037368774 0.0779210776090622 0.002399262273684144 0.018242429941892624 -0.10828002542257309 0.040096934884786606 -0.11834880709648132 0.02659236267209053 -0.0698252022266388 0.218681201338768 0.009821396321058273 0.07266376167535782 0.03461175039410591 0.05666675791144371 -0.10125003755092621 0.14122240245342255 -0.17482434213161469 0.04318210110068321 -0.1426851749420166 0.16974008083343506 -0.13078324496746063 -0.08211877197027206 0.022947033867239952 0.019550077617168427 0.002752162516117096 0.09675899893045425 -0.07405497878789902 -0.04744243249297142 0.18455585837364197 0.21461614966392517 0.19442963600158691 0.013446836732327938 0.1449689120054245 -0.05419055372476578 0.09357614070177078 -0.1307486593723297 0.0027636808808892965 -0.24938015639781952 -0.0646880567073822 0.10113927721977234 0.042529843747615814 0.020477864891290665 0.14669792354106903 0.161483496427536 -0.13761292397975922 -0.05207991227507591 -0.20603959262371063 -0.02554233744740486 0.05385898798704147 -0.32208678126335144 0.03799356892704964 -0.039339520037174225 -0.08077620714902878 -0.08151756972074509 -0.16774196922779083 -0.09833214432001114 0.09971412271261215 0.07312009483575821 -0.045139625668525696 0.14118003845214844 -0.1469990760087967 0.035170648247003555 -0.016505436971783638 0.1994764804840088 0.12678152322769165 0.16670216619968414 0.06528571248054504 -0.13541685044765472 -0.06975502520799637 0.07771072536706924 -0.0841793641448021 0.0366891510784626 0.006870109587907791 -0.0673113614320755 0.14632631838321686 -0.04433555155992508 -0.0037387805059552193 0.16800951957702637 0.051166292279958725 -0.08656197786331177 0.06483979523181915 -0.18038542568683624 -0.007638003211468458 -0.006950400769710541 0.19042691588401794 -0.03593381494283676 0.05083731561899185 0.019429393112659454 0.22296421229839325 -0.0242764912545681 7.379970047622919E-4 -0.03446497768163681 -0.011042260564863682 0.0843084380030632 0.0442243292927742 0.16387630999088287 2.4706567637622356E-4 -0.09844503551721573 0.004706160631030798 0.014048859477043152 -0.058069318532943726 -0.022945281118154526 -0.08565202355384827 -0.06643272191286087 -0.0776534229516983 -0.11803393810987473 0.19095805287361145 -0.08410242199897766 0.13861481845378876 -0.10534641146659851 -0.05367591604590416 0.008099905215203762 0.04979436472058296 0.03967192396521568 -0.10928164422512054 8.874188642948866E-4 0.05740395560860634 0.07765167206525803 0.03668832778930664 -0.11688382178544998 -0.04262574762105942 0.03259309381246567 0.12661373615264893 0.14146682620048523 0.08001057803630829 -0.08508415520191193 -0.02541232667863369 0.008896145038306713 -0.06110090762376785 0.049345944076776505 0.08982661366462708 -0.29621848464012146 0.27938205003738403 0.15568424761295319 0.09003244340419769 0.15284433960914612 0.061172034591436386 0.20749206840991974 0.06381538510322571 -0.11491226404905319 -0.014957872219383717 0.07430986315011978 0.08242028206586838 -0.08985758572816849 -0.057500701397657394 -0.026966769248247147 -0.19968195259571075 0.0371762216091156 0.09339025616645813 -0.18506664037704468 0.021111972630023956 0.07111257314682007 -0.1111922338604927 0.14614209532737732 -0.05347815901041031 0.13514326512813568 0.16364437341690063 0.02539784088730812 0.05404912307858467 0.0025615617632865906 -0.00828238669782877 -0.04530203714966774 0.0027973151300102472 0.0017766430974006653 0.021470988169312477 -0.04350963979959488 -0.19561387598514557 0.03712612763047218 -0.11049656569957733 0.061624038964509964 -0.10616039484739304 -0.035582203418016434 -0.05075817182660103 0.06815186887979507 -0.01840411126613617 -0.07087010890245438 -0.026708273217082024 -0.28546446561813354 -0.2617332339286804 -0.05678518861532211 0.15672838687896729 -0.20552276074886322 0.20038636028766632 -0.08787820488214493 0.04874688386917114 -0.1039351150393486 0.08335939049720764 0.2914765775203705 0.11783367395401001 -0.04521605372428894 -0.044190939515829086 -0.08231092244386673 0.047564487904310226 0.1327134072780609 -0.008431325666606426 0.037714846432209015 0.08601682633161545 -0.06898520141839981 0.0830584317445755 -0.023821720853447914 0.0989767536520958 0.08453542739152908 -0.07087476551532745 -0.30436670780181885 -0.01224413700401783 0.03542832285165787 0.0547623410820961 -0.06755059212446213 0.00822428334504366 -0.10182345658540726 -0.05502292141318321 0.0635470300912857 0.22033487260341644 -0.0021092782262712717 -0.1058381050825119 -0.03281538933515549 0.10582840442657471 -0.0826340839266777 0.18257170915603638 0.0011131352512165904 -0.14074964821338654 0.08796557039022446 -0.07858692109584808 -0.04455668479204178 -0.06367511302232742 -0.10109397023916245 -0.017782265320420265 0.17417562007904053 0.17073220014572144 -0.03343696519732475 0.2337692379951477 -0.1057424247264862 -0.0853143259882927 0.027785830199718475 -0.15356460213661194 0.09248427301645279 0.0774352177977562 -0.07010196149349213 0.11409251391887665 0.01343839056789875 -0.18452824652194977 0.11669129878282547 -0.19000399112701416 0.011235865764319897 -0.13672783970832825 -0.08697440475225449 -0.023854229599237442 -0.05723775550723076 0.1488543301820755 -0.009674781933426857 0.2592921257019043 -0.03860883042216301 -0.009869934059679508 0.26504191756248474 0.09754633158445358 0.03460048511624336 0.2569645643234253 -0.009248972870409489 -0.1429031789302826 -0.14944207668304443 -0.027420274913311005 -0.15726163983345032 -0.08516932278871536 -0.04520242661237717 -0.13472981750965118 -0.08649811148643494 0.1159723773598671 0.08116035908460617 0.04441606253385544 9.866284672170877E-4 0.06992825120687485 -0.017086567357182503 0.11490536481142044 0.15439601242542267 -0.02095046080648899 -0.030540967360138893 -0.05092107132077217 0.08961699157953262 -0.1754963994026184 0.056374430656433105 0.08799364417791367 0.051020603626966476 -0.13250334560871124 -0.10057197511196136 0.05306342989206314 -0.19873058795928955 0.0118114547803998 -0.09366457164287567 0.1318744421005249 0.24641476571559906 0.041382696479558945 -0.2828296720981598 -0.0804964154958725 -0.18511752784252167 0.006645218003541231 -0.02137666754424572 -0.02278084121644497 -0.030506974086165428 -0.0538184754550457 -0.062258608639240265 0.20661196112632751 -0.12909524142742157 -0.09897918999195099 0.12279678881168365 0.0939471647143364 -0.005830538924783468 0.018168050795793533 0.13367249071598053 0.031105976551771164 0.0907909944653511 -0.1123599112033844 -0.044863831251859665 0.057237207889556885 0.06554809957742691 -0.041522908955812454 -0.21345576643943787 -0.1617882251739502 -0.09539443254470825 0.08999011665582657 -0.20010334253311157 -0.12958559393882751 0.1447169929742813 0.11291967332363129 -0.1725672483444214 0.0257123913615942 -0.09087497740983963 0.023969244211912155 -0.091388039290905 0.03316066414117813 0.015969540923833847 -0.12177184969186783 0.06398099660873413 0.08769973367452621 -0.16426566243171692 -0.25213050842285156 0.010604288429021835 0.09444131702184677 -0.06108653172850609 -0.08793460577726364 0.28517279028892517 0.014172306284308434 -0.12907403707504272 0.09672630578279495 -0.18598945438861847 0.09904501587152481 0.06895044445991516 -0.13509318232536316 0.01505318284034729 -0.054717447608709335 -0.017823781818151474 -0.018317289650440216 -0.10524668544530869 0.025352612137794495 -0.024358289316296577 0.16725242137908936 -0.3045752942562103 0.008801550604403019 -0.1837245523929596 0.015026615001261234 0.08370961248874664 6.356549565680325E-4 0.03396952152252197 -0.08933421969413757 -0.07549075037240982 -0.08580922335386276 0.007404815871268511 -0.16548845171928406 0.01760530285537243 -0.049179937690496445 0.03963207080960274 0.13263103365898132 -0.07695406675338745 -0.017906730994582176 -0.07049944996833801 -0.04480922967195511 -0.030583715066313744 0.2595892548561096 0.04436903074383736 -0.07095817476511002 -0.202352374792099 -0.007755114696919918 0.07177556306123734 0.11458428204059601 -0.08314874768257141 -0.011889801360666752 -0.09296571463346481 5.609510699287057E-4 0.08321606367826462 0.05232374370098114 -0.09938300400972366 -0.03920330852270126 -0.027996757999062538 0.18775518238544464 -0.04434050992131233 -0.09521598368883133 0.003783556167036295 0.26499927043914795 -0.1218564435839653 -0.10803256928920746 0.046824678778648376 0.03277646377682686 0.08308634907007217 -0.01581774838268757 0.09030252695083618 0.013121052645146847 0.07806308567523956 -0.05702201649546623 0.054624639451503754 -0.11828736215829849 0.1587723046541214 -0.05552405118942261 0.06972169131040573 0.06249472126364708 -0.052005965262651443 0.07756946235895157 0.24743804335594177 -0.22776417434215546 0.015508383512496948 0.09937401860952377 0.06056714430451393 -0.0760076567530632 0.0946449562907219 0.2760559916496277 0.04232429713010788 -0.11622866988182068 0.0840379148721695 -0.06714238226413727 0.11979082971811295 -0.06097814440727234 0.209004744887352 -0.1404978185892105 -0.13361310958862305 -0.0011481131659820676 -0.14559654891490936 0.04925546795129776 -0.0607706643640995 -0.10439403355121613 0.08609382808208466 -0.020804664120078087 0.04745778068900108 0.07749311625957489 -0.05370978266000748 -0.13337141275405884 -0.14555852115154266 -0.08365043252706528 -0.03848724812269211 -0.10003204643726349 0.2660740315914154 -0.10370592027902603 -0.11776746064424515 -0.28812122344970703 0.16988448798656464 -0.15350060164928436 0.16432932019233704 -0.02699173241853714 -0.33527863025665283 0.03197506070137024 0.0804792046546936 0.05125682055950165 -0.15786609053611755 0.21144592761993408 0.13661469519138336 0.021074211224913597 -0.11022307723760605 0.00343170203268528 -0.22551362216472626 0.07127188891172409 -0.049032073467969894 0.10519877076148987 -0.03617381304502487 -0.1647263765335083 0.06455972790718079 0.040270619094371796 0.14019256830215454 0.09586820751428604 -0.007907814346253872 -0.0415814109146595 -0.14797958731651306 -0.01214537676423788 0.07926657050848007 0.13453087210655212 -0.13685649633407593 -0.10456930100917816 0.07872484624385834 0.13559819757938385 0.023203806951642036 0.01660294085741043 0.07970006763935089 -0.16968783736228943 -0.030782978981733322 0.03670762479305267 0.023284949362277985 0.037742938846349716 -0.07591534405946732 0.0017559215193614364 0.10010915249586105 0.003910513129085302 -0.08510333299636841 0.012150872498750687 -0.0824725553393364 -0.05705825611948967 -0.15434539318084717 -0.08148167282342911 -0.10649393498897552 0.0014788554981350899 -0.09730952978134155 0.13006232678890228 -0.010789606720209122 -0.08216845244169235 -0.10990501940250397 -0.03395664691925049 0.05333353579044342 -0.006565552670508623 0.03344856575131416 0.03952491283416748 0.163889542222023 -0.11173348128795624 0.09257987141609192 0.03219678997993469 0.0021555775310844183 0.08472103625535965 -0.0014938698150217533 0.05295086279511452 -0.0602291040122509 0.001136335195042193 -0.06428206712007523 0.01533178798854351 0.01348397321999073 -0.05601891875267029 -0.16118887066841125 -0.09842373430728912 -0.038149576634168625 0.08101198822259903 -0.12658114731311798 -0.07530789077281952 0.045401230454444885 -0.022849926725029945 -0.06963005661964417 -0.16017718613147736 0.12097225338220596 0.11515399813652039 0.06660415977239609 0.06879322230815887 0.10470568388700485 -0.30532416701316833 -0.22962047159671783 0.1390751749277115 0.13343581557273865 -0.09281483292579651 -0.1849411129951477 -0.09145952016115189 0.09007882326841354 0.07073446363210678 -0.07727580517530441 0.17640945315361023 -0.0014651428209617734 0.12384317070245743 -0.10009625554084778 -0.14342109858989716 -0.012837755493819714 0.10738872736692429 -0.20153187215328217 0.08028875291347504 0.020714182406663895 0.049299199134111404 0.0805417001247406 -0.005468371789902449 -0.20072497427463531 0.060042303055524826 0.023811206221580505 0.22629617154598236 0.18685653805732727 0.11827728152275085 0.06656026095151901 0.11981027573347092 0.04558489844202995 -0.09114178270101547 -0.14047762751579285 0.16376352310180664 -0.041618142277002335 -0.029527008533477783 -0.11699133366346359 -0.09205318987369537 0.14261478185653687 0.12370394170284271 -0.1258586198091507 0.07462575286626816 -0.15373387932777405 -0.3500359356403351 0.06336499750614166 -0.1282782405614853 0.0885370746254921 0.003297156887128949 0.050033655017614365 0.0346730574965477 -0.11000784486532211 0.1904115527868271 0.08621503412723541 -0.12338458746671677 0.09230192750692368 0.02471846155822277 1.943485694937408E-4 -0.16683320701122284 0.056774020195007324 0.01814207434654236 0.1472187042236328 0.19353051483631134 -0.019696101546287537 -0.025264114141464233 -0.11360293626785278 -0.0618719644844532 0.012906471267342567 0.08973466604948044 -0.06676340848207474 -0.043074414134025574 0.27090954780578613 0.006624984089285135 -0.12153834849596024 -0.04222436249256134 -0.13628509640693665 0.10204063355922699 -0.08563399314880371 -0.04564957320690155 0.03437463566660881 0.0676654502749443 0.01594393327832222 0.13333910703659058 0.07888729870319366 0.0668739527463913 -0.006361761130392551 -0.15086227655410767 0.10920502990484238 0.05811609327793121 -0.03362284600734711 0.1380341500043869 -0.13567638397216797 -0.15529604256153107 0.03898052126169205 3.38908052071929E-4 0.0599023811519146 0.2545267343521118 0.20251838862895966 0.11375604569911957 0.01037185825407505 -0.059280313551425934 -0.12279921770095825 0.12232498824596405 -0.031819023191928864 0.06503044068813324 -0.03944160416722298 0.1631917804479599 0.195427805185318 -0.1758037805557251 0.08804396539926529 0.11133145540952682 0.02221118099987507 -0.03217776492238045 0.16459515690803528 0.06269221007823944 -0.180350199341774 -0.025052955374121666 -0.042939990758895874 -0.20366990566253662 -0.35444536805152893 0.15318326652050018 0.12555280327796936 0.0357561819255352 0.01455655600875616 0.06088022142648697 -0.1200784295797348 0.01186909805983305 -0.11924999952316284 -0.05363877862691879 0.15529444813728333 -0.04597346484661102 -0.2509402334690094 -0.05575620010495186 -0.01205543801188469 -0.06551486253738403 0.08256392180919647 0.08515214920043945 -0.1235060840845108 -0.01188996247947216 0.004739340860396624 -0.005529037676751614 -0.19683392345905304 -0.08960764855146408 0.1042255386710167 -0.09079936891794205 0.1836610585451126 -0.20924745500087738 0.07933618128299713 0.02598889172077179 0.1470908224582672 0.0747145265340805 0.1505524069070816 0.008040038868784904 -0.329458624124527 0.03207338601350784 -0.10431262850761414 0.016268309205770493 0.06387712061405182 -0.011734071187675 0.16284260153770447 -0.19164688885211945 -0.24639829993247986 0.08430149406194687 0.16370455920696259 -0.17424172163009644 0.04552401602268219 -0.2086779773235321 -0.19229622185230255 -0.18577851355075836 -0.1895114779472351 0.04397711530327797 -0.07564105838537216 -0.017585918307304382 -0.11035068333148956 5.943396827206016E-4 0.24839001893997192 0.16336390376091003 -0.0179048553109169 -0.03807438164949417 0.1920720487833023 -0.14842185378074646 0.04419569671154022 -0.11722159385681152 -0.14957554638385773 0.09207567572593689 0.048917632550001144 0.060843952000141144 0.12045270949602127 -0.10966751724481583 -0.019057979807257652 -0.04113229364156723 0.09435674548149109 -0.1870724856853485 -0.1328997164964676 -0.09135372936725616 -0.25982895493507385 0.023531490936875343 -0.1378309726715088 -0.1136234700679779 -0.05420958250761032 -0.03529740497469902 0.1321854293346405 0.06493434309959412 -0.21974441409111023 0.02107381634414196 0.15355975925922394 0.1344553530216217 -0.030780263245105743 0.2478249967098236 -0.13386698067188263 -0.03848586231470108 0.09729883819818497 -0.05819427967071533 -0.022182408720254898 0.1636398583650589 0.11464953422546387 0.12716923654079437 0.0030509387142956257 0.05063999444246292 -0.010794847272336483 -0.21331314742565155 -0.006172162014991045 -0.12387357652187347 0.11998867243528366 0.014192690141499043 -0.056351009756326675 -0.0794578418135643 0.09003981947898865 0.11629574000835419 0.2185325175523758 -0.06641735881567001 -0.03618991747498512 -0.02246919833123684 0.09681940823793411 -0.18527130782604218 0.0241716131567955 -0.09672559052705765 0.17922739684581757 0.1262022852897644 0.26348620653152466 0.03022003173828125 0.04709123447537422 -0.16886237263679504 -0.09967943280935287 -0.05062364414334297 0.0584099106490612 -0.0711563229560852 0.1022229865193367 -0.04918656498193741 -0.041404832154512405 -0.05223183333873749 -0.08745697140693665 -0.0716790109872818 -0.0465795062482357 0.045870233327150345 -0.0529119111597538 -0.029240168631076813 -0.09927932918071747 0.05607407167553902 0.08954746276140213 0.042972683906555176 -0.1088031679391861 0.023498209193348885 0.1264656037092209 0.10670476406812668 0.10036047548055649 -0.1643856167793274 -0.2247457206249237 0.0936187133193016 -0.05547536537051201 -0.06490028649568558 -0.04233941808342934 0.11039889603853226 -0.05776827782392502 0.1349838525056839 0.17622925341129303 0.19279024004936218 -0.07229688763618469 0.09727562963962555 -0.129591166973114 -0.009607535786926746 0.12665481865406036 0.14532235264778137 -0.0395166352391243 -0.01406680978834629 -0.14291633665561676 -0.0539555698633194 0.1018977016210556 -0.06716122478246689 0.08721305429935455 0.2487613558769226 -0.12756220996379852 0.12552809715270996 -0.14635580778121948 -0.07086657732725143 0.014541175216436386 0.16549664735794067 -0.11798539757728577 -0.2007005363702774 -0.020660921931266785 -0.0013239112449809909 0.10424098372459412 -0.13213513791561127 -0.1941540390253067 0.08683104068040848 0.12245973199605942 -0.10114488005638123 0.10758087038993835 0.07133268564939499 -0.14801356196403503 0.10276719182729721 0.03518756106495857 0.15486402809619904 -0.10380728542804718 0.012180207297205925 -0.056872230023145676 -0.06953347474336624 0.10688327997922897 -0.14606715738773346 0.05143162980675697 -0.0970987007021904 -0.15426616370677948 -0.050751782953739166 -0.038820382207632065 -0.016357023268938065 0.17962010204792023 -0.17647668719291687 0.10308385640382767 0.11780807375907898 -0.09291471540927887 -0.10208043456077576 0.17229284346103668 0.2427501082420349 -0.11806057393550873 0.11247098445892334 0.12256190925836563 -0.3476063907146454 0.25986024737358093 -0.26285260915756226 0.12895585596561432 -0.06326804310083389 0.2949965000152588 -0.04889568313956261 -0.0016382470494136214 -0.07775378227233887 -0.22703418135643005 -0.0034862987231463194 -0.024540331214666367 0.2247070074081421 0.0276706051081419 0.02038097381591797 0.03994425758719444 0.07656166702508926 0.10523544251918793 -0.13116052746772766 0.09007648378610611 0.10391026735305786 0.24783383309841156 -0.08678074926137924 -0.0014900967944413424 0.08294850587844849 0.08923500031232834 -0.09662095457315445 0.020226793363690376 0.1161879450082779 0.05243537575006485 -0.16091592609882355 -0.11051371693611145 0.11328013986349106 0.07938388735055923 0.16666235029697418 0.08985884487628937 -0.012590818107128143 -0.017603600397706032 -0.00676075229421258 -0.10954940319061279 0.10091909021139145 0.019992941990494728 0.033603690564632416 0.13013161718845367 -0.0859246477484703 -0.01293881144374609 -0.047042228281497955 0.008398162201046944 0.0329129733145237 -0.23278802633285522 -0.025209695100784302 0.05942893028259277 0.03777932748198509 -0.09132928401231766 0.13346634805202484 0.11377491801977158 0.05647849291563034 0.0051665958017110825 -0.16153739392757416 0.06746658682823181 0.18405456840991974 -0.26183709502220154 -0.14909817278385162 -0.24249805510044098 0.07192972302436829 0.0800425112247467 0.023453135043382645 -0.002442599507048726 -0.0626542866230011 0.1119234710931778 0.25531142950057983 -0.05353354662656784 0.21635137498378754 -0.06362997740507126 0.0549372173845768 -0.05900479480624199 -0.1880313903093338 0.3065432906150818 -0.06843125075101852 -0.035491470247507095 -0.06149238348007202 -0.0534651018679142 -0.12400712072849274 0.04799787700176239 0.01998140476644039 -0.019335424527525902 -0.004720909520983696 0.22974982857704163 0.017952023074030876 0.03207102417945862 -0.14333803951740265 0.054752133786678314 -0.10095307976007462 0.0743633508682251 -0.19995541870594025 -0.017736287787556648 -0.006528839003294706 -0.06339771300554276 -0.14373746514320374 -0.04904116317629814 -0.12716788053512573 -0.173573836684227 0.014656392857432365 -0.10670562088489532 0.018540138378739357 0.06925452500581741 0.0967789739370346 -0.1532321721315384 -0.10843703150749207 -0.023462949320673943 0.25327858328819275 0.1400304138660431 -0.04324252903461456 0.23009854555130005 -0.12431296706199646 0.03819562867283821 0.05447957292199135 0.06976897269487381 0.08491920679807663 0.18484854698181152 0.1418658196926117 0.12085842341184616 0.08910142630338669 0.10153204947710037 0.13527297973632812 -0.20006714761257172 -0.06017020717263222 -0.025521187111735344 -0.0274262223392725 -0.040546320378780365 -0.19348609447479248 -0.15450447797775269 -0.03589172661304474 -0.018534475937485695 0.0397157184779644 -0.0017696344293653965 -0.13764268159866333 0.0547730028629303 0.09661901742219925 -0.09752023220062256 0.034162718802690506 -0.01695307530462742 -0.016825979575514793 -0.04801464453339577 -0.012059063650667667 0.05266831815242767 -0.0035709014628082514 -0.04616234451532364 0.06063510850071907 0.016462139785289764 0.18590639531612396 -0.12464269250631332 0.2601557970046997 -0.2123166173696518 -0.1141064316034317 -0.049332600086927414 -0.08426118642091751 0.012241436168551445 0.23309369385242462 0.15396694839000702 0.11013992130756378 -0.10858816653490067 -0.028343861922621727 -0.007515932898968458 0.14118920266628265 -0.030482953414320946 -0.004439273849129677 0.2459508776664734 0.045950017869472504 0.01253716740757227 -0.03850015625357628 -0.07635315507650375 -0.007488307077437639 -0.30538633465766907 0.12995581328868866 -0.21316930651664734 0.22541268169879913 -0.1267777681350708 -0.06522369384765625 -0.13455435633659363 0.05589713528752327 -0.12221623957157135 0.10475581139326096 -0.02713187411427498 0.06117822602391243 -0.07922572642564774 0.054381921887397766 0.04160736873745918 0.12581926584243774 0.0936940461397171 -0.047800030559301376 -0.2066062092781067 -0.04285776987671852 0.17955709993839264 -0.01063594687730074 -0.10048842430114746 0.15713852643966675 -0.011277589946985245 -0.08824938535690308 0.04540148004889488 -0.01518701296299696 0.0018849755870178342 -0.17185883224010468 -0.13066081702709198 -0.06471998989582062 0.051012810319662094 0.007257567718625069 -0.3356826901435852 0.0032232939265668392 0.1989983320236206 0.3167358338832855 -0.05358405038714409 0.12809047102928162 -0.012661285698413849 0.23656253516674042 -0.03852732479572296 -0.00902686920017004 -0.018809817731380463 0.06051507964730263 0.07875940203666687 -0.0019858775194734335 0.18661901354789734 0.14395873248577118 -0.2393636405467987 0.06039562076330185 -0.18754065036773682 0.19666793942451477 -0.004629671107977629 0.01905824802815914 0.20744849741458893 0.14277251064777374 0.1353621780872345 -0.055934879928827286 -0.05709543079137802 0.12945185601711273 0.05596452206373215 -0.010548853315412998 -0.243682399392128 0.1391226202249527 0.07145319133996964 -0.15074045956134796 0.16307196021080017 0.15329459309577942 0.155262291431427 0.1570482701063156 0.052474722266197205 0.04554075002670288 0.23050840198993683 0.09128697961568832 0.05682796984910965 -0.10661271214485168 -0.11565577238798141 -0.19536817073822021 0.184722438454628 -0.19595637917518616 0.08009438961744308 -0.055267758667469025 0.011928148567676544 -0.10124930739402771 -0.054127760231494904 0.1348116397857666 0.11808662861585617 0.06363373249769211 0.05760575830936432 -0.0364222452044487 0.105082206428051 -0.10983540117740631 -0.09117475152015686 0.03747193142771721 0.07063347846269608 0.12248833477497101 0.02385864220559597 0.007568706292659044 -0.14420433342456818 0.17556005716323853 0.10459760576486588 0.08411439508199692 0.17727607488632202 -0.04017627611756325 -0.115964375436306 -0.16219331324100494 0.09522382915019989 -0.004001600667834282 -0.03655700013041496 0.07056322693824768 -0.026396630331873894 0.043300189077854156 0.05575013533234596 0.1354849934577942 -0.1422862410545349 -0.06745453923940659 0.002933225594460964 0.10680512338876724 -0.06075597554445267 -0.02980058640241623 0.005833989474922419 0.029880590736865997 -0.09076518565416336 -0.06924150139093399 0.12061478197574615 -0.16173307597637177 -0.08190479874610901 -0.0909610390663147 0.027848754078149796 0.055146750062704086 0.17063570022583008 0.13441073894500732 0.0892639011144638 -0.17161163687705994 0.08609616011381149 0.049412213265895844 -0.047450579702854156 0.10789642482995987 0.06374853849411011 -0.22299683094024658 0.13819077610969543 -0.24628306925296783 -0.174958735704422 0.02390032261610031 -0.14405207335948944 -0.17734098434448242 -0.0012629961129277945 0.05998101457953453 -0.04700420796871185 -0.08002079278230667 -0.013783508911728859 0.08521634340286255 0.1487286239862442 -0.032832108438014984 0.14869025349617004 0.10527082532644272 -0.017507780343294144 0.05619155243039131 0.028254996985197067 0.10209926217794418 -0.07675091177225113 0.013588175177574158 -0.40517640113830566 -0.09927493333816528 0.14891791343688965 -0.1252295821905136 0.05649688467383385 0.15301430225372314 0.021162236109375954 -0.06782611459493637 0.08833097666501999 0.22482064366340637 -0.014375392347574234 -0.010301169939339161 0.20766107738018036 -0.20779375731945038 0.047948554158210754 -0.1048855185508728 0.1429690718650818 0.08734454214572906 -0.08013918995857239 -0.05131569504737854 -0.0653839260339737 -0.08495495468378067 -0.0900220051407814 0.07524693757295609 0.08766689896583557 0.027773000299930573 -0.07037182152271271 0.15222083032131195 0.1967395395040512 -0.057513076812028885 -0.25384941697120667 -0.0023449966683983803 -0.09117961674928665 -0.26529571413993835 -0.05996698886156082 0.13323648273944855 0.220307856798172 0.0798983946442604 -0.13238179683685303 0.10305166244506836 0.1178107038140297 0.2819662392139435 0.03137705847620964 -0.10825370997190475 -0.0765947476029396 -0.10113270580768585 -0.08650283515453339 0.12900692224502563 0.034834861755371094 -0.05259448289871216 -0.0418316125869751 0.20463351905345917 0.1917279213666916 -0.2288028746843338 -0.16046878695487976 -0.027407275512814522 -0.13069269061088562 -0.05148185417056084 0.02308329939842224 -0.08593565225601196 0.22540263831615448 -0.25515273213386536 0.11784856021404266 -0.07360930740833282 -0.013343393802642822 0.01451327744871378 -0.035102616995573044 0.10071225464344025 -0.0973401740193367 0.12470970302820206 0.06438079476356506 0.04049008712172508 0.1632319986820221 0.1711750626564026 0.02972162887454033 -0.09814127534627914 0.3373781740665436 0.0013923614751547575 9.022169979289174E-4 -0.15467873215675354 -0.00131332129240036 0.0973011776804924 0.18625591695308685 0.01917167566716671 0.15452349185943604 0.00409934064373374 0.031975340098142624 -0.07932106405496597 -0.026271892711520195 -0.02120877429842949 -0.15724001824855804 0.05509159341454506 0.060021840035915375 -0.023089444264769554 0.11139577627182007 0.10091787576675415 -0.030194491147994995 -0.11264035850763321 0.06941743940114975 -0.15434056520462036 -0.23295234143733978 -0.01469316054135561 -0.003123877104371786 0.0946972519159317 -0.18834899365901947 -0.11700666695833206 0.15932150185108185 0.17126359045505524 0.12957189977169037 0.11611893028020859 0.17123880982398987 -0.00508177699521184 -0.16078507900238037 -0.11164592206478119 -0.12030355632305145 -0.11753954738378525 0.032209739089012146 -0.04860594868659973 0.13647399842739105 0.13010646402835846 0.11961127072572708 -0.22450490295886993 -0.13922753930091858 0.13744226098060608 -0.01778874173760414 -0.12589164078235626 0.008114826865494251 0.07386842370033264 -0.1882379651069641 0.036237526684999466 -0.11365558207035065 -0.12103352695703506 0.08414535224437714 0.09342236071825027 -0.1056399866938591 -0.10688403248786926 -0.03476393222808838 -0.05738542228937149 -0.06152652949094772 -0.009783554822206497 0.10106286406517029 -0.2244589924812317 0.23793905973434448 0.1103590875864029 -0.040413372218608856 -0.1109822541475296 0.18775945901870728 0.10658689588308334 0.12721793353557587 0.04417433962225914 -0.04631974548101425 -0.04414904862642288 0.14376571774482727 0.13414998352527618 0.08229202777147293 0.26141658425331116 -0.032716598361730576 -0.15682952105998993 -0.1616477072238922 -0.026167340576648712 0.11775275319814682 0.14579808712005615 0.14823488891124725 -0.06300970166921616 -0.08437247574329376 -0.12028605490922928 0.11474872380495071 -0.17718128859996796 0.04830591380596161 -0.11651713401079178 0.03447916731238365 -0.11544889956712723 0.0032198794651776552 0.005726924631744623 -0.04051384702324867 0.28691649436950684 0.03502407670021057 0.051214855164289474 0.019856801256537437 0.10343360155820847 -0.15242479741573334 -0.1595732867717743 0.07025787234306335 -0.09706539660692215 -0.06511790305376053 0.07078935950994492 -0.033558189868927 0.07152842730283737 0.04615437984466553 0.23433150351047516 0.2467089295387268 0.11359511315822601 0.037644460797309875 0.012095924466848373 -0.07823114842176437 0.2154412418603897 0.21107441186904907 -0.08413976430892944 -0.005646853242069483 0.047769173979759216 0.20461173355579376 -0.11387421935796738 -0.04489757865667343 0.04984309896826744 -0.06753089278936386 -0.06070184335112572 0.20547084510326385 -0.01664893701672554 -0.04255864396691322 -0.22856080532073975 0.059155840426683426 0.04987110197544098 0.19689275324344635 -0.26962199807167053 -0.03579612076282501 0.0646190345287323 -0.021042710170149803 -0.09092340618371964 -0.07571014016866684 -0.004105886444449425 -0.14277499914169312 -0.09246867150068283 -0.013583289459347725 0.04612700268626213 0.027066024020314217 0.05285658314824104 -0.1496654897928238 -0.05705390125513077 -0.05567580834031105 0.08584541082382202 0.2530343234539032 -0.23662817478179932 -0.05612697824835777 0.18862920999526978 -0.015352394431829453 0.06649389863014221 -0.03265058249235153 0.04686027392745018 0.0676804780960083 -0.015911566093564034 0.09357328712940216 -0.00869965273886919 0.13754424452781677 -0.2759818732738495 -0.11511692404747009 0.12834687530994415 0.19220970571041107 0.0038777654990553856 0.005342867691069841 -0.07897704839706421 -0.1566959023475647 0.09797060489654541 0.0037200464867055416 0.006138039752840996 -0.16364194452762604 0.032270632684230804 0.04469689726829529 -0.07047008723020554 0.12893667817115784 -0.232045978307724 -0.042981795966625214 0.022067172452807426 -0.07876981049776077 0.0018067042110487819 0.10678423941135406 -0.16145062446594238 0.03303762525320053 -0.06721537560224533 0.08539994806051254 -0.026760680601000786 -0.030229344964027405 0.10450226068496704 0.05757935345172882 0.05615738779306412 0.10702522099018097 0.11086419224739075 -0.1940278559923172 -0.11606995761394501 -0.014743653126060963 0.11934217065572739 -0.056559521704912186 -0.07509759068489075 0.09812914580106735 -0.06927844882011414 0.001511844340711832 0.019709771499037743 -0.09224486351013184 -0.11221440881490707 -0.034713227301836014 0.003582056611776352 -0.050942059606313705 0.05670265108346939 0.019610734656453133 0.1203986406326294 0.1513698548078537 -0.11524279415607452 -0.2640904486179352 -0.10890975594520569 -0.14703722298145294 0.04181502386927605 -0.02854226902127266 0.18358470499515533 0.08466729521751404 0.02810833975672722 0.09311815351247787 0.04280870407819748 -0.09011618047952652 -0.023020822554826736 -0.16578179597854614 -0.2432139813899994 0.1437879204750061 0.07295992970466614 -0.11196258664131165 -0.10728555172681808 -0.15735092759132385 0.06783440709114075 7.274006202351302E-5 -0.08402909338474274 0.07940278202295303 0.07911788672208786 0.1399901658296585 0.09731949120759964 0.07086198031902313 0.05860743671655655 -0.15497763454914093 0.27378037571907043 0.007371488492935896 0.1617201566696167 0.036992818117141724 0.09766992181539536 0.3336416184902191 -0.19747836887836456 0.053507011383771896 0.18287372589111328 0.010028050281107426 0.21202270686626434 -0.06626695394515991 -0.11218738555908203 -0.11963927000761032 -0.07269439101219177 0.07956144958734512 0.02904052659869194 -0.09330142289400101 -0.0969298854470253 -0.1253613531589508 0.0571826696395874 0.06515450030565262 0.08602158725261688 -0.10074831545352936 -0.12582913041114807 0.13716642558574677 0.017347054556012154 -0.032267093658447266 -0.008581832982599735 -0.005740850232541561 0.04232734814286232 0.06885349005460739 -0.18406155705451965 0.05277784541249275 -0.02055135928094387 -0.02180343121290207 0.08922473341226578 -0.03442424163222313 -0.02137901820242405 -0.13696645200252533 -0.050786614418029785 -0.08109167218208313 0.2759004533290863 -0.044883716851472855 0.049652934074401855 -0.057832226157188416 -0.12546025216579437 0.06342168897390366 0.10946254432201385 0.06473146378993988 -0.2561662793159485 0.07364048808813095 0.09576353430747986 -0.07732057571411133 -0.13636048138141632 0.07846232503652573 0.026430653408169746 0.01571289449930191 0.008107271045446396 -0.0871896892786026 0.004614609759300947 0.0875486433506012 0.11794473230838776 -0.12326429039239883 -0.027255047112703323 0.00623447448015213 -0.12618857622146606 0.2447429597377777 -0.1399713158607483 -0.00951954536139965 -0.0431327223777771 -0.18398363888263702 0.0972963348031044 -0.1021590456366539 0.07129495590925217 0.018734479323029518 -0.18896740674972534 0.1911584883928299 0.007266285829246044 0.03259966894984245 0.06217881292104721 -0.1427825689315796 -0.002351899165660143 -0.0449984185397625 0.13879486918449402 -0.11851110309362411 -0.09899946302175522 -0.04587654024362564 0.1600339561700821 0.08007585257291794 -0.18321438133716583 0.03834196925163269 0.02606145478785038 0.07586124539375305 0.174208402633667 -0.06549325585365295 -0.20138128101825714 0.06900724768638611 0.1009775921702385 -0.020029587671160698 -0.29456374049186707 -0.16532489657402039 -0.18416827917099 -0.0019645183347165585 -0.10432859510183334 0.11356522142887115 0.08098408579826355 0.21590162813663483 -0.1397371143102646 -0.05610518157482147 -0.10877486318349838 0.028759879991412163 -0.10261449217796326 -0.150477334856987 0.1802188903093338 0.18319439888000488 -0.26687976717948914 -0.21462571620941162 0.08935853093862534 -0.07901918888092041 -0.2582879066467285 -0.00292744068428874 -0.10409023612737656 0.03292500972747803 -0.03506113588809967 0.23555824160575867 0.06009945645928383 0.23789721727371216 0.08581161499023438 0.12250079214572906 0.04683355987071991 -0.009652958251535892 -0.20468807220458984 -0.1207822933793068 0.19448798894882202 -0.13007082045078278 -0.012339419685304165 -0.007756529841572046 0.14651615917682648 0.030907291918992996 -0.0525142066180706 -0.14679060876369476 -0.17085134983062744 0.07967978715896606 0.10589075833559036 0.106752909719944 0.12253718823194504 0.10311087965965271 -0.09587812423706055 0.03718898817896843 -0.11810745298862457 -0.18218770623207092 -0.15691061317920685 0.04136384278535843 -0.08112876117229462 -0.15285955369472504 0.01432010903954506 -0.012740314938127995 -0.054522015154361725 -0.25579798221588135 -0.014377979561686516 -0.060407061129808426 0.2216740995645523 -0.04218847677111626 0.04142296686768532 0.0631510317325592 -0.2061721682548523 -0.10277274250984192 0.014033923856914043 -0.0051748319528996944 0.2029731422662735 -2.640963939484209E-4 0.08253373205661774 -0.2622222900390625 0.09199009835720062 0.06376370042562485 0.03325769677758217 0.058814942836761475 -0.0017982255667448044 0.0040054176934063435 0.11617869138717651 0.09172429889440536 -0.2024405151605606 -0.14566093683242798 -0.02597484551370144 0.10011974722146988 -0.07290435582399368 0.06829579919576645 0.021866852417588234 -0.01306364219635725 -0.05191653221845627 -0.03452475368976593 0.14912135899066925 -0.08118381351232529 -0.22518061101436615 0.07976610213518143 -0.09403636306524277 -0.012939429841935635 0.11031515151262283 -0.15563005208969116 0.11231054365634918 0.16527526080608368 -0.12687154114246368 -0.18994435667991638 -0.08152370154857635 -0.1677202582359314 -0.01945439912378788 0.1589207649230957 0.09659866988658905 0.10499713569879532 0.11004499346017838 0.08245464414358139 0.1668391227722168 -0.1517033874988556 -0.11101429164409637 0.05768977105617523 0.11786787956953049 -0.030403198674321175 0.28331953287124634 0.24787166714668274 -0.07696501910686493 0.04935155063867569 -0.038341861218214035 -0.042186934500932693 -0.2351057082414627 -0.1302177608013153 0.05654997378587723 -0.06319813430309296 -0.11496420204639435 -0.03667226806282997 -0.0727749839425087 0.004424442537128925 -0.1434580236673355 -0.055445168167352676 -0.11861825734376907 0.01690133474767208 0.0944536030292511 -0.20544598996639252 -0.26561352610588074 -0.10368887335062027 -0.007306048180907965 0.08692444860935211 0.0657242015004158 0.014041619375348091 -0.07382851094007492 -0.024908600375056267 -0.074996218085289 0.21684665977954865 0.007765154354274273 -0.05373307690024376 0.035409245640039444 -0.02526128478348255 -0.05685311555862427 0.011489734053611755 0.1116972267627716 0.1783132553100586 0.08799043297767639 0.09022457152605057 -0.02992650307714939 -0.004616583697497845 -0.050909724086523056 0.07034865021705627 -0.052360862493515015 0.04700079932808876 0.09540043026208878 -0.07141997665166855 -0.10028669238090515 0.003264842787757516 0.1276828944683075 0.2572239339351654 0.0917399674654007 0.17114639282226562 -0.038372498005628586 0.04554279148578644 -0.06996828317642212 -0.35578835010528564 -0.12742732465267181 -0.049344394356012344 -0.013249346055090427 -0.04056921228766441 -0.06378224492073059 -0.07424699515104294 0.058420777320861816 -0.02658156305551529 0.059398312121629715 0.006905656773597002 -0.08165320008993149 -0.20940837264060974 -0.14462654292583466 -0.16095727682113647 0.05892983451485634 -0.18306688964366913 -0.008818014524877071 0.100438691675663 -0.13121208548545837 0.049559205770492554 0.11064477264881134 0.016561750322580338 -0.3012026250362396 -0.01961967721581459 0.14902275800704956 0.06287519633769989 -0.026679517701268196 -0.10417001694440842 -0.25925886631011963 -0.12604160606861115 0.09597460925579071 -0.05049797147512436 -0.17540310323238373 -0.1310747116804123 0.13227783143520355 0.11784677952528 -0.036263205111026764 0.008124095387756824 -0.18954983353614807 -0.3931407332420349 -0.07867220789194107 0.008883711881935596 -0.01890716888010502 -0.009618601761758327 -0.1096784770488739 -0.2345213145017624 -0.19118201732635498 -0.04056551307439804 -0.030748920515179634 0.044043924659490585 0.09271383285522461 -0.14810708165168762 -0.07791555672883987 0.08444609493017197 0.057456422597169876 9.856336982920766E-4 -0.20267978310585022 -0.23018673062324524 0.15911291539669037 -0.16533902287483215 -0.13962295651435852 -0.17675672471523285 -0.01635194569826126 -0.1289328932762146 0.31941458582878113 -0.0977683737874031 -0.009324482642114162 -0.05749836936593056 -0.04373754933476448 -0.0059995101764798164 -0.18707627058029175 -0.005470050498843193 0.028276167809963226 0.1338629275560379 0.03099171631038189 0.06876273453235626 0.19249701499938965 -0.15483924746513367 -0.20209699869155884 0.07858899235725403 -0.11646252125501633 0.1399589329957962 -0.04729386419057846 0.019898690283298492 0.03471536561846733 0.15919055044651031 0.1313721388578415 -0.16665947437286377 0.13154441118240356 -0.28256338834762573 0.19509357213974 0.013697532005608082 0.023465659469366074 -0.18447484076023102 -0.003938383422791958 0.07075916975736618 0.15369440615177155 0.008211140520870686 0.04297109320759773 0.011825695633888245 0.00916666816920042 -0.020984631031751633 -0.056783441454172134 -0.04267987608909607 -0.030579371377825737 -0.034659650176763535 0.017554963007569313 -0.141241654753685 -0.2806723415851593 -0.1106041967868805 -0.03983766958117485 -0.09388855844736099 0.02874760329723358 0.019577261060476303 -0.22472964227199554 -0.07568713277578354 -0.08223866671323776 0.05865948647260666 -0.11963610351085663 -0.02630310133099556 0.08306749165058136 -0.13720206916332245 -0.003544161794707179 0.016102392226457596 0.0778389573097229 0.12829147279262543 0.2945171296596527 -0.16137798130512238 0.1996610015630722 0.08961078524589539 -0.15225933492183685 0.31499776244163513 -0.025550952181220055 5.009511951357126E-4 -0.07768546044826508 0.13840864598751068 0.20227769017219543 -0.1244085282087326 -0.03330722451210022 -0.20923995971679688 -0.060409508645534515 0.02251494489610195 -0.016121769323945045 -0.04776252433657646 -0.016803285107016563 0.08744096010923386 -0.04086128622293472 0.09467504918575287 -0.17073000967502594 -0.17653623223304749 -0.011054844595491886 -0.10349683463573456 -0.08137223869562149 0.10993160307407379 0.05077989771962166 -0.223724827170372 -0.08311396092176437 -0.02249770238995552 0.10563158988952637 0.2620556056499481 -0.14777831733226776 0.023110607638955116 -0.1822509616613388 -0.18903414905071259 0.060043759644031525 0.020484043285250664 0.07254746556282043 -0.10688169300556183 -0.024904955178499222 -0.0783306434750557 -0.03155789151787758 -0.4083085060119629 -0.10112572461366653 0.11527125537395477 -0.1645565778017044 0.060717009007930756 0.06478878855705261 -0.14906707406044006 0.04251744598150253 0.05863058194518089 0.08269920945167542 0.14027699828147888 0.12119805067777634 0.06364483386278152 0.20559562742710114 0.05972452461719513 -0.07164333015680313 0.126042440533638 -0.1004755049943924 -0.2080201357603073 -0.044860608875751495 0.23040556907653809 0.028457285836338997 -0.01968342810869217 0.04133974760770798 0.008706662803888321 -0.10595924407243729 0.18020591139793396 0.11885130405426025 0.037922222167253494 0.05934321880340576 0.04841935634613037 -0.007813268341124058 0.003467131406068802 -0.07996515184640884 -0.03032897226512432 0.046836987137794495 0.09676867723464966 0.04926879331469536 0.09454306215047836 -0.06263218075037003 -0.060626670718193054 0.14598509669303894 -0.25615739822387695 -0.14559277892112732 -0.1770305186510086 -0.09488730877637863 0.21862313151359558 -0.07924141734838486 -0.004278623964637518 0.10244553536176682 -0.0901983305811882 -0.04922344163060188 -0.16245079040527344 -0.06335490942001343 0.07789584249258041 0.18516568839550018 -0.060897842049598694 0.029722537845373154 0.053969722241163254 -0.1360672414302826 -0.05152154713869095 -0.12252166122198105 0.044079169631004333 -0.0031744600273668766 -0.19645768404006958 0.03080105595290661 -0.1395374834537506 -0.23790089786052704 -0.17027166485786438 0.009483608417212963 0.2756742835044861 0.16913357377052307 -0.2314452826976776 -0.07768353074789047 -0.03813360258936882 -0.28526026010513306 -0.16327553987503052 -0.15901216864585876 -0.03368524834513664 0.19492682814598083 -0.0948389321565628 0.0731552466750145 0.07098264247179031 -0.03343042731285095 -0.11628404259681702 0.0777408704161644 0.17666935920715332 0.23702354729175568 -0.09465897083282471 0.04143664613366127 -0.13153859972953796 0.11794368177652359 0.12955330312252045 0.12813514471054077 -0.05381933972239494 -0.1158004105091095 0.12817904353141785 0.07927770167589188 -0.06414951384067535 0.04189537838101387 -0.08633334189653397 0.05751151591539383 0.14142845571041107 0.1198917031288147 -0.1183064877986908 -0.22322720289230347 0.1775546371936798 -0.0242557805031538 0.04995059594511986 -0.08722564578056335 0.007419271394610405 0.005591920111328363 -0.13233047723770142 0.09985817968845367 0.2960636615753174 -0.02451794408261776 -0.12344255298376083 0.11024203151464462 -0.04642238840460777 0.08228594809770584 -0.05028018727898598 0.10058674961328506 0.044155485928058624 0.032337166368961334 0.061206717044115067 0.049560341984033585 0.02216639555990696 -0.1811090111732483 0.017047151923179626 0.009450002573430538 -0.06366853415966034 -0.05374675244092941 0.13937687873840332 0.04708680883049965 0.3039843440055847 -0.15401305258274078 -0.2395237535238266 0.04464713856577873 -0.12525756657123566 0.15214741230010986 -0.11459771543741226 0.0772075206041336 -0.04548395425081253 0.003604173194617033 0.033481329679489136 -0.09871583431959152 0.11488731950521469 0.02106192149221897 -0.03710491210222244 0.03411714360117912 0.017191151157021523 -0.05805408954620361 -0.009728403761982918 -0.12689585983753204 0.11105889827013016 -0.0426689051091671 -0.03192858397960663 0.04024693742394447 0.044726695865392685 -0.001106194918975234 -0.1199224516749382 0.14669997990131378 0.14949700236320496 -0.07633087784051895 -0.20983807742595673 0.07937021553516388 0.2508404850959778 -0.0955740213394165 0.020082691684365273 0.16828615963459015 -0.20088015496730804 -0.27667948603630066 -0.12255735695362091 -0.044435176998376846 0.013849114999175072 0.21899181604385376 0.04177282005548477 -0.029704000800848007 -0.09918607026338577 0.31562167406082153 -0.08336738497018814 -0.05326727405190468 -0.0376126766204834 0.04790504276752472 0.06673061102628708 0.04882429167628288 0.02520088292658329 0.014474920928478241 -0.035868868231773376 0.0619904100894928 -0.19673138856887817 -0.04436326399445534 -0.04688704013824463 0.04388732090592384 -0.25802838802337646 0.06547475606203079 0.09763183444738388 -2.1892237418796867E-4 -0.09977548569440842 -0.018360638990998268 -0.23214204609394073 0.13140317797660828 -0.34574565291404724 0.14780494570732117 -0.2125953733921051 -0.03971382603049278 -0.13235542178153992 -0.11763574928045273 0.12618355453014374 -0.007433963939547539 -0.06523577868938446 0.13735245168209076 -0.040368400514125824 -0.042263831943273544 0.18159323930740356 0.14793074131011963 -0.11345456540584564 -0.008366279304027557 -0.09835093468427658 -0.24605177342891693 0.08181076496839523 -0.009692639112472534 -0.11992327868938446 0.09097093343734741 -0.10398592054843903 0.1397150456905365 0.08487220108509064 0.15123307704925537 0.039690904319286346 -0.05397970974445343 0.07693937420845032 0.11328915506601334 0.03319712355732918 -0.24242401123046875 0.007941573858261108 0.023143790662288666 0.0027613751590251923 -0.1228828951716423 0.14624154567718506 0.08104388415813446 0.08725923299789429 0.08933179825544357 -0.0053572519682347775 -0.1478472799062729 -0.1369873434305191 -0.02841917611658573 0.0030935427639633417 -0.004071869421750307 -0.09888497740030289 0.10046527534723282 0.058335985988378525 0.059783343225717545 -0.15863516926765442 -0.20994307100772858 -0.06443684548139572 0.17287451028823853 -0.12074803560972214 -0.12366991490125656 -0.021573606878519058 0.03832917660474777 0.2304735779762268 0.04262701794505119 -0.02009586989879608 0.045015592128038406 0.11329817771911621 0.17164194583892822 -0.06954771280288696 -0.05625748261809349 -0.0010604284470900893 0.08845740556716919 0.11068350821733475 0.11235330998897552 -0.058678511530160904 -0.09170027077198029 0.1408037692308426 0.006597471889108419 -0.2495133876800537 -0.05148030444979668 0.13515064120292664 -0.12424130737781525 -0.02851422317326069 -0.08362443000078201 -0.07830194383859634 0.19082219898700714 0.03362142667174339 -0.14497706294059753 0.17801623046398163 -0.10232113301753998 -0.14403456449508667 0.1327008455991745 0.07584335654973984 0.05956151336431503 0.20435090363025665 0.09234758466482162 0.1726626455783844 -0.03266216814517975 -0.4041377604007721 0.053358595818281174 0.007478271145373583 -0.014046953991055489 -0.02286062203347683 0.15173161029815674 -8.48687719553709E-4 0.054134551435709 -0.1366371065378189 -0.1176188588142395 0.07819364964962006 -0.10266126692295074 -0.030075233429670334 0.047833558171987534 0.1104164645075798 0.13474483788013458 -0.08180930465459824 0.10343895107507706 0.11581119149923325 -0.08093112707138062 -0.24241448938846588 0.16012196242809296 0.19332337379455566 -0.13662515580654144 0.20145542919635773 0.07171033322811127 0.07556494325399399 0.18200291693210602 -0.19030795991420746 -0.03548838198184967 0.039832498878240585 0.07111037522554398 -0.13451986014842987 -0.08976559340953827 0.0012727646389976144 0.30934807658195496 0.01980084925889969 -0.01115766353905201 0.09480240195989609 -0.06613939255475998 -0.22577883303165436 -0.17765846848487854 0.07285220921039581 -0.048956770449876785 -0.06975895166397095 0.08683238178491592 0.19369547069072723 -0.14438100159168243 0.18242931365966797 -0.3410659730434418 -0.13920462131500244 0.08819378912448883 -0.04830622673034668 0.04904549941420555 -0.10730855911970139 0.10956744849681854 -0.0162632018327713 0.19147199392318726 -0.03398733213543892 -0.12116261571645737 -0.10223919153213501 -0.04394509270787239 -0.15445466339588165 -0.09386281669139862 -0.02377723716199398 -0.0355849452316761 -0.0863836258649826 0.04232371598482132 -0.0936221107840538 -0.014268717728555202 -0.010129396803677082 0.15487542748451233 -0.04994477331638336 0.126217320561409 -0.246455118060112 -0.0023472849279642105 0.12900179624557495 -0.012811455875635147 0.006196900736540556 -0.05984599143266678 -0.02009124495089054 0.07031162083148956 0.08722756803035736 0.07357385754585266 -0.09340635687112808 0.12052540481090546 -0.11801692098379135 0.1569024622440338 0.0459679439663887 -0.0016051993006840348 -0.11347600072622299 0.11788588762283325 -0.07278623431921005 -0.2468370497226715 0.1206783577799797 0.045086003839969635 -0.021430978551506996 0.015418300405144691 0.12018393725156784 0.11884528398513794 -0.007896329276263714 0.004640327300876379 -0.005005524959415197 -0.016602493822574615 0.11307458579540253 -0.10422640293836594 0.054904304444789886 0.09432139247655869 0.08196178823709488 0.12222839891910553 -0.0344272218644619 0.01856124959886074 -0.11246102303266525 -0.22409109771251678 -0.11934523284435272 0.17054630815982819 -0.062025707215070724 -0.19968247413635254 -0.03972139582037926 0.10007386654615402 -0.009670800529420376 -0.26807108521461487 0.01636468432843685 -0.09612088650465012 0.03961768373847008 0.011413845233619213 -0.09130427986383438 0.12824007868766785 -0.14087265729904175 -0.11823838949203491 -0.15640132129192352 -0.017506344243884087 0.07994210720062256 0.18118812143802643 -0.07623723894357681 0.09572653472423553 0.06329421699047089 0.11095236986875534 0.11761271953582764 0.06523755192756653 -0.08208144456148148 -0.046661023050546646 0.1398371011018753 -0.11506819725036621 -0.015202668495476246 -0.05432984232902527 -0.106903076171875 0.09363976120948792 0.030379153788089752 0.13047222793102264 0.022441722452640533 -0.039339594542980194 0.17161965370178223 0.30073216557502747 -0.03705271705985069 -0.19857318699359894 0.015456716530025005 -0.06963593512773514 -0.014258692972362041 0.14563031494617462 -0.046251967549324036 -0.11919192224740982 0.01257756445556879 -0.11269665509462357 -0.06855389475822449 0.15366657078266144 -0.1615637242794037 0.016423219814896584 -0.15857376158237457 -0.08903384953737259 -0.14621156454086304 -0.08035030215978622 -0.0885530561208725 0.079534150660038 -0.04779782518744469 -0.21295788884162903 0.032905176281929016 -0.1299113929271698 -0.24187390506267548 -0.24432922899723053 -0.055820953100919724 -0.22883747518062592 0.03921465575695038 0.047661054879426956 0.06265474855899811 0.1306391805410385 -0.0938967764377594 0.062903992831707 0.1675679236650467 -0.0024772542528808117 -0.2366732954978943 0.3254028260707855 0.057662058621644974 0.12296656519174576 -0.03497174009680748 -0.14910437166690826 -0.18033930659294128 -0.06048903614282608 0.13007278740406036 0.007336069829761982 -0.18563760817050934 0.15623417496681213 -0.16134986281394958 0.06707417964935303 -0.026612596586346626 0.1905977725982666 0.20117329061031342 -0.242568239569664 0.2569381296634674 0.15115652978420258 -0.15226921439170837 0.033947695046663284 0.30723223090171814 0.15477250516414642 -0.05231814831495285 0.14380961656570435 0.1770140677690506 0.13372193276882172 0.15372034907341003 -0.10395105183124542 0.07535281777381897 0.03563884645700455 0.0386185385286808 -0.11047841608524323 -0.04465588927268982 -0.0958244577050209 -0.031041640788316727 -0.10142091661691666 0.00901761930435896 -0.03464752063155174 -0.10764069110155106 -0.0053589181043207645 0.09143820405006409 0.028864042833447456 -0.06992674618959427 -0.03670867159962654 0.10196191072463989 -0.026667464524507523 -0.16951146721839905 0.1916763186454773 -0.07896557450294495 -0.016836656257510185 0.030040983110666275 -0.10938325524330139 -0.03429948911070824 0.07462187111377716 0.048724424093961716 0.20915526151657104 -0.04496827721595764 -0.14763082563877106 -0.046238940209150314 0.10398971289396286 0.11576153337955475 -0.16090625524520874 0.03795594722032547 -0.08070603758096695 -0.1106654703617096 0.17673467099666595 -0.04122135788202286 -0.1567864716053009 0.014894268475472927 0.11039813607931137 0.0026135663501918316 0.005212672054767609 0.07203856110572815 -0.07690706849098206 0.008776835165917873 0.18363997340202332 -0.057452358305454254 -0.03197028860449791 -0.24594463407993317 -0.007787459529936314 0.10660291463136673 -0.06149326637387276 0.10722039639949799 -0.0686957985162735 0.04056073725223541 -0.211232990026474 0.20160575211048126 -0.07432366907596588 0.21681652963161469 0.14872518181800842 -0.1293463557958603 0.08250454813241959 -0.027200428768992424 -0.0978483334183693 -0.020282741636037827 -0.0659574568271637 -0.05395317077636719 0.10926435887813568 0.01044689305126667 -0.02291271649301052 -0.1875031292438507 -0.2402411550283432 -0.1313968449831009 -0.05868080258369446 0.06829290091991425 0.028337694704532623 -0.3153751790523529 0.06044260412454605 0.11383794248104095 -0.12298723310232162 0.0158979669213295 0.09003017097711563 0.04719911888241768 0.03428490087389946 -0.0959835797548294 0.06190519407391548 0.13910143077373505 0.042569469660520554 -0.3384943902492523 -0.04966919124126434 0.27119243144989014 -0.08801167458295822 -0.00519034406170249 -0.04681830853223801 -0.09948202222585678 -0.11408207565546036 -0.02010098099708557 -0.2715145945549011 -0.12912000715732574 0.010187236592173576 0.1345796436071396 -0.1457616537809372 -0.29134881496429443 0.09963923692703247 0.07756662368774414 -0.022936822846531868 0.06235484406352043 0.020887883380055428 -0.002353343414142728 -0.13463330268859863 0.07634802907705307 0.1950942724943161 0.062289759516716 0.04699275270104408 0.181533083319664 0.11189687997102737 0.09707712382078171 0.15418538451194763 0.025584204122424126 -0.15364785492420197 0.09766220301389694 0.10184956341981888 0.09324242174625397 -0.03913252800703049 0.035619158297777176 0.05278850346803665 0.03304051235318184 0.22829963266849518 0.08203970640897751 -0.05734327435493469 0.010728907771408558 -0.18305735290050507 -0.09495076537132263 0.024108583107590675 -0.004733547102659941 -0.03424707055091858 -0.11480060964822769 0.13589204847812653 0.11885229498147964 0.14500366151332855 0.05429789423942566 -0.09784684330224991 -0.10145212709903717 -0.1669340431690216 -0.027875062078237534 0.07751064747571945 0.040708765387535095 0.13706807792186737 0.07091448456048965 -0.06108645349740982 -0.17837218940258026 0.0048994263634085655 0.01889817789196968 0.08855236321687698 0.07782837003469467 0.02635974995791912 0.16162461042404175 0.1347554326057434 3.252952010370791E-4 0.01897413842380047 -0.15619508922100067 0.22472165524959564 -0.04617728292942047 -0.1403559297323227 -0.09856314957141876 0.05401645973324776 0.015131237916648388 -0.13010434806346893 -0.0719941258430481 -0.09081631153821945 0.2878190279006958 -0.21822352707386017 0.06752016395330429 0.12074533104896545 -0.031065279617905617 0.028368216007947922 -0.22231493890285492 -0.03118753992021084 0.15198108553886414 -0.198698028922081 0.027663564309477806 0.033048033714294434 -0.0023763885255903006 -0.1445734202861786 0.08693329244852066 0.15456795692443848 0.061668917536735535 0.01104634627699852 -0.027155088260769844 -0.01626598834991455 0.08464644849300385 0.18027327954769135 -0.1389620453119278 0.05670415237545967 -0.20731177926063538 -0.0691000297665596 -0.07193108648061752 0.23503601551055908 0.06401149183511734 0.05794274061918259 -0.018635550513863564 -0.07427891343832016 -0.13593100011348724 -0.13016290962696075 0.0795380026102066 -0.16026975214481354 -0.17038047313690186 -0.1358836591243744 0.008354155346751213 -0.12954294681549072 0.2684263288974762 0.06467322260141373 0.003431265940889716 -0.013409244827926159 0.19023609161376953 0.10256662219762802 -0.057248689234256744 -0.1692926585674286 -0.1216607540845871 0.21743424236774445 -0.06869740784168243 0.01369768101722002 -0.046441707760095596 0.26556652784347534 0.0011922529665753245 -0.06091252341866493 0.20625130832195282 -0.09703522175550461 -0.11995436251163483 0.06972504407167435 0.09733425080776215 0.06630485504865646 -0.14656931161880493 -0.12953367829322815 0.18475274741649628 -0.19988298416137695 -0.08223912864923477 0.016510367393493652 -0.22810663282871246 0.15759657323360443 0.20966368913650513 -0.08934764564037323 -0.004118085838854313 -0.09768804907798767 0.010221065022051334 0.08182918280363083 -0.16838841140270233 0.02820628508925438 -0.18326306343078613 0.16048462688922882 -0.09961958229541779 -0.049521684646606445 -0.016714461147785187 0.08889207243919373 0.06566043198108673 0.18814513087272644 0.08384542912244797 0.1530590057373047 0.031288448721170425 -0.06830918043851852 0.06252454221248627 0.03139957785606384 -0.07969202101230621 -0.02235005795955658 0.10700023919343948 0.08737116307020187 0.11005669832229614 -0.02867008000612259 -0.23999422788619995 0.039426159113645554 0.16062454879283905 -0.057378094643354416 0.09545840322971344 -0.046466726809740067 0.051678262650966644 -0.006695181131362915 0.04477405548095703 0.009511896409094334 0.13711634278297424 -0.19105955958366394 0.013475100509822369 -0.0903208777308464 -0.009148281067609787 0.060273610055446625 0.02062911167740822 0.039057619869709015 -0.007499366067349911 0.09086237102746964 -0.11406340450048447 0.009228712879121304 -0.206937775015831 -0.12086813151836395 -0.029872139915823936 -0.060237813740968704 0.1214882954955101 0.029483523219823837 0.061243776232004166 -0.11870138347148895 0.1912994235754013 -0.018462758511304855 0.03716397285461426 0.0751577615737915 0.038114648312330246 0.0398070402443409 0.186386376619339 -0.014197183772921562 -0.003901746589690447 0.13867802917957306 -0.07831750810146332 0.09896892309188843 1.2233575398568064E-4 -0.09116658568382263 -0.1546451598405838 0.1491381973028183 -0.08506311476230621 0.17465528845787048 0.09093079715967178 -0.04578020051121712 0.02394128404557705 0.012546736747026443 0.09549781680107117 0.14027081429958344 0.1340685486793518 0.2731349468231201 0.0828150287270546 -0.07462587207555771 0.04886006936430931 0.06284233182668686 -0.08657611906528473 -0.031547173857688904 0.19926467537879944 0.004709336441010237 0.3893927037715912 0.07488252967596054 0.15782703459262848 0.01669316552579403 0.014493463560938835 -0.22999554872512817 0.0789790228009224 -0.03773089498281479 -0.055973853915929794 0.03362956643104553 0.1045135036110878 0.00817018747329712 -0.16980381309986115 -0.14087222516536713 0.03250892087817192 -0.10516815632581711 0.010453504510223866 -0.011149263009428978 -0.0667213648557663 -0.001631179009564221 -0.10845774412155151 -0.17841489613056183 0.12622886896133423 0.15015849471092224 0.1746940165758133 0.005786477122455835 -0.04818011820316315 0.032018475234508514 -0.16690509021282196 0.008586706593632698 -0.09494378417730331 -0.2409633845090866 -0.13452768325805664 -0.027649827301502228 0.14099958539009094 -0.17844977974891663 -0.07095377147197723 0.09215641021728516 0.1218368411064148 0.034018054604530334 7.656128145754337E-4 -0.012212210334837437 -0.006433825008571148 -0.0026050356682389975 -0.0072133904322981834 0.22297048568725586 0.16921687126159668 -0.013423954136669636 -0.03310805559158325 -0.11973993480205536 0.10299790650606155 0.0462791882455349 -0.12871089577674866 0.13111090660095215 -0.25298571586608887 0.26516225934028625 -0.14955635368824005 