
{
  "layers": [
    {
      "type" : "input",
      "layerConfig": {
        "height":32,
        "width":32,
        "depth":3
      }
    },
    {
    "out_depth": 3,
    "out_sx": 32,
    "out_sy": 32,
    "layer_type": "input"
  },
    {
      "type":"convolution",
      "layerConfig": {
        "numberOfFeatures": 16,
        "padding": 2,
        "stride": 1,
        "filterDimension": [5,5,3],
        "weights": [0.49404679856164224,-0.2836423292008258,-0.5328610218285076,-0.14504568165315418,-0.45755197299157263,-0.3691030244051294,-0.2655890381726067,-0.2511957936585683,-0.23366275411387524,0.1916957995316076, -0.05663942163705879, 0.6239938032704287, 0.12654237254920878, 0.43496004504905084, 0.5699069209460587, 0.06735410198153334, -0.07686217875048747, 0.055340982788368194, -0.34243197827306204, -0.18757011330465692, 0.2532647375732446, -0.2736380714582216, 0.11213572073999838, 0.290020463265979, -0.378327428683138, 0.23732835279383677, 0.39785750744327075, -0.013917338828351675, -0.05447493071402015, 0.33104664385217464, -0.059722813896176986, -0.5167841253803249, 0.08316898455417393, 0.19282406644908145, -0.012887578331983871, 0.4628072757537624, 0.13832912033106937, -0.00019304846807361665, 0.8338664033714499, -0.40073946211537664, 0.1373465045781697, 0.41823923944582414, -0.4469054216840259, -0.22846668272601853, 0.06275218377470752, 0.19940674454307122, -0.31975058014883945, 0.05539462841820498, 0.2819571265953423, -0.29465044050883815, 0.23029214832180864, 0.4031090581018469, 0.05279206976727803, 0.8247102311910618, 0.33780606531971885, 0.12700242726770125, 0.3035368364948739, -0.023426047176925598, -0.13759095739660365, -0.15895942158099244, 0.1879551744844477, -0.255935747580887, 0.16178040747047778, -0.18225219974684193, -0.4714097425343752, -0.08668462220920632, -0.12366317682358266, -0.1632561520158, 0.06130296258378969, 0.16949658078552626, 0.02879274896304912, -0.06463706188280287, 0.061570077239334345, -0.16716300078693463, -0.07262223896176312, -0.3205141890367357,

          0.023686262832060816,0.043300674285819,-0.17160413807536107,-0.20610568101735674,0.24831389275545748,-0.018159550472130827,-0.37278864476861734,-0.22573055803489667,0.28517728691755523,0.06336293834044941, 0.007996380764608816, 0.04007087439744224, 0.5030652960131131, 0.009795349719794878, -0.256236549666531, -0.40886062730020123, 0.2991423997054866, -0.24450777958823544, -0.5480875799647404, 0.18540576296031935, 0.4440155843223234, -0.14061452460654353, 0.18798498530200386, 0.6567711557097811, 0.3474972400380499, 0.17541082862066137, 0.07075292246882928, 0.4606297342317548, -0.36522930868949455, -0.9635730340925218, -0.5428308959929098, 0.33521095427696307, 0.2685874574081491, -0.4567324133019418, 0.4587884705961285, 0.7668751510745959, 0.1440545532005531, 0.1068586615475944, 0.5813276797711411, 0.25869599898206713, -0.583203691161809, -0.643079659115658, 0.6073723982016574, -0.27152584109557915, -1.0550858463802297, -0.5916680256260466, 0.41290168316479975, 0.6808991156613158, -0.16436010755277533, 0.30673462319098177, 0.7723470043877947, -0.15095224723347495, -0.3037495570924895, -0.0838690816105626, 0.13489484551815317, -0.48374494267829604, -0.6510264811864684, 0.8623827372530443, -0.16256611391757889, -0.6535453052689845, -0.49647320988466953, 0.5075973010223654, 0.6088779852018059, -0.4323693869375563, 0.11036611683505967, 0.2787727628538845, 0.10020093457568413, -0.5177193094026674, -0.21530053898546134, 0.397224732998022, 0.041782717361287164, -0.2694567567657062, 0.4088828429681864, -0.13355886318412485, -0.31074102507209544, -0.13693095746161368,

          -0.03605891934249183,-0.03848442835673838,0.22267493689350668,0.23869747550607648,-0.1830834711391358,0.03262496104207021,-0.07122594798547821,-0.13620893708227205,0.3341947709819115,-0.3112564195475148, -0.0033681169094304624, 0.5255338435289736, -0.5684894115314189, 0.2765774177671533, 0.6203732155194531, 0.7669314971291316, -0.6548553897126816, -0.5307921327284498, 1.122460875398923, -0.8180235366497671, -0.754791050512032, 0.9565795791538055, -0.7300824069449157, -0.7403876789869763, 0.4804736470788288, -0.41065093054334595, -0.33603987643825595, 0.13251757587306331, -0.2957803234484893, -0.18647217114120887, 0.5220458372422095, -0.4243384890326786, -0.19838459386422047, 0.8310551221049153, -0.7491034797627519, -0.3351313967708389, 0.916382181387023, -0.7903097145204538, -0.45838555547996995, 0.5882809665193129, -0.3891487441457482, -0.2709156532359298, 0.15149991494201015, -0.3028940640521009, 0.10124319051114246, -0.12590140580984394, -0.2569685107824456, 0.06085819979878908, 0.050035945492428985, -0.2586673557878749, 0.15146089022718445, -0.00010272229059935413, -0.1646071958305302, 0.18998828400532117, 0.03778983548952495, -0.2185568927933827, 0.2566188301353256, -0.3171178072792667, 0.022821804171998798, 0.20804318362979665, -0.5917236182119496, 0.27372135399643205, 0.4264182714452009, -0.6420114281493433, 0.4388080718857158, 0.6117075216401775, -0.6980273713298226, 0.299993834048017, 0.6474128444226164, -0.6019807561683498, 0.22621267097119266, 0.4958085120609454, -0.5768070946033251, 0.019704941022350677, 0.4514377460557485, -0.587810837444832,

          0.7019551521147261,-0.2580903480685945,0.04930533979754318,-0.24840024286305554,-0.7913122256734907,-0.19653291761231537,-0.2750059188336792,0.03285287967210826,-0.07416875879814193,0.11524758728126797, 0.3560120785024278, 0.12329974556471074, -0.15908842387678937, 0.3542266730580765, 0.09799509081146679, -0.06564969898292729, -1.0822443297524371, -1.0324242482683244, 0.2817467589024144, -0.47317542025170206, -0.08116437583891904, 0.5493191696369555, 1.1531504104808081, 1.1602033647301124, -0.3542299817539806, 0.09305773366119302, -0.10841602938108591, -0.24352344767835774, 0.2382629726071963, -0.24231781650272602, -0.2121918851202416, -1.3575036097687905, -0.9344351022819964, 0.6846586122669616, 0.15117121918146229, 0.4067039099370676, 0.437091762129866, 0.7664560013037951, 0.7319314367106843, -0.3370883548953567, -0.16902061256426193, -0.09557048119998303, -0.14028649633136434, 0.23052466192480564, -0.35840695790571425, 0.24192029500817974, -0.3942781167483927, -0.19857906627778493, 0.2723118284436798, -0.14258489732864696, 0.18409757863715165, -0.20006683442852938, -0.013672078956416462, 0.16978210358416074, -0.01360742582127999, 0.3354078688619698, 0.2623510890981881, -0.3767672774745352, 0.20449332169998474, -0.2880868578107266, 0.2474578595035275, 0.029594250147827093, -0.06083734773440346, -0.2482434084905049, -0.07397247601606576, 0.16634405965414842, -0.5585678165449688, 0.258205992498527, 0.21083800260846242, -0.08296193694444812, 0.5098109341134125, 0.006182165404141382, -0.17900191794210346, 0.21291044678282112, -0.0808730530296052,-0.2253960888077205,

          -0.4340239842775529,0.31872402785457865,-0.1460114176633312,-0.3455062222525952,0.9284079214819185,-0.6195540061568117,-0.7834655965693273,0.6918797724988589,-1.2597659104250736,-0.38893297226203566, 0.6668603865094687, -0.46346262749960465, 0.23871991191251393, -0.11396076986779699, 0.49324359633483195, -0.18791498545799923, 0.188464711355624, 0.009334354797539279, -0.052355536638934386, 1.2645531833132468, -0.28762224772400374, -0.0019315603846774886, 1.5745092146143695, -0.32797542853870576, -0.45061228062720904, 0.5673241546172523, -0.7077095712186605, -0.2695361444518322, -0.07372926471331843, 0.044779746194449466, -0.0939911712224011, 0.1741778561062145, 0.29407562960434147, -0.9904051532581997, 0.09534810219468316, -1.3023547240164834, 0.1211913163031552, 1.1297617966004252, -0.39523470646425185, -0.0590684413629318, 0.5689564019738321, -0.43084512820626675, -0.1059029591909391, -0.007902648087350191, 0.001038687337794602, 0.22919734607768694, -0.06637000171579764, 0.7480763828071584, -0.1741877002233364, -0.11713982093252293, 0.06395442791600386, -0.13828958768348762, 0.34327066793944827, 0.032851721081211746, -0.5711376550257907, 0.07237878845169343, -0.3146203096232206, 0.212675058218846, -0.1292063356756378, 0.19756531228971225, 0.28640129789113705, -0.8417360468812694, 0.2534230613630047, 0.3026930427398998, -0.19430862757747502, 0.34324565442466304, -0.18005684403171088, -0.39409392484097266, 0.28129958488081297, 0.06394734457413385, -0.062148789993742876, 0.012207411575938349, 0.21750238418185008, -0.24569374529948101, 0.41129937281794904, -0.24309988660904622,

          -0.18186544831699414,0.2339945315460675,0.015890714613096643,0.20336675174543992,-0.344040584611863,0.20166563048408961,0.11204799322125769,-0.45391864632330553,0.12449324928826072,0.35349656473673813, -0.019743907312136617, 0.05185284203071491, -0.1945319078029307, 0.10242252638560619, 0.015987750912587237, -0.1806662528639697, 0.1312648163119125, -0.20175327198757154, 0.220670032227715, -0.20437580229504676, 0.43982304234978337, -0.42563147073073637, -0.7312113163468345, -0.23786202255473732, 0.5660660087415311, 0.31694965368073624, 0.34703189579188676, -0.45043379080252316, -0.17218294031258075, -0.4057702821366018, -0.2263108091687162, 0.49439341057335984, 0.046247555337731186, 0.2332529707399325, 0.2591088282646566, 0.34063861358071024, -0.7705516723030318, -1.3939264792134312, -0.6824945927089168, 1.2426544253979044, 1.1441091116923385, 1.1446639540975874, -0.47137759835312004, -0.03086269419748919, -0.6206249700105724, 0.21712262851030054, 0.3934866966017246, -0.1300017010488879, 0.03444792396394105, 0.03894305588430977, 0.46167639574217256, -0.9069466065401929, -1.4494297684523976, -0.9029260715738087, 1.5938215139124112, 1.6108796984199627, 1.0182440511674489, -0.8593972869802011, -0.3646728366508893, -0.9080688482879954, -0.2983291153990255, 0.3451723782323531, 0.21851814740858794, 0.1218100811299575, -0.09789127547875727, 0.10288152303129988, -0.5289871553897028, -1.012694593854082, -0.5103976275699217, 0.9813047825975553, 0.9701956634971963, 0.7812796625610889, -0.27340687348198184, -0.23161049192789754, -0.543781087057416,-0.17129618298888907,

          0.412322159786933,0.3877188929289918,-0.16215116185708403,0.39197834156753153,0.30344373322710466,0.13329501245185474,0.6431528922616931,0.6007639932170443,0.3876819226590047,0.2696219312846046, -0.12905140125352593, 0.03312514126283527, 0.4365203354365289, -0.023140400751379735, -0.2309348265200376, 0.22594386539630718, -0.14740706781448784, -0.15863793783468408, -0.15668361826118934, -0.06046460001441244, 0.039872435850120826, -0.21574671587893787, 0.016948447567890147, 0.3143290978825997, -0.31878020322440187, -0.035979488992646066, 0.3323295603890207, 0.19940245162257325, 0.37067996894706484, 0.27722994780015714, -0.20503419636732126, -0.5091662559866516, -0.4686795459356685, -0.48285828066906783, -0.2933904344214931, -0.3879488013274126, -0.2839117540504788, 0.10430891072215685, 0.2464706620130694, -1.0111147413959012, -0.5484124066921715, -0.02914698386534948, -0.7268381691143946, -0.2955135528499513, 0.028072345610146637, 0.26550988797737834, 0.019949066436217543, -0.17190003367294962, -0.12420018216780651, 0.01525608036977489, 0.017197278340052136, -0.06130049677465421, 0.38063459858104776, 0.5190776149574846, -0.2850427018414574, 0.2099880334300325, 0.3380933971950886, -0.08931919371582982, -0.11849794686989996, 0.013754906879386436, 0.08553047412518891, 0.038292673620715804, -0.061082802589342046, -0.04202547167641075, -0.29433547429827445, -0.2556964001092991, 0.07177695429727714, 0.1254477818981385, 0.24291300846389038, -0.19973659566223392, -0.056960011402766846, 0.11912971022519458, -0.2945248599356726, 0.13590592001823576, 0.11276884266036573, -0.37852108944251184,

          0.06466420250026916,0.013262366982656492,0.049266940419089925,0.00888909285149016,0.020938216903508743,-0.07730000716608001,0.7366609817444569,0.478698378113123,0.36737431349441946,-0.3299216500122613, -0.003455947382631919, -0.4999966887869156, -0.6993338147798958, 0.4760986313828684, 0.09550038203289478, -0.23948628814151326, -0.39704896301182924, -0.283026687547736, -0.5002073869117502, -0.9589834983410092, -0.27351414599311297, 0.06837868225745128, -0.11337123692286978, 0.19718323666176682, 1.4637619937833752, 1.4724100328606737, 1.370199327655718, -0.6170836778672537, -0.4706649484757254, -0.7704728519428183, 0.5448001736032707, 0.34803145167750177, 0.21395556778105837, 0.1178190044813825, -0.025024001055964622, 0.18079186334360056, -1.9571121692003166, -2.1676400722975657, -1.4525874084827886, 0.34912176447586923, 0.07908431800600083, 0.3474743967418369, 0.8755685389449511, 0.7783001066702321, 0.6364987508305004, -0.04977839175620415, -0.04546992203209706, -0.43082107151792115, 1.0752761672797064, 1.007975995876638, 0.815018398594658, 0.16243057741865022, 0.14276529169539592, 0.2067114480446594, -1.213666272566663, -1.2964983076615122, -0.8862149206517911, 0.21472711569113076, -0.058106867018753096, 0.28824234226989004, -0.23603895111427242, 0.1779573649372486, 0.11434303347559956, -0.14547518050195454, -0.2833817857078656, -0.5797165779500517, 0.7356383852688777, 0.7115744323401377, 0.45912150146696595, -0.12262491806091418, -0.4352722574386288, -0.06916289234814475, 0.13364657982018613, -0.29481522273167177, -0.03131702480449612, -0.2075793272596148,

          -0.14845962541492547,-0.04629366811842213,-0.44658119079027425,-0.44094309399993953,-0.21184237662157232,-0.48797206828163897,-0.07715367126531812,-0.026907615372456367,-0.11012751574736311,0.13604549582091305, 0.23278746502330763, -0.023936114757839976, 0.1566316462342445, 0.13623019978049616, -0.04698008503362925, -0.26085920870077145, -0.009173667994554487, -0.31981868591174917, -0.1312037007385229, -0.1841267876559634, -0.5460324503399672, -0.15247457837051623, -0.18676972654460292, -0.19946211924661003, 0.20973093092868508, 0.10256998828125442, 0.24958978964440534, 0.20324725702731716, 0.20650393734486794, 0.1441829770043462, 0.08873600051200262, 0.082087228502844, 0.14627834012693164, 0.32438940604241023, 0.26071986876078107, 0.1869231598413705, -0.003983595384953775, -0.16093558834319835, -0.1595484850339608, -0.15475257505983644, -0.5008042265358819, -0.0019898494705124607, -0.010032915141050085, -0.01068786806315948, 0.25016501315279943, 0.29500073448062863, 0.22201194764859333, 0.26684417493759754, 0.22185306666136406, 0.2834953566788418, 0.6026358669618758, 0.37029520308069025, 0.1928039185742811, 0.46716194681414014, -0.31863686183118123, -0.49126622591969854, -0.1739271960254025, -0.47086901689132177, -0.5786249440791935, -0.1705000362389491, 0.04914327149410919, 0.1574821532847479, 0.2566106897390721, -0.06601491437965008, -0.023109757561750936, 0.3284450662608733, -0.3898469516040088, -0.30800300063033376, 0.20125321524053508, -0.4848733141872541, -0.4760910332418846, 0.4291162695301144, -0.31062861962245636, -0.2647543504515515, 0.5949243851608824, -0.4131020924775944,

          0.09295733797764917,0.35217422782389873,-0.08770211218349028,0.312568404537216,0.4074666051349949,0.08382965779655012,0.11299155956307629,0.09969676501701011,-0.10519386931243027,-0.2910561747957784, -0.4288962673856864, -0.0810979720984684, -0.14827767313997603, -0.1529649157175479, 0.05278182503589088, 0.05045145124743528, 0.019757317273500486, -0.23830696912856908, 0.08883977866974285, 0.29633697834129263, -0.037062138895837586, 0.35480635162409574, 0.2476092206221339, 0.24064679406216416, 0.003778740486414031, -0.15567202119908022, -0.11708712856620664, -0.31340970413466673, -0.4568044952939181, 0.17661959294730553, 0.20171834946591372, 0.08702135430579, -0.4785631100916723, 0.13011264479448112, -0.027338020972310223, -0.13899346403966759, 0.22475920928376844, 0.16606756933311312, 0.27134317242393624, -0.06811398621189012, -0.15383857877030946, 0.3329402648174729, -0.4763739759880927, -0.5065060868743448, 0.262030155082217, 0.1590881723193169, 0.20169110792745965, -0.45508575188390915, 0.22811003655725465, 0.11444967195717534, -0.3367949664251619, 0.23713310534706972, 0.10353600883853184, -0.0860502530986855, 0.01310396514406275, 0.11236236090246228, 0.5184943420307484, -0.7319763796813075, -0.37437060604541994, 0.32276419383492416, 0.15243540890975577, 0.12020506875706236, -0.47431440601540437, 0.11245001893184045, 0.05535309327704257, -0.34792798603245234, 0.2903147677632665, 0.06588840871953583, -0.09959766023931799, -0.004110905889145571, 0.18028614583548852, 0.21931753864100145, -0.5944992554141141, -0.13846640547974087, 0.5507414942650962, -0.1282049513410741,

          -0.06736707824277079,0.07116853611798746,-0.40487791267742335,-0.22498754155540282,0.020428339984609547,-0.346912425262714,-0.023352943387104495,0.12017745810839242,-0.2770388239617134,0.8125964585295679, -0.06056575021735997, -0.44688246735411075, 0.569082719771024, 0.0012310759159668977, -0.6071002943766893, -0.20572861349998253, 0.09734771362664557, 0.33341271426260943, -0.2988539445947992, 0.46265069568732364, 0.7193936402746371, -0.129084117670843, -0.1343702766158414, 0.2519456025305876, 0.27629166805664324, 0.13531608941758827, 0.18934910672861927, 0.304213738118585, 0.06069180093052639, -0.4910554580008913, -0.580197398551352, 0.12417269177701513, 0.2300298667885348, -0.6518998928017813, 0.1062698032923531, 0.3498037106763174, -0.9584515051877959, 0.051428669189492786, 0.5161102023069186, -0.1793667542466259, 0.18615940288071608, 0.08887550398323227, 0.3812447979526208, 0.046420006526088554, -0.2882737801334155, -0.4824107580177095, 0.11371576431574697, -0.03785129712954133, -0.5913014941908812, 0.05934814727700281, 0.7127395571854259, -0.7196998618266925, 0.0031286393298969495, 0.2973963079901371, -0.2752608383380801, 0.026155844597577936, 0.2535396610247198, 0.1941370858645615, 0.21923734554866522, -0.24428621179633275, 0.16797788882663114, -0.08732109755980438, 0.1908953679756435, -0.48699919941944375, -0.13727096617576612, 0.5050091695395876, -0.40867123666341815, -0.41185615240271584, 0.5796520768011907, -0.14507244831416002, -0.17032936695946596, 0.1357283559996111, 0.31659141262988616, 0.055888079047098416, -0.045158095165309074, 0.034916096814175956,

          -0.2762656433864791,0.02619066913167606,0.36183110650348493,0.08636541408675068,-0.0543824128299997,-0.3206214032117247,0.5505614518430179,0.17391135943849625,-0.245718774533552,0.6887690193828733, 0.09218259187142075, -0.02279130283344916, -0.021114996542230795, -0.08681208985226081, 0.18215915544846192, -0.09516097690939447, 0.09586904953056315, -0.24837730973923605, 0.3586498628080674, -0.24657959068294885, -0.6079521140292231, 0.9091487249748342, 0.4597175845383666, -0.039665546474640656, 0.07670808979655853, -0.06571122265514176, -0.0887561942474904, -0.43253622233136785, -0.13846656898436552, -0.0023161928768734813, 0.23214885599119167, -0.5029880509313686, -0.6538805083168006, 0.916647093863388, 0.2282535722556425, 0.04495253364621914, 0.7344387375995576, 0.27485446268726504, 0.29863271566144217, -0.7564917941077126, -0.834466820794783, -0.299150781164507, -0.2988390163256469, -0.3266914342715664, 0.3311262186061814, 0.47013544284911385, -0.14870521759023395, -0.09151967051705338, 0.513509077579102, 0.42597583101655334, 0.5775934556703108, -0.6573488213625125, -0.5265158104482989, -0.31903178499594476, -0.9291399576612677, -0.7584202367838802, -0.2202278069151725, -0.04319443423119494, 0.10785118706020962, 0.5598066443520758, 0.23127048446999376, -0.06359812756599198, -0.15459714155608328, -0.2704709213613891, -0.3425666453605979, -0.07009309879582941, -0.8886083748578606, -0.19306906082077996, -0.14292447388028437, -0.008362688643095448, 0.3282206910875744, 0.6583529231446309, -0.05351713180641414, 0.2737904116889954, 0.44344495031483516, -0.2690569149419005,

          0.009211988512405253,-0.0007839746779370614,-0.06012068943112144,-0.14342407469901555,-0.21667943535523176,-0.4007914647852577,-0.8784685112203583,-0.9046448808638221,-1.2789872936811852,0.2587570462230998, 0.2790094973744749, -0.29026017619963645, 0.3039789813109202, -0.054072773885982285, -0.011761735360069681, -0.0453226774216043, 0.11965706346667838, 0.0069019866617528736, -0.1657830079530195, 0.17979286131237313, -0.1915355318829662, 0.9492692752669497, 1.4229550215636095, 1.087077723485567, 0.932643748786472, 1.2083000379827318, 1.1782878205976388, -0.37216852623199276, -0.5121750890141956, 0.00976729266636032, -0.13399319176935012, 0.299329374521051, 0.04506464595384868, 0.2161481968549903, 0.5130989580180728, 0.16101211464718007, 0.2884214759997048, 0.5281633336678903, 0.49165944301680486, -1.2402210434071592, -1.1022132603145522, -0.8132712202044152, -0.2717469149743714, -0.3974634772149773, -0.047561882273231194, 0.033440009853541425, -0.10157198825945905, -0.005955840797402801, -0.10854757488949761, -0.06078725811113595, 0.044930749534273604, -0.7626898453309108, -0.8569926576966598, -0.5071075486130795, -0.18532102235591502, -0.34360747041293604, -0.10663535692672814, 0.5401106625422387, 0.36115063338606174, 0.6398469273632881, 0.1684978307834667, 0.011345632066202864, 0.019692212232789042, 0.2552436981573202, -0.0466538397772535, -0.008869809547390889, 0.154014814824917, -0.21308614350464078, 0.058585037021226805, 0.42992288610140234, 0.2728751699887371, 0.286648242951179, -0.061655634848509666, -0.35745850099312715, -0.2807454709173691, -0.26311696297852283,

          0.12652057961369473,0.11110123869728744,-0.06401237638189104,-0.2759966984603499,0.0007703938991532744,0.3029467626036197,-0.13001726235534802,-0.17205608508556627,0.20910728473458953,-0.04249589749845854, 0.07287661581740144, 0.22165968363650385, 0.10085966369653779, -0.06785241140160224, 0.27176065549984224, -0.2267906434331087, -0.014215134261328607, 0.28901630009665596, -0.03389155800913523, 0.11084709228275876, 0.5576119345556849, -0.5464465480962769, 0.07433990285676224, 0.25337650393089167, -0.5069110581549248, 0.013370689718366352, 0.05196636953829508, -0.17774860663723335, -0.20929230742547517, -0.171576456449463, -0.3080198740371123, 0.061163789771043676, 0.3650600348115192, -0.6849546798503738, -0.3340074570963397, -0.11642205588335054, -0.8779763970091902, -0.533234849803597, -0.4062341919114648, -0.43281027601103156, -0.17496331532735482, 0.19207248928017975, 0.04889901702799824, 0.09402564105232351, -0.056834311843925005, -0.2907537281334536, -0.1835507869724239, -0.05202121278899296, -0.20080565626624808, -0.1257310678432548, -0.2808618505792971, 0.20409106529474652, 0.1668680439028267, 0.2600218643615604, 0.29716623454249597, 0.39485279869369605, 0.2895565255924897, 0.3304553825332598, 0.12603254541200276, -0.24406607848517764, 0.3782782760130388, -0.12873908461871614, -0.09365969615708529, 0.9371148056640993, 0.18146530846564063, -0.2568036585787009, 0.8695417898988316, 0.33228847550002133, -0.4261920172793116, 0.703167340103341, 0.10105925851298275, -0.5153297760305555, 0.6786797779054112, -0.023128559980505423, -0.3844260666833574, -0.20665329584999026,

          -0.5282777101207891,-0.3649788163771872,0.24515346837097618,-0.3198532213055531,-0.6519214525818016,0.06973361863137807,0.4200135740372901,-0.02132285080433401,0.5059676845357991,0.22791077742849275, -0.40837941425562324, -0.18473375721291233, 0.1715765690869774, -0.012631128374860714, 0.05717482380124795, 0.11323069921683324, 0.19443786814466266, 0.39729936168086155, -0.41415391979269267, -0.6853235578704061, 0.021751884836296583, 0.2464492802378039, -0.062325894506066744, -0.11541859979300913, 0.6450266900839091, 0.06370566583929033, 0.4487437482596964, 0.534893007366877, 0.11110636757347392, 0.17248078415099832, 0.19883514127626975, -0.16626998438026322, 0.02537456275800938, -0.2430949680010111, -0.16060736066140194, -0.3308179054843552, -0.4151049230304373, -0.5004188964152249, -0.5679683007177886, -0.21993924853903382, -0.3516189651884844, -0.3007600076913409, -0.24033678435290773, -0.6455652175663202, -0.09935414566259905, 0.08222870706117494, 0.38250651698880644, 0.1625859005523278, 0.18596350812891066, 0.038228930799382325, -0.008103627584913922, -0.037685423147484146, -0.1567101941444252, -0.32331335214858864, -0.1859952728821118, -0.26306093264771246, -0.4490048383535316, -0.2800898106517739, -0.4498705079436426, -0.20492900053954335, 0.1781062923274292, 0.18243295685741576, -0.09661498715718055, -0.033190176880752244, 0.02393846922386132, -0.09085927316303026, -0.2748144265008097, -0.05801521017346697, -0.35758694649223133, 0.1583145832844831, -0.021706002482694598, 0.19113679443239426, 0.24983377508828325, 0.023483077419038215, -0.15223391830734784, -1.3677579451793667,

          -0.2823435486566595,-0.05102798320533893,0.1266433808283225,-0.4608407635560511,-0.3225179526236271,-0.2493011992559152,-0.38126595726497026,-0.17941951495054456,-0.2889583725687002,-0.01867482552678345, 0.06256162141305498, -0.22138364907811306, -0.1375372606450187, -0.035146453581807846, 0.08403508680623632, 0.45621715639418076, 0.2575508884083776, 0.4391295908847669, 0.43513413378446275, 0.35369238103197825, 0.46076123137022656, -0.37294893454740125, -0.16454851583498195, -0.3552905987628604, -0.32708973556048226, -0.33702112273190493, -0.671595581126502, -0.23008956101633357, 0.028880096911843362, -0.19805110466267337, 0.29328751979190104, -0.18553293845278165, -0.013017091234296235, 0.5161177225463651, 0.4075333256157313, 0.4274846773070895, 0.5996550548731368, 0.4009652185117976, 0.30225484500626354, 0.023130398224708047, -0.152677229279981, -0.35118375353724496, 0.015623453331025534, -0.12470374393124839, -0.7234893057735204, 0.07787422014340808, -0.122045637884295, -0.03998209058246628, -0.10208307852644419, 0.012453782548748665, 0.012427894950252316, 0.27273181889952697, 0.0721886741317296, 0.38485746143521093, 0.46639056607847096, 0.1564850087435072, 0.3500965743081305, 0.3941874569255009, 0.23406037381286063, -0.09342973038279118, -0.31097232796609503, -0.22796329617434663, -0.031690225624322166, -0.3378851046694644, -0.0885249812492946, 0.1767156392010862, -0.227417335911829, -0.1701678190011194, 0.140084903908688, 0.012193016076397879, -0.12429894622554978, 0.0998206811587998, 0.12708713750106795, 0.005859131336788764, 0.03010754458523185, -0.29312864274244654]
      }
    },
    {
      "type":"convolution",
      "layerConfig": {
        "numberOfFeatures": 20,
        "padding": 2,
        "stride": 1,
        "filterDimension": [5,5,16],
        "weights": [0.49404679856164224,-0.2836423292008258,-0.5328610218285076,-0.14504568165315418,-0.45755197299157263,-0.3691030244051294,-0.2655890381726067,-0.2511957936585683,-0.23366275411387524,0.1916957995316076, -0.05663942163705879, 0.6239938032704287, 0.12654237254920878, 0.43496004504905084, 0.5699069209460587, 0.06735410198153334, -0.07686217875048747, 0.055340982788368194, -0.34243197827306204, -0.18757011330465692, 0.2532647375732446, -0.2736380714582216, 0.11213572073999838, 0.290020463265979, -0.378327428683138, 0.23732835279383677, 0.39785750744327075, -0.013917338828351675, -0.05447493071402015, 0.33104664385217464, -0.059722813896176986, -0.5167841253803249, 0.08316898455417393, 0.19282406644908145, -0.012887578331983871, 0.4628072757537624, 0.13832912033106937, -0.00019304846807361665, 0.8338664033714499, -0.40073946211537664, 0.1373465045781697, 0.41823923944582414, -0.4469054216840259, -0.22846668272601853, 0.06275218377470752, 0.19940674454307122, -0.31975058014883945, 0.05539462841820498, 0.2819571265953423, -0.29465044050883815, 0.23029214832180864, 0.4031090581018469, 0.05279206976727803, 0.8247102311910618, 0.33780606531971885, 0.12700242726770125, 0.3035368364948739, -0.023426047176925598, -0.13759095739660365, -0.15895942158099244, 0.1879551744844477, -0.255935747580887, 0.16178040747047778, -0.18225219974684193, -0.4714097425343752, -0.08668462220920632, -0.12366317682358266, -0.1632561520158, 0.06130296258378969, 0.16949658078552626, 0.02879274896304912, -0.06463706188280287, 0.061570077239334345, -0.16716300078693463, -0.07262223896176312, -0.3205141890367357,

          0.023686262832060816,0.043300674285819,-0.17160413807536107,-0.20610568101735674,0.24831389275545748,-0.018159550472130827,-0.37278864476861734,-0.22573055803489667,0.28517728691755523,0.06336293834044941, 0.007996380764608816, 0.04007087439744224, 0.5030652960131131, 0.009795349719794878, -0.256236549666531, -0.40886062730020123, 0.2991423997054866, -0.24450777958823544, -0.5480875799647404, 0.18540576296031935, 0.4440155843223234, -0.14061452460654353, 0.18798498530200386, 0.6567711557097811, 0.3474972400380499, 0.17541082862066137, 0.07075292246882928, 0.4606297342317548, -0.36522930868949455, -0.9635730340925218, -0.5428308959929098, 0.33521095427696307, 0.2685874574081491, -0.4567324133019418, 0.4587884705961285, 0.7668751510745959, 0.1440545532005531, 0.1068586615475944, 0.5813276797711411, 0.25869599898206713, -0.583203691161809, -0.643079659115658, 0.6073723982016574, -0.27152584109557915, -1.0550858463802297, -0.5916680256260466, 0.41290168316479975, 0.6808991156613158, -0.16436010755277533, 0.30673462319098177, 0.7723470043877947, -0.15095224723347495, -0.3037495570924895, -0.0838690816105626, 0.13489484551815317, -0.48374494267829604, -0.6510264811864684, 0.8623827372530443, -0.16256611391757889, -0.6535453052689845, -0.49647320988466953, 0.5075973010223654, 0.6088779852018059, -0.4323693869375563, 0.11036611683505967, 0.2787727628538845, 0.10020093457568413, -0.5177193094026674, -0.21530053898546134, 0.397224732998022, 0.041782717361287164, -0.2694567567657062, 0.4088828429681864, -0.13355886318412485, -0.31074102507209544, -0.13693095746161368,

          -0.03605891934249183,-0.03848442835673838,0.22267493689350668,0.23869747550607648,-0.1830834711391358,0.03262496104207021,-0.07122594798547821,-0.13620893708227205,0.3341947709819115,-0.3112564195475148, -0.0033681169094304624, 0.5255338435289736, -0.5684894115314189, 0.2765774177671533, 0.6203732155194531, 0.7669314971291316, -0.6548553897126816, -0.5307921327284498, 1.122460875398923, -0.8180235366497671, -0.754791050512032, 0.9565795791538055, -0.7300824069449157, -0.7403876789869763, 0.4804736470788288, -0.41065093054334595, -0.33603987643825595, 0.13251757587306331, -0.2957803234484893, -0.18647217114120887, 0.5220458372422095, -0.4243384890326786, -0.19838459386422047, 0.8310551221049153, -0.7491034797627519, -0.3351313967708389, 0.916382181387023, -0.7903097145204538, -0.45838555547996995, 0.5882809665193129, -0.3891487441457482, -0.2709156532359298, 0.15149991494201015, -0.3028940640521009, 0.10124319051114246, -0.12590140580984394, -0.2569685107824456, 0.06085819979878908, 0.050035945492428985, -0.2586673557878749, 0.15146089022718445, -0.00010272229059935413, -0.1646071958305302, 0.18998828400532117, 0.03778983548952495, -0.2185568927933827, 0.2566188301353256, -0.3171178072792667, 0.022821804171998798, 0.20804318362979665, -0.5917236182119496, 0.27372135399643205, 0.4264182714452009, -0.6420114281493433, 0.4388080718857158, 0.6117075216401775, -0.6980273713298226, 0.299993834048017, 0.6474128444226164, -0.6019807561683498, 0.22621267097119266, 0.4958085120609454, -0.5768070946033251, 0.019704941022350677, 0.4514377460557485, -0.587810837444832,

          0.7019551521147261,-0.2580903480685945,0.04930533979754318,-0.24840024286305554,-0.7913122256734907,-0.19653291761231537,-0.2750059188336792,0.03285287967210826,-0.07416875879814193,0.11524758728126797, 0.3560120785024278, 0.12329974556471074, -0.15908842387678937, 0.3542266730580765, 0.09799509081146679, -0.06564969898292729, -1.0822443297524371, -1.0324242482683244, 0.2817467589024144, -0.47317542025170206, -0.08116437583891904, 0.5493191696369555, 1.1531504104808081, 1.1602033647301124, -0.3542299817539806, 0.09305773366119302, -0.10841602938108591, -0.24352344767835774, 0.2382629726071963, -0.24231781650272602, -0.2121918851202416, -1.3575036097687905, -0.9344351022819964, 0.6846586122669616, 0.15117121918146229, 0.4067039099370676, 0.437091762129866, 0.7664560013037951, 0.7319314367106843, -0.3370883548953567, -0.16902061256426193, -0.09557048119998303, -0.14028649633136434, 0.23052466192480564, -0.35840695790571425, 0.24192029500817974, -0.3942781167483927, -0.19857906627778493, 0.2723118284436798, -0.14258489732864696, 0.18409757863715165, -0.20006683442852938, -0.013672078956416462, 0.16978210358416074, -0.01360742582127999, 0.3354078688619698, 0.2623510890981881, -0.3767672774745352, 0.20449332169998474, -0.2880868578107266, 0.2474578595035275, 0.029594250147827093, -0.06083734773440346, -0.2482434084905049, -0.07397247601606576, 0.16634405965414842, -0.5585678165449688, 0.258205992498527, 0.21083800260846242, -0.08296193694444812, 0.5098109341134125, 0.006182165404141382, -0.17900191794210346, 0.21291044678282112, -0.0808730530296052,-0.2253960888077205,

          -0.4340239842775529,0.31872402785457865,-0.1460114176633312,-0.3455062222525952,0.9284079214819185,-0.6195540061568117,-0.7834655965693273,0.6918797724988589,-1.2597659104250736,-0.38893297226203566, 0.6668603865094687, -0.46346262749960465, 0.23871991191251393, -0.11396076986779699, 0.49324359633483195, -0.18791498545799923, 0.188464711355624, 0.009334354797539279, -0.052355536638934386, 1.2645531833132468, -0.28762224772400374, -0.0019315603846774886, 1.5745092146143695, -0.32797542853870576, -0.45061228062720904, 0.5673241546172523, -0.7077095712186605, -0.2695361444518322, -0.07372926471331843, 0.044779746194449466, -0.0939911712224011, 0.1741778561062145, 0.29407562960434147, -0.9904051532581997, 0.09534810219468316, -1.3023547240164834, 0.1211913163031552, 1.1297617966004252, -0.39523470646425185, -0.0590684413629318, 0.5689564019738321, -0.43084512820626675, -0.1059029591909391, -0.007902648087350191, 0.001038687337794602, 0.22919734607768694, -0.06637000171579764, 0.7480763828071584, -0.1741877002233364, -0.11713982093252293, 0.06395442791600386, -0.13828958768348762, 0.34327066793944827, 0.032851721081211746, -0.5711376550257907, 0.07237878845169343, -0.3146203096232206, 0.212675058218846, -0.1292063356756378, 0.19756531228971225, 0.28640129789113705, -0.8417360468812694, 0.2534230613630047, 0.3026930427398998, -0.19430862757747502, 0.34324565442466304, -0.18005684403171088, -0.39409392484097266, 0.28129958488081297, 0.06394734457413385, -0.062148789993742876, 0.012207411575938349, 0.21750238418185008, -0.24569374529948101, 0.41129937281794904, -0.24309988660904622,

          -0.18186544831699414,0.2339945315460675,0.015890714613096643,0.20336675174543992,-0.344040584611863,0.20166563048408961,0.11204799322125769,-0.45391864632330553,0.12449324928826072,0.35349656473673813, -0.019743907312136617, 0.05185284203071491, -0.1945319078029307, 0.10242252638560619, 0.015987750912587237, -0.1806662528639697, 0.1312648163119125, -0.20175327198757154, 0.220670032227715, -0.20437580229504676, 0.43982304234978337, -0.42563147073073637, -0.7312113163468345, -0.23786202255473732, 0.5660660087415311, 0.31694965368073624, 0.34703189579188676, -0.45043379080252316, -0.17218294031258075, -0.4057702821366018, -0.2263108091687162, 0.49439341057335984, 0.046247555337731186, 0.2332529707399325, 0.2591088282646566, 0.34063861358071024, -0.7705516723030318, -1.3939264792134312, -0.6824945927089168, 1.2426544253979044, 1.1441091116923385, 1.1446639540975874, -0.47137759835312004, -0.03086269419748919, -0.6206249700105724, 0.21712262851030054, 0.3934866966017246, -0.1300017010488879, 0.03444792396394105, 0.03894305588430977, 0.46167639574217256, -0.9069466065401929, -1.4494297684523976, -0.9029260715738087, 1.5938215139124112, 1.6108796984199627, 1.0182440511674489, -0.8593972869802011, -0.3646728366508893, -0.9080688482879954, -0.2983291153990255, 0.3451723782323531, 0.21851814740858794, 0.1218100811299575, -0.09789127547875727, 0.10288152303129988, -0.5289871553897028, -1.012694593854082, -0.5103976275699217, 0.9813047825975553, 0.9701956634971963, 0.7812796625610889, -0.27340687348198184, -0.23161049192789754, -0.543781087057416,-0.17129618298888907,

          0.412322159786933,0.3877188929289918,-0.16215116185708403,0.39197834156753153,0.30344373322710466,0.13329501245185474,0.6431528922616931,0.6007639932170443,0.3876819226590047,0.2696219312846046, -0.12905140125352593, 0.03312514126283527, 0.4365203354365289, -0.023140400751379735, -0.2309348265200376, 0.22594386539630718, -0.14740706781448784, -0.15863793783468408, -0.15668361826118934, -0.06046460001441244, 0.039872435850120826, -0.21574671587893787, 0.016948447567890147, 0.3143290978825997, -0.31878020322440187, -0.035979488992646066, 0.3323295603890207, 0.19940245162257325, 0.37067996894706484, 0.27722994780015714, -0.20503419636732126, -0.5091662559866516, -0.4686795459356685, -0.48285828066906783, -0.2933904344214931, -0.3879488013274126, -0.2839117540504788, 0.10430891072215685, 0.2464706620130694, -1.0111147413959012, -0.5484124066921715, -0.02914698386534948, -0.7268381691143946, -0.2955135528499513, 0.028072345610146637, 0.26550988797737834, 0.019949066436217543, -0.17190003367294962, -0.12420018216780651, 0.01525608036977489, 0.017197278340052136, -0.06130049677465421, 0.38063459858104776, 0.5190776149574846, -0.2850427018414574, 0.2099880334300325, 0.3380933971950886, -0.08931919371582982, -0.11849794686989996, 0.013754906879386436, 0.08553047412518891, 0.038292673620715804, -0.061082802589342046, -0.04202547167641075, -0.29433547429827445, -0.2556964001092991, 0.07177695429727714, 0.1254477818981385, 0.24291300846389038, -0.19973659566223392, -0.056960011402766846, 0.11912971022519458, -0.2945248599356726, 0.13590592001823576, 0.11276884266036573, -0.37852108944251184,

          0.06466420250026916,0.013262366982656492,0.049266940419089925,0.00888909285149016,0.020938216903508743,-0.07730000716608001,0.7366609817444569,0.478698378113123,0.36737431349441946,-0.3299216500122613, -0.003455947382631919, -0.4999966887869156, -0.6993338147798958, 0.4760986313828684, 0.09550038203289478, -0.23948628814151326, -0.39704896301182924, -0.283026687547736, -0.5002073869117502, -0.9589834983410092, -0.27351414599311297, 0.06837868225745128, -0.11337123692286978, 0.19718323666176682, 1.4637619937833752, 1.4724100328606737, 1.370199327655718, -0.6170836778672537, -0.4706649484757254, -0.7704728519428183, 0.5448001736032707, 0.34803145167750177, 0.21395556778105837, 0.1178190044813825, -0.025024001055964622, 0.18079186334360056, -1.9571121692003166, -2.1676400722975657, -1.4525874084827886, 0.34912176447586923, 0.07908431800600083, 0.3474743967418369, 0.8755685389449511, 0.7783001066702321, 0.6364987508305004, -0.04977839175620415, -0.04546992203209706, -0.43082107151792115, 1.0752761672797064, 1.007975995876638, 0.815018398594658, 0.16243057741865022, 0.14276529169539592, 0.2067114480446594, -1.213666272566663, -1.2964983076615122, -0.8862149206517911, 0.21472711569113076, -0.058106867018753096, 0.28824234226989004, -0.23603895111427242, 0.1779573649372486, 0.11434303347559956, -0.14547518050195454, -0.2833817857078656, -0.5797165779500517, 0.7356383852688777, 0.7115744323401377, 0.45912150146696595, -0.12262491806091418, -0.4352722574386288, -0.06916289234814475, 0.13364657982018613, -0.29481522273167177, -0.03131702480449612, -0.2075793272596148,

          -0.14845962541492547,-0.04629366811842213,-0.44658119079027425,-0.44094309399993953,-0.21184237662157232,-0.48797206828163897,-0.07715367126531812,-0.026907615372456367,-0.11012751574736311,0.13604549582091305, 0.23278746502330763, -0.023936114757839976, 0.1566316462342445, 0.13623019978049616, -0.04698008503362925, -0.26085920870077145, -0.009173667994554487, -0.31981868591174917, -0.1312037007385229, -0.1841267876559634, -0.5460324503399672, -0.15247457837051623, -0.18676972654460292, -0.19946211924661003, 0.20973093092868508, 0.10256998828125442, 0.24958978964440534, 0.20324725702731716, 0.20650393734486794, 0.1441829770043462, 0.08873600051200262, 0.082087228502844, 0.14627834012693164, 0.32438940604241023, 0.26071986876078107, 0.1869231598413705, -0.003983595384953775, -0.16093558834319835, -0.1595484850339608, -0.15475257505983644, -0.5008042265358819, -0.0019898494705124607, -0.010032915141050085, -0.01068786806315948, 0.25016501315279943, 0.29500073448062863, 0.22201194764859333, 0.26684417493759754, 0.22185306666136406, 0.2834953566788418, 0.6026358669618758, 0.37029520308069025, 0.1928039185742811, 0.46716194681414014, -0.31863686183118123, -0.49126622591969854, -0.1739271960254025, -0.47086901689132177, -0.5786249440791935, -0.1705000362389491, 0.04914327149410919, 0.1574821532847479, 0.2566106897390721, -0.06601491437965008, -0.023109757561750936, 0.3284450662608733, -0.3898469516040088, -0.30800300063033376, 0.20125321524053508, -0.4848733141872541, -0.4760910332418846, 0.4291162695301144, -0.31062861962245636, -0.2647543504515515, 0.5949243851608824, -0.4131020924775944,

          0.09295733797764917,0.35217422782389873,-0.08770211218349028,0.312568404537216,0.4074666051349949,0.08382965779655012,0.11299155956307629,0.09969676501701011,-0.10519386931243027,-0.2910561747957784, -0.4288962673856864, -0.0810979720984684, -0.14827767313997603, -0.1529649157175479, 0.05278182503589088, 0.05045145124743528, 0.019757317273500486, -0.23830696912856908, 0.08883977866974285, 0.29633697834129263, -0.037062138895837586, 0.35480635162409574, 0.2476092206221339, 0.24064679406216416, 0.003778740486414031, -0.15567202119908022, -0.11708712856620664, -0.31340970413466673, -0.4568044952939181, 0.17661959294730553, 0.20171834946591372, 0.08702135430579, -0.4785631100916723, 0.13011264479448112, -0.027338020972310223, -0.13899346403966759, 0.22475920928376844, 0.16606756933311312, 0.27134317242393624, -0.06811398621189012, -0.15383857877030946, 0.3329402648174729, -0.4763739759880927, -0.5065060868743448, 0.262030155082217, 0.1590881723193169, 0.20169110792745965, -0.45508575188390915, 0.22811003655725465, 0.11444967195717534, -0.3367949664251619, 0.23713310534706972, 0.10353600883853184, -0.0860502530986855, 0.01310396514406275, 0.11236236090246228, 0.5184943420307484, -0.7319763796813075, -0.37437060604541994, 0.32276419383492416, 0.15243540890975577, 0.12020506875706236, -0.47431440601540437, 0.11245001893184045, 0.05535309327704257, -0.34792798603245234, 0.2903147677632665, 0.06588840871953583, -0.09959766023931799, -0.004110905889145571, 0.18028614583548852, 0.21931753864100145, -0.5944992554141141, -0.13846640547974087, 0.5507414942650962, -0.1282049513410741,

          -0.06736707824277079,0.07116853611798746,-0.40487791267742335,-0.22498754155540282,0.020428339984609547,-0.346912425262714,-0.023352943387104495,0.12017745810839242,-0.2770388239617134,0.8125964585295679, -0.06056575021735997, -0.44688246735411075, 0.569082719771024, 0.0012310759159668977, -0.6071002943766893, -0.20572861349998253, 0.09734771362664557, 0.33341271426260943, -0.2988539445947992, 0.46265069568732364, 0.7193936402746371, -0.129084117670843, -0.1343702766158414, 0.2519456025305876, 0.27629166805664324, 0.13531608941758827, 0.18934910672861927, 0.304213738118585, 0.06069180093052639, -0.4910554580008913, -0.580197398551352, 0.12417269177701513, 0.2300298667885348, -0.6518998928017813, 0.1062698032923531, 0.3498037106763174, -0.9584515051877959, 0.051428669189492786, 0.5161102023069186, -0.1793667542466259, 0.18615940288071608, 0.08887550398323227, 0.3812447979526208, 0.046420006526088554, -0.2882737801334155, -0.4824107580177095, 0.11371576431574697, -0.03785129712954133, -0.5913014941908812, 0.05934814727700281, 0.7127395571854259, -0.7196998618266925, 0.0031286393298969495, 0.2973963079901371, -0.2752608383380801, 0.026155844597577936, 0.2535396610247198, 0.1941370858645615, 0.21923734554866522, -0.24428621179633275, 0.16797788882663114, -0.08732109755980438, 0.1908953679756435, -0.48699919941944375, -0.13727096617576612, 0.5050091695395876, -0.40867123666341815, -0.41185615240271584, 0.5796520768011907, -0.14507244831416002, -0.17032936695946596, 0.1357283559996111, 0.31659141262988616, 0.055888079047098416, -0.045158095165309074, 0.034916096814175956,

          -0.2762656433864791,0.02619066913167606,0.36183110650348493,0.08636541408675068,-0.0543824128299997,-0.3206214032117247,0.5505614518430179,0.17391135943849625,-0.245718774533552,0.6887690193828733, 0.09218259187142075, -0.02279130283344916, -0.021114996542230795, -0.08681208985226081, 0.18215915544846192, -0.09516097690939447, 0.09586904953056315, -0.24837730973923605, 0.3586498628080674, -0.24657959068294885, -0.6079521140292231, 0.9091487249748342, 0.4597175845383666, -0.039665546474640656, 0.07670808979655853, -0.06571122265514176, -0.0887561942474904, -0.43253622233136785, -0.13846656898436552, -0.0023161928768734813, 0.23214885599119167, -0.5029880509313686, -0.6538805083168006, 0.916647093863388, 0.2282535722556425, 0.04495253364621914, 0.7344387375995576, 0.27485446268726504, 0.29863271566144217, -0.7564917941077126, -0.834466820794783, -0.299150781164507, -0.2988390163256469, -0.3266914342715664, 0.3311262186061814, 0.47013544284911385, -0.14870521759023395, -0.09151967051705338, 0.513509077579102, 0.42597583101655334, 0.5775934556703108, -0.6573488213625125, -0.5265158104482989, -0.31903178499594476, -0.9291399576612677, -0.7584202367838802, -0.2202278069151725, -0.04319443423119494, 0.10785118706020962, 0.5598066443520758, 0.23127048446999376, -0.06359812756599198, -0.15459714155608328, -0.2704709213613891, -0.3425666453605979, -0.07009309879582941, -0.8886083748578606, -0.19306906082077996, -0.14292447388028437, -0.008362688643095448, 0.3282206910875744, 0.6583529231446309, -0.05351713180641414, 0.2737904116889954, 0.44344495031483516, -0.2690569149419005,

          0.009211988512405253,-0.0007839746779370614,-0.06012068943112144,-0.14342407469901555,-0.21667943535523176,-0.4007914647852577,-0.8784685112203583,-0.9046448808638221,-1.2789872936811852,0.2587570462230998, 0.2790094973744749, -0.29026017619963645, 0.3039789813109202, -0.054072773885982285, -0.011761735360069681, -0.0453226774216043, 0.11965706346667838, 0.0069019866617528736, -0.1657830079530195, 0.17979286131237313, -0.1915355318829662, 0.9492692752669497, 1.4229550215636095, 1.087077723485567, 0.932643748786472, 1.2083000379827318, 1.1782878205976388, -0.37216852623199276, -0.5121750890141956, 0.00976729266636032, -0.13399319176935012, 0.299329374521051, 0.04506464595384868, 0.2161481968549903, 0.5130989580180728, 0.16101211464718007, 0.2884214759997048, 0.5281633336678903, 0.49165944301680486, -1.2402210434071592, -1.1022132603145522, -0.8132712202044152, -0.2717469149743714, -0.3974634772149773, -0.047561882273231194, 0.033440009853541425, -0.10157198825945905, -0.005955840797402801, -0.10854757488949761, -0.06078725811113595, 0.044930749534273604, -0.7626898453309108, -0.8569926576966598, -0.5071075486130795, -0.18532102235591502, -0.34360747041293604, -0.10663535692672814, 0.5401106625422387, 0.36115063338606174, 0.6398469273632881, 0.1684978307834667, 0.011345632066202864, 0.019692212232789042, 0.2552436981573202, -0.0466538397772535, -0.008869809547390889, 0.154014814824917, -0.21308614350464078, 0.058585037021226805, 0.42992288610140234, 0.2728751699887371, 0.286648242951179, -0.061655634848509666, -0.35745850099312715, -0.2807454709173691, -0.26311696297852283,

          0.12652057961369473,0.11110123869728744,-0.06401237638189104,-0.2759966984603499,0.0007703938991532744,0.3029467626036197,-0.13001726235534802,-0.17205608508556627,0.20910728473458953,-0.04249589749845854, 0.07287661581740144, 0.22165968363650385, 0.10085966369653779, -0.06785241140160224, 0.27176065549984224, -0.2267906434331087, -0.014215134261328607, 0.28901630009665596, -0.03389155800913523, 0.11084709228275876, 0.5576119345556849, -0.5464465480962769, 0.07433990285676224, 0.25337650393089167, -0.5069110581549248, 0.013370689718366352, 0.05196636953829508, -0.17774860663723335, -0.20929230742547517, -0.171576456449463, -0.3080198740371123, 0.061163789771043676, 0.3650600348115192, -0.6849546798503738, -0.3340074570963397, -0.11642205588335054, -0.8779763970091902, -0.533234849803597, -0.4062341919114648, -0.43281027601103156, -0.17496331532735482, 0.19207248928017975, 0.04889901702799824, 0.09402564105232351, -0.056834311843925005, -0.2907537281334536, -0.1835507869724239, -0.05202121278899296, -0.20080565626624808, -0.1257310678432548, -0.2808618505792971, 0.20409106529474652, 0.1668680439028267, 0.2600218643615604, 0.29716623454249597, 0.39485279869369605, 0.2895565255924897, 0.3304553825332598, 0.12603254541200276, -0.24406607848517764, 0.3782782760130388, -0.12873908461871614, -0.09365969615708529, 0.9371148056640993, 0.18146530846564063, -0.2568036585787009, 0.8695417898988316, 0.33228847550002133, -0.4261920172793116, 0.703167340103341, 0.10105925851298275, -0.5153297760305555, 0.6786797779054112, -0.023128559980505423, -0.3844260666833574, -0.20665329584999026,

          -0.5282777101207891,-0.3649788163771872,0.24515346837097618,-0.3198532213055531,-0.6519214525818016,0.06973361863137807,0.4200135740372901,-0.02132285080433401,0.5059676845357991,0.22791077742849275, -0.40837941425562324, -0.18473375721291233, 0.1715765690869774, -0.012631128374860714, 0.05717482380124795, 0.11323069921683324, 0.19443786814466266, 0.39729936168086155, -0.41415391979269267, -0.6853235578704061, 0.021751884836296583, 0.2464492802378039, -0.062325894506066744, -0.11541859979300913, 0.6450266900839091, 0.06370566583929033, 0.4487437482596964, 0.534893007366877, 0.11110636757347392, 0.17248078415099832, 0.19883514127626975, -0.16626998438026322, 0.02537456275800938, -0.2430949680010111, -0.16060736066140194, -0.3308179054843552, -0.4151049230304373, -0.5004188964152249, -0.5679683007177886, -0.21993924853903382, -0.3516189651884844, -0.3007600076913409, -0.24033678435290773, -0.6455652175663202, -0.09935414566259905, 0.08222870706117494, 0.38250651698880644, 0.1625859005523278, 0.18596350812891066, 0.038228930799382325, -0.008103627584913922, -0.037685423147484146, -0.1567101941444252, -0.32331335214858864, -0.1859952728821118, -0.26306093264771246, -0.4490048383535316, -0.2800898106517739, -0.4498705079436426, -0.20492900053954335, 0.1781062923274292, 0.18243295685741576, -0.09661498715718055, -0.033190176880752244, 0.02393846922386132, -0.09085927316303026, -0.2748144265008097, -0.05801521017346697, -0.35758694649223133, 0.1583145832844831, -0.021706002482694598, 0.19113679443239426, 0.24983377508828325, 0.023483077419038215, -0.15223391830734784, -1.3677579451793667,

          -0.2823435486566595,-0.05102798320533893,0.1266433808283225,-0.4608407635560511,-0.3225179526236271,-0.2493011992559152,-0.38126595726497026,-0.17941951495054456,-0.2889583725687002,-0.01867482552678345, 0.06256162141305498, -0.22138364907811306, -0.1375372606450187, -0.035146453581807846, 0.08403508680623632, 0.45621715639418076, 0.2575508884083776, 0.4391295908847669, 0.43513413378446275, 0.35369238103197825, 0.46076123137022656, -0.37294893454740125, -0.16454851583498195, -0.3552905987628604, -0.32708973556048226, -0.33702112273190493, -0.671595581126502, -0.23008956101633357, 0.028880096911843362, -0.19805110466267337, 0.29328751979190104, -0.18553293845278165, -0.013017091234296235, 0.5161177225463651, 0.4075333256157313, 0.4274846773070895, 0.5996550548731368, 0.4009652185117976, 0.30225484500626354, 0.023130398224708047, -0.152677229279981, -0.35118375353724496, 0.015623453331025534, -0.12470374393124839, -0.7234893057735204, 0.07787422014340808, -0.122045637884295, -0.03998209058246628, -0.10208307852644419, 0.012453782548748665, 0.012427894950252316, 0.27273181889952697, 0.0721886741317296, 0.38485746143521093, 0.46639056607847096, 0.1564850087435072, 0.3500965743081305, 0.3941874569255009, 0.23406037381286063, -0.09342973038279118, -0.31097232796609503, -0.22796329617434663, -0.031690225624322166, -0.3378851046694644, -0.0885249812492946, 0.1767156392010862, -0.227417335911829, -0.1701678190011194, 0.140084903908688, 0.012193016076397879, -0.12429894622554978, 0.0998206811587998, 0.12708713750106795, 0.005859131336788764, 0.03010754458523185, -0.29312864274244654]
      }
    },
    ,
    {
      "sx": 5,
      "sy": 5,
      "stride": 1,
      "in_depth": 3,
      "out_depth": 16,
      "out_sx": 32,
      "out_sy": 32,
      "layer_type": "conv",
      "l1_decay_mul": 0,
      "l2_decay_mul": 1,
      "pad": 2,
      "filters": [{
        "sx": 5,
        "sy": 5,
        "depth": 3,
        "w": {
          "0": 0.49404679856164224,
          "1": -0.2836423292008258,
          "2": -0.5328610218285076,
          "3": -0.14504568165315418,
          "4": -0.45755197299157263,
          "5": -0.3691030244051294,
          "6": -0.2655890381726067,
          "7": -0.2511957936585683,
          "8": -0.23366275411387524,
          "9": 0.1916957995316076,
          "10": -0.05663942163705879,
          "11": 0.6239938032704287,
          "12": 0.12654237254920878,
          "13": 0.43496004504905084,
          "14": 0.5699069209460587,
          "15": 0.06735410198153334,
          "16": -0.07686217875048747,
          "17": 0.055340982788368194,
          "18": -0.34243197827306204,
          "19": -0.18757011330465692,
          "20": 0.2532647375732446,
          "21": -0.2736380714582216,
          "22": 0.11213572073999838,
          "23": 0.290020463265979,
          "24": -0.378327428683138,
          "25": 0.23732835279383677,
          "26": 0.39785750744327075,
          "27": -0.013917338828351675,
          "28": -0.05447493071402015,
          "29": 0.33104664385217464,
          "30": -0.059722813896176986,
          "31": -0.5167841253803249,
          "32": 0.08316898455417393,
          "33": 0.19282406644908145,
          "34": -0.012887578331983871,
          "35": 0.4628072757537624,
          "36": 0.13832912033106937,
          "37": -0.00019304846807361665,
          "38": 0.8338664033714499,
          "39": -0.40073946211537664,
          "40": 0.1373465045781697,
          "41": 0.41823923944582414,
          "42": -0.4469054216840259,
          "43": -0.22846668272601853,
          "44": 0.06275218377470752,
          "45": 0.19940674454307122,
          "46": -0.31975058014883945,
          "47": 0.05539462841820498,
          "48": 0.2819571265953423,
          "49": -0.29465044050883815,
          "50": 0.23029214832180864,
          "51": 0.4031090581018469,
          "52": 0.05279206976727803,
          "53": 0.8247102311910618,
          "54": 0.33780606531971885,
          "55": 0.12700242726770125,
          "56": 0.3035368364948739,
          "57": -0.023426047176925598,
          "58": -0.13759095739660365,
          "59": -0.15895942158099244,
          "60": 0.1879551744844477,
          "61": -0.255935747580887,
          "62": 0.16178040747047778,
          "63": -0.18225219974684193,
          "64": -0.4714097425343752,
          "65": -0.08668462220920632,
          "66": -0.12366317682358266,
          "67": -0.1632561520158,
          "68": 0.06130296258378969,
          "69": 0.16949658078552626,
          "70": 0.02879274896304912,
          "71": -0.06463706188280287,
          "72": 0.061570077239334345,
          "73": -0.16716300078693463,
          "74": -0.07262223896176312
        }
      },
        {
          "sx": 5,
          "sy": 5,
          "depth": 3,
          "w": {
            "0": 0.023686262832060816,
            "1": 0.043300674285819,
            "2": -0.17160413807536107,
            "3": -0.20610568101735674,
            "4": 0.24831389275545748,
            "5": -0.018159550472130827,
            "6": -0.37278864476861734,
            "7": -0.22573055803489667,
            "8": 0.28517728691755523,
            "9": 0.06336293834044941,
            "10": 0.007996380764608816,
            "11": 0.04007087439744224,
            "12": 0.5030652960131131,
            "13": 0.009795349719794878,
            "14": -0.256236549666531,
            "15": -0.40886062730020123,
            "16": 0.2991423997054866,
            "17": -0.24450777958823544,
            "18": -0.5480875799647404,
            "19": 0.18540576296031935,
            "20": 0.4440155843223234,
            "21": -0.14061452460654353,
            "22": 0.18798498530200386,
            "23": 0.6567711557097811,
            "24": 0.3474972400380499,
            "25": 0.17541082862066137,
            "26": 0.07075292246882928,
            "27": 0.4606297342317548,
            "28": -0.36522930868949455,
            "29": -0.9635730340925218,
            "30": -0.5428308959929098,
            "31": 0.33521095427696307,
            "32": 0.2685874574081491,
            "33": -0.4567324133019418,
            "34": 0.4587884705961285,
            "35": 0.7668751510745959,
            "36": 0.1440545532005531,
            "37": 0.1068586615475944,
            "38": 0.5813276797711411,
            "39": 0.25869599898206713,
            "40": -0.583203691161809,
            "41": -0.643079659115658,
            "42": 0.6073723982016574,
            "43": -0.27152584109557915,
            "44": -1.0550858463802297,
            "45": -0.5916680256260466,
            "46": 0.41290168316479975,
            "47": 0.6808991156613158,
            "48": -0.16436010755277533,
            "49": 0.30673462319098177,
            "50": 0.7723470043877947,
            "51": -0.15095224723347495,
            "52": -0.3037495570924895,
            "53": -0.0838690816105626,
            "54": 0.13489484551815317,
            "55": -0.48374494267829604,
            "56": -0.6510264811864684,
            "57": 0.8623827372530443,
            "58": -0.16256611391757889,
            "59": -0.6535453052689845,
            "60": -0.49647320988466953,
            "61": 0.5075973010223654,
            "62": 0.6088779852018059,
            "63": -0.4323693869375563,
            "64": 0.11036611683505967,
            "65": 0.2787727628538845,
            "66": 0.10020093457568413,
            "67": -0.5177193094026674,
            "68": -0.21530053898546134,
            "69": 0.397224732998022,
            "70": 0.041782717361287164,
            "71": -0.2694567567657062,
            "72": 0.4088828429681864,
            "73": -0.13355886318412485,
            "74": -0.31074102507209544
          }
        },
        {
          "sx": 5,
          "sy": 5,
          "depth": 3,
          "w": {
            "0": -0.03605891934249183,
            "1": -0.03848442835673838,
            "2": 0.22267493689350668,
            "3": 0.23869747550607648,
            "4": -0.1830834711391358,
            "5": 0.03262496104207021,
            "6": -0.07122594798547821,
            "7": -0.13620893708227205,
            "8": 0.3341947709819115,
            "9": -0.3112564195475148,
            "10": -0.0033681169094304624,
            "11": 0.5255338435289736,
            "12": -0.5684894115314189,
            "13": 0.2765774177671533,
            "14": 0.6203732155194531,
            "15": 0.7669314971291316,
            "16": -0.6548553897126816,
            "17": -0.5307921327284498,
            "18": 1.122460875398923,
            "19": -0.8180235366497671,
            "20": -0.754791050512032,
            "21": 0.9565795791538055,
            "22": -0.7300824069449157,
            "23": -0.7403876789869763,
            "24": 0.4804736470788288,
            "25": -0.41065093054334595,
            "26": -0.33603987643825595,
            "27": 0.13251757587306331,
            "28": -0.2957803234484893,
            "29": -0.18647217114120887,
            "30": 0.5220458372422095,
            "31": -0.4243384890326786,
            "32": -0.19838459386422047,
            "33": 0.8310551221049153,
            "34": -0.7491034797627519,
            "35": -0.3351313967708389,
            "36": 0.916382181387023,
            "37": -0.7903097145204538,
            "38": -0.45838555547996995,
            "39": 0.5882809665193129,
            "40": -0.3891487441457482,
            "41": -0.2709156532359298,
            "42": 0.15149991494201015,
            "43": -0.3028940640521009,
            "44": 0.10124319051114246,
            "45": -0.12590140580984394,
            "46": -0.2569685107824456,
            "47": 0.06085819979878908,
            "48": 0.050035945492428985,
            "49": -0.2586673557878749,
            "50": 0.15146089022718445,
            "51": -0.00010272229059935413,
            "52": -0.1646071958305302,
            "53": 0.18998828400532117,
            "54": 0.03778983548952495,
            "55": -0.2185568927933827,
            "56": 0.2566188301353256,
            "57": -0.3171178072792667,
            "58": 0.022821804171998798,
            "59": 0.20804318362979665,
            "60": -0.5917236182119496,
            "61": 0.27372135399643205,
            "62": 0.4264182714452009,
            "63": -0.6420114281493433,
            "64": 0.4388080718857158,
            "65": 0.6117075216401775,
            "66": -0.6980273713298226,
            "67": 0.299993834048017,
            "68": 0.6474128444226164,
            "69": -0.6019807561683498,
            "70": 0.22621267097119266,
            "71": 0.4958085120609454,
            "72": -0.5768070946033251,
            "73": 0.019704941022350677,
            "74": 0.4514377460557485
          }
        },
        {
          "sx": 5,
          "sy": 5,
          "depth": 3,
          "w": {
            "0": 0.7019551521147261,
            "1": -0.2580903480685945,
            "2": 0.04930533979754318,
            "3": -0.24840024286305554,
            "4": -0.7913122256734907,
            "5": -0.19653291761231537,
            "6": -0.2750059188336792,
            "7": 0.03285287967210826,
            "8": -0.07416875879814193,
            "9": 0.11524758728126797,
            "10": 0.3560120785024278,
            "11": 0.12329974556471074,
            "12": -0.15908842387678937,
            "13": 0.3542266730580765,
            "14": 0.09799509081146679,
            "15": -0.06564969898292729,
            "16": -1.0822443297524371,
            "17": -1.0324242482683244,
            "18": 0.2817467589024144,
            "19": -0.47317542025170206,
            "20": -0.08116437583891904,
            "21": 0.5493191696369555,
            "22": 1.1531504104808081,
            "23": 1.1602033647301124,
            "24": -0.3542299817539806,
            "25": 0.09305773366119302,
            "26": -0.10841602938108591,
            "27": -0.24352344767835774,
            "28": 0.2382629726071963,
            "29": -0.24231781650272602,
            "30": -0.2121918851202416,
            "31": -1.3575036097687905,
            "32": -0.9344351022819964,
            "33": 0.6846586122669616,
            "34": 0.15117121918146229,
            "35": 0.4067039099370676,
            "36": 0.437091762129866,
            "37": 0.7664560013037951,
            "38": 0.7319314367106843,
            "39": -0.3370883548953567,
            "40": -0.16902061256426193,
            "41": -0.09557048119998303,
            "42": -0.14028649633136434,
            "43": 0.23052466192480564,
            "44": -0.35840695790571425,
            "45": 0.24192029500817974,
            "46": -0.3942781167483927,
            "47": -0.19857906627778493,
            "48": 0.2723118284436798,
            "49": -0.14258489732864696,
            "50": 0.18409757863715165,
            "51": -0.20006683442852938,
            "52": -0.013672078956416462,
            "53": 0.16978210358416074,
            "54": -0.01360742582127999,
            "55": 0.3354078688619698,
            "56": 0.2623510890981881,
            "57": -0.3767672774745352,
            "58": 0.20449332169998474,
            "59": -0.2880868578107266,
            "60": 0.2474578595035275,
            "61": 0.029594250147827093,
            "62": -0.06083734773440346,
            "63": -0.2482434084905049,
            "64": -0.07397247601606576,
            "65": 0.16634405965414842,
            "66": -0.5585678165449688,
            "67": 0.258205992498527,
            "68": 0.21083800260846242,
            "69": -0.08296193694444812,
            "70": 0.5098109341134125,
            "71": 0.006182165404141382,
            "72": -0.17900191794210346,
            "73": 0.21291044678282112,
            "74": -0.0808730530296052
          }
        },
        {
          "sx": 5,
          "sy": 5,
          "depth": 3,
          "w": {
            "0": -0.4340239842775529,
            "1": 0.31872402785457865,
            "2": -0.1460114176633312,
            "3": -0.3455062222525952,
            "4": 0.9284079214819185,
            "5": -0.6195540061568117,
            "6": -0.7834655965693273,
            "7": 0.6918797724988589,
            "8": -1.2597659104250736,
            "9": -0.38893297226203566,
            "10": 0.6668603865094687,
            "11": -0.46346262749960465,
            "12": 0.23871991191251393,
            "13": -0.11396076986779699,
            "14": 0.49324359633483195,
            "15": -0.18791498545799923,
            "16": 0.188464711355624,
            "17": 0.009334354797539279,
            "18": -0.052355536638934386,
            "19": 1.2645531833132468,
            "20": -0.28762224772400374,
            "21": -0.0019315603846774886,
            "22": 1.5745092146143695,
            "23": -0.32797542853870576,
            "24": -0.45061228062720904,
            "25": 0.5673241546172523,
            "26": -0.7077095712186605,
            "27": -0.2695361444518322,
            "28": -0.07372926471331843,
            "29": 0.044779746194449466,
            "30": -0.0939911712224011,
            "31": 0.1741778561062145,
            "32": 0.29407562960434147,
            "33": -0.9904051532581997,
            "34": 0.09534810219468316,
            "35": -1.3023547240164834,
            "36": 0.1211913163031552,
            "37": 1.1297617966004252,
            "38": -0.39523470646425185,
            "39": -0.0590684413629318,
            "40": 0.5689564019738321,
            "41": -0.43084512820626675,
            "42": -0.1059029591909391,
            "43": -0.007902648087350191,
            "44": 0.001038687337794602,
            "45": 0.22919734607768694,
            "46": -0.06637000171579764,
            "47": 0.7480763828071584,
            "48": -0.1741877002233364,
            "49": -0.11713982093252293,
            "50": 0.06395442791600386,
            "51": -0.13828958768348762,
            "52": 0.34327066793944827,
            "53": 0.032851721081211746,
            "54": -0.5711376550257907,
            "55": 0.07237878845169343,
            "56": -0.3146203096232206,
            "57": 0.212675058218846,
            "58": -0.1292063356756378,
            "59": 0.19756531228971225,
            "60": 0.28640129789113705,
            "61": -0.8417360468812694,
            "62": 0.2534230613630047,
            "63": 0.3026930427398998,
            "64": -0.19430862757747502,
            "65": 0.34324565442466304,
            "66": -0.18005684403171088,
            "67": -0.39409392484097266,
            "68": 0.28129958488081297,
            "69": 0.06394734457413385,
            "70": -0.062148789993742876,
            "71": 0.012207411575938349,
            "72": 0.21750238418185008,
            "73": -0.24569374529948101,
            "74": 0.41129937281794904
          }
        },
        {
          "sx": 5,
          "sy": 5,
          "depth": 3,
          "w": {
            "0": -0.18186544831699414,
            "1": 0.2339945315460675,
            "2": 0.015890714613096643,
            "3": 0.20336675174543992,
            "4": -0.344040584611863,
            "5": 0.20166563048408961,
            "6": 0.11204799322125769,
            "7": -0.45391864632330553,
            "8": 0.12449324928826072,
            "9": 0.35349656473673813,
            "10": -0.019743907312136617,
            "11": 0.05185284203071491,
            "12": -0.1945319078029307,
            "13": 0.10242252638560619,
            "14": 0.015987750912587237,
            "15": -0.1806662528639697,
            "16": 0.1312648163119125,
            "17": -0.20175327198757154,
            "18": 0.220670032227715,
            "19": -0.20437580229504676,
            "20": 0.43982304234978337,
            "21": -0.42563147073073637,
            "22": -0.7312113163468345,
            "23": -0.23786202255473732,
            "24": 0.5660660087415311,
            "25": 0.31694965368073624,
            "26": 0.34703189579188676,
            "27": -0.45043379080252316,
            "28": -0.17218294031258075,
            "29": -0.4057702821366018,
            "30": -0.2263108091687162,
            "31": 0.49439341057335984,
            "32": 0.046247555337731186,
            "33": 0.2332529707399325,
            "34": 0.2591088282646566,
            "35": 0.34063861358071024,
            "36": -0.7705516723030318,
            "37": -1.3939264792134312,
            "38": -0.6824945927089168,
            "39": 1.2426544253979044,
            "40": 1.1441091116923385,
            "41": 1.1446639540975874,
            "42": -0.47137759835312004,
            "43": -0.03086269419748919,
            "44": -0.6206249700105724,
            "45": 0.21712262851030054,
            "46": 0.3934866966017246,
            "47": -0.1300017010488879,
            "48": 0.03444792396394105,
            "49": 0.03894305588430977,
            "50": 0.46167639574217256,
            "51": -0.9069466065401929,
            "52": -1.4494297684523976,
            "53": -0.9029260715738087,
            "54": 1.5938215139124112,
            "55": 1.6108796984199627,
            "56": 1.0182440511674489,
            "57": -0.8593972869802011,
            "58": -0.3646728366508893,
            "59": -0.9080688482879954,
            "60": -0.2983291153990255,
            "61": 0.3451723782323531,
            "62": 0.21851814740858794,
            "63": 0.1218100811299575,
            "64": -0.09789127547875727,
            "65": 0.10288152303129988,
            "66": -0.5289871553897028,
            "67": -1.012694593854082,
            "68": -0.5103976275699217,
            "69": 0.9813047825975553,
            "70": 0.9701956634971963,
            "71": 0.7812796625610889,
            "72": -0.27340687348198184,
            "73": -0.23161049192789754,
            "74": -0.543781087057416
          }
        },
        {
          "sx": 5,
          "sy": 5,
          "depth": 3,
          "w": {
            "0": 0.412322159786933,
            "1": 0.3877188929289918,
            "2": -0.16215116185708403,
            "3": 0.39197834156753153,
            "4": 0.30344373322710466,
            "5": 0.13329501245185474,
            "6": 0.6431528922616931,
            "7": 0.6007639932170443,
            "8": 0.3876819226590047,
            "9": 0.2696219312846046,
            "10": -0.12905140125352593,
            "11": 0.03312514126283527,
            "12": 0.4365203354365289,
            "13": -0.023140400751379735,
            "14": -0.2309348265200376,
            "15": 0.22594386539630718,
            "16": -0.14740706781448784,
            "17": -0.15863793783468408,
            "18": -0.15668361826118934,
            "19": -0.06046460001441244,
            "20": 0.039872435850120826,
            "21": -0.21574671587893787,
            "22": 0.016948447567890147,
            "23": 0.3143290978825997,
            "24": -0.31878020322440187,
            "25": -0.035979488992646066,
            "26": 0.3323295603890207,
            "27": 0.19940245162257325,
            "28": 0.37067996894706484,
            "29": 0.27722994780015714,
            "30": -0.20503419636732126,
            "31": -0.5091662559866516,
            "32": -0.4686795459356685,
            "33": -0.48285828066906783,
            "34": -0.2933904344214931,
            "35": -0.3879488013274126,
            "36": -0.2839117540504788,
            "37": 0.10430891072215685,
            "38": 0.2464706620130694,
            "39": -1.0111147413959012,
            "40": -0.5484124066921715,
            "41": -0.02914698386534948,
            "42": -0.7268381691143946,
            "43": -0.2955135528499513,
            "44": 0.028072345610146637,
            "45": 0.26550988797737834,
            "46": 0.019949066436217543,
            "47": -0.17190003367294962,
            "48": -0.12420018216780651,
            "49": 0.01525608036977489,
            "50": 0.017197278340052136,
            "51": -0.06130049677465421,
            "52": 0.38063459858104776,
            "53": 0.5190776149574846,
            "54": -0.2850427018414574,
            "55": 0.2099880334300325,
            "56": 0.3380933971950886,
            "57": -0.08931919371582982,
            "58": -0.11849794686989996,
            "59": 0.013754906879386436,
            "60": 0.08553047412518891,
            "61": 0.038292673620715804,
            "62": -0.061082802589342046,
            "63": -0.04202547167641075,
            "64": -0.29433547429827445,
            "65": -0.2556964001092991,
            "66": 0.07177695429727714,
            "67": 0.1254477818981385,
            "68": 0.24291300846389038,
            "69": -0.19973659566223392,
            "70": -0.056960011402766846,
            "71": 0.11912971022519458,
            "72": -0.2945248599356726,
            "73": 0.13590592001823576,
            "74": 0.11276884266036573
          }
        },
        {
          "sx": 5,
          "sy": 5,
          "depth": 3,
          "w": {
            "0": 0.06466420250026916,
            "1": 0.013262366982656492,
            "2": 0.049266940419089925,
            "3": 0.00888909285149016,
            "4": 0.020938216903508743,
            "5": -0.07730000716608001,
            "6": 0.7366609817444569,
            "7": 0.478698378113123,
            "8": 0.36737431349441946,
            "9": -0.3299216500122613,
            "10": -0.003455947382631919,
            "11": -0.4999966887869156,
            "12": -0.6993338147798958,
            "13": 0.4760986313828684,
            "14": 0.09550038203289478,
            "15": -0.23948628814151326,
            "16": -0.39704896301182924,
            "17": -0.283026687547736,
            "18": -0.5002073869117502,
            "19": -0.9589834983410092,
            "20": -0.27351414599311297,
            "21": 0.06837868225745128,
            "22": -0.11337123692286978,
            "23": 0.19718323666176682,
            "24": 1.4637619937833752,
            "25": 1.4724100328606737,
            "26": 1.370199327655718,
            "27": -0.6170836778672537,
            "28": -0.4706649484757254,
            "29": -0.7704728519428183,
            "30": 0.5448001736032707,
            "31": 0.34803145167750177,
            "32": 0.21395556778105837,
            "33": 0.1178190044813825,
            "34": -0.025024001055964622,
            "35": 0.18079186334360056,
            "36": -1.9571121692003166,
            "37": -2.1676400722975657,
            "38": -1.4525874084827886,
            "39": 0.34912176447586923,
            "40": 0.07908431800600083,
            "41": 0.3474743967418369,
            "42": 0.8755685389449511,
            "43": 0.7783001066702321,
            "44": 0.6364987508305004,
            "45": -0.04977839175620415,
            "46": -0.04546992203209706,
            "47": -0.43082107151792115,
            "48": 1.0752761672797064,
            "49": 1.007975995876638,
            "50": 0.815018398594658,
            "51": 0.16243057741865022,
            "52": 0.14276529169539592,
            "53": 0.2067114480446594,
            "54": -1.213666272566663,
            "55": -1.2964983076615122,
            "56": -0.8862149206517911,
            "57": 0.21472711569113076,
            "58": -0.058106867018753096,
            "59": 0.28824234226989004,
            "60": -0.23603895111427242,
            "61": 0.1779573649372486,
            "62": 0.11434303347559956,
            "63": -0.14547518050195454,
            "64": -0.2833817857078656,
            "65": -0.5797165779500517,
            "66": 0.7356383852688777,
            "67": 0.7115744323401377,
            "68": 0.45912150146696595,
            "69": -0.12262491806091418,
            "70": -0.4352722574386288,
            "71": -0.06916289234814475,
            "72": 0.13364657982018613,
            "73": -0.29481522273167177,
            "74": -0.03131702480449612
          }
        },
        {
          "sx": 5,
          "sy": 5,
          "depth": 3,
          "w": {
            "0": -0.14845962541492547,
            "1": -0.04629366811842213,
            "2": -0.44658119079027425,
            "3": -0.44094309399993953,
            "4": -0.21184237662157232,
            "5": -0.48797206828163897,
            "6": -0.07715367126531812,
            "7": -0.026907615372456367,
            "8": -0.11012751574736311,
            "9": 0.13604549582091305,
            "10": 0.23278746502330763,
            "11": -0.023936114757839976,
            "12": 0.1566316462342445,
            "13": 0.13623019978049616,
            "14": -0.04698008503362925,
            "15": -0.26085920870077145,
            "16": -0.009173667994554487,
            "17": -0.31981868591174917,
            "18": -0.1312037007385229,
            "19": -0.1841267876559634,
            "20": -0.5460324503399672,
            "21": -0.15247457837051623,
            "22": -0.18676972654460292,
            "23": -0.19946211924661003,
            "24": 0.20973093092868508,
            "25": 0.10256998828125442,
            "26": 0.24958978964440534,
            "27": 0.20324725702731716,
            "28": 0.20650393734486794,
            "29": 0.1441829770043462,
            "30": 0.08873600051200262,
            "31": 0.082087228502844,
            "32": 0.14627834012693164,
            "33": 0.32438940604241023,
            "34": 0.26071986876078107,
            "35": 0.1869231598413705,
            "36": -0.003983595384953775,
            "37": -0.16093558834319835,
            "38": -0.1595484850339608,
            "39": -0.15475257505983644,
            "40": -0.5008042265358819,
            "41": -0.0019898494705124607,
            "42": -0.010032915141050085,
            "43": -0.01068786806315948,
            "44": 0.25016501315279943,
            "45": 0.29500073448062863,
            "46": 0.22201194764859333,
            "47": 0.26684417493759754,
            "48": 0.22185306666136406,
            "49": 0.2834953566788418,
            "50": 0.6026358669618758,
            "51": 0.37029520308069025,
            "52": 0.1928039185742811,
            "53": 0.46716194681414014,
            "54": -0.31863686183118123,
            "55": -0.49126622591969854,
            "56": -0.1739271960254025,
            "57": -0.47086901689132177,
            "58": -0.5786249440791935,
            "59": -0.1705000362389491,
            "60": 0.04914327149410919,
            "61": 0.1574821532847479,
            "62": 0.2566106897390721,
            "63": -0.06601491437965008,
            "64": -0.023109757561750936,
            "65": 0.3284450662608733,
            "66": -0.3898469516040088,
            "67": -0.30800300063033376,
            "68": 0.20125321524053508,
            "69": -0.4848733141872541,
            "70": -0.4760910332418846,
            "71": 0.4291162695301144,
            "72": -0.31062861962245636,
            "73": -0.2647543504515515,
            "74": 0.5949243851608824
          }
        },
        {
          "sx": 5,
          "sy": 5,
          "depth": 3,
          "w": {
            "0": 0.09295733797764917,
            "1": 0.35217422782389873,
            "2": -0.08770211218349028,
            "3": 0.312568404537216,
            "4": 0.4074666051349949,
            "5": 0.08382965779655012,
            "6": 0.11299155956307629,
            "7": 0.09969676501701011,
            "8": -0.10519386931243027,
            "9": -0.2910561747957784,
            "10": -0.4288962673856864,
            "11": -0.0810979720984684,
            "12": -0.14827767313997603,
            "13": -0.1529649157175479,
            "14": 0.05278182503589088,
            "15": 0.05045145124743528,
            "16": 0.019757317273500486,
            "17": -0.23830696912856908,
            "18": 0.08883977866974285,
            "19": 0.29633697834129263,
            "20": -0.037062138895837586,
            "21": 0.35480635162409574,
            "22": 0.2476092206221339,
            "23": 0.24064679406216416,
            "24": 0.003778740486414031,
            "25": -0.15567202119908022,
            "26": -0.11708712856620664,
            "27": -0.31340970413466673,
            "28": -0.4568044952939181,
            "29": 0.17661959294730553,
            "30": 0.20171834946591372,
            "31": 0.08702135430579,
            "32": -0.4785631100916723,
            "33": 0.13011264479448112,
            "34": -0.027338020972310223,
            "35": -0.13899346403966759,
            "36": 0.22475920928376844,
            "37": 0.16606756933311312,
            "38": 0.27134317242393624,
            "39": -0.06811398621189012,
            "40": -0.15383857877030946,
            "41": 0.3329402648174729,
            "42": -0.4763739759880927,
            "43": -0.5065060868743448,
            "44": 0.262030155082217,
            "45": 0.1590881723193169,
            "46": 0.20169110792745965,
            "47": -0.45508575188390915,
            "48": 0.22811003655725465,
            "49": 0.11444967195717534,
            "50": -0.3367949664251619,
            "51": 0.23713310534706972,
            "52": 0.10353600883853184,
            "53": -0.0860502530986855,
            "54": 0.01310396514406275,
            "55": 0.11236236090246228,
            "56": 0.5184943420307484,
            "57": -0.7319763796813075,
            "58": -0.37437060604541994,
            "59": 0.32276419383492416,
            "60": 0.15243540890975577,
            "61": 0.12020506875706236,
            "62": -0.47431440601540437,
            "63": 0.11245001893184045,
            "64": 0.05535309327704257,
            "65": -0.34792798603245234,
            "66": 0.2903147677632665,
            "67": 0.06588840871953583,
            "68": -0.09959766023931799,
            "69": -0.004110905889145571,
            "70": 0.18028614583548852,
            "71": 0.21931753864100145,
            "72": -0.5944992554141141,
            "73": -0.13846640547974087,
            "74": 0.5507414942650962
          }
        },
        {
          "sx": 5,
          "sy": 5,
          "depth": 3,
          "w": {
            "0": -0.06736707824277079,
            "1": 0.07116853611798746,
            "2": -0.40487791267742335,
            "3": -0.22498754155540282,
            "4": 0.020428339984609547,
            "5": -0.346912425262714,
            "6": -0.023352943387104495,
            "7": 0.12017745810839242,
            "8": -0.2770388239617134,
            "9": 0.8125964585295679,
            "10": -0.06056575021735997,
            "11": -0.44688246735411075,
            "12": 0.569082719771024,
            "13": 0.0012310759159668977,
            "14": -0.6071002943766893,
            "15": -0.20572861349998253,
            "16": 0.09734771362664557,
            "17": 0.33341271426260943,
            "18": -0.2988539445947992,
            "19": 0.46265069568732364,
            "20": 0.7193936402746371,
            "21": -0.129084117670843,
            "22": -0.1343702766158414,
            "23": 0.2519456025305876,
            "24": 0.27629166805664324,
            "25": 0.13531608941758827,
            "26": 0.18934910672861927,
            "27": 0.304213738118585,
            "28": 0.06069180093052639,
            "29": -0.4910554580008913,
            "30": -0.580197398551352,
            "31": 0.12417269177701513,
            "32": 0.2300298667885348,
            "33": -0.6518998928017813,
            "34": 0.1062698032923531,
            "35": 0.3498037106763174,
            "36": -0.9584515051877959,
            "37": 0.051428669189492786,
            "38": 0.5161102023069186,
            "39": -0.1793667542466259,
            "40": 0.18615940288071608,
            "41": 0.08887550398323227,
            "42": 0.3812447979526208,
            "43": 0.046420006526088554,
            "44": -0.2882737801334155,
            "45": -0.4824107580177095,
            "46": 0.11371576431574697,
            "47": -0.03785129712954133,
            "48": -0.5913014941908812,
            "49": 0.05934814727700281,
            "50": 0.7127395571854259,
            "51": -0.7196998618266925,
            "52": 0.0031286393298969495,
            "53": 0.2973963079901371,
            "54": -0.2752608383380801,
            "55": 0.026155844597577936,
            "56": 0.2535396610247198,
            "57": 0.1941370858645615,
            "58": 0.21923734554866522,
            "59": -0.24428621179633275,
            "60": 0.16797788882663114,
            "61": -0.08732109755980438,
            "62": 0.1908953679756435,
            "63": -0.48699919941944375,
            "64": -0.13727096617576612,
            "65": 0.5050091695395876,
            "66": -0.40867123666341815,
            "67": -0.41185615240271584,
            "68": 0.5796520768011907,
            "69": -0.14507244831416002,
            "70": -0.17032936695946596,
            "71": 0.1357283559996111,
            "72": 0.31659141262988616,
            "73": 0.055888079047098416,
            "74": -0.045158095165309074
          }
        },
        {
          "sx": 5,
          "sy": 5,
          "depth": 3,
          "w": {
            "0": -0.2762656433864791,
            "1": 0.02619066913167606,
            "2": 0.36183110650348493,
            "3": 0.08636541408675068,
            "4": -0.0543824128299997,
            "5": -0.3206214032117247,
            "6": 0.5505614518430179,
            "7": 0.17391135943849625,
            "8": -0.245718774533552,
            "9": 0.6887690193828733,
            "10": 0.09218259187142075,
            "11": -0.02279130283344916,
            "12": -0.021114996542230795,
            "13": -0.08681208985226081,
            "14": 0.18215915544846192,
            "15": -0.09516097690939447,
            "16": 0.09586904953056315,
            "17": -0.24837730973923605,
            "18": 0.3586498628080674,
            "19": -0.24657959068294885,
            "20": -0.6079521140292231,
            "21": 0.9091487249748342,
            "22": 0.4597175845383666,
            "23": -0.039665546474640656,
            "24": 0.07670808979655853,
            "25": -0.06571122265514176,
            "26": -0.0887561942474904,
            "27": -0.43253622233136785,
            "28": -0.13846656898436552,
            "29": -0.0023161928768734813,
            "30": 0.23214885599119167,
            "31": -0.5029880509313686,
            "32": -0.6538805083168006,
            "33": 0.916647093863388,
            "34": 0.2282535722556425,
            "35": 0.04495253364621914,
            "36": 0.7344387375995576,
            "37": 0.27485446268726504,
            "38": 0.29863271566144217,
            "39": -0.7564917941077126,
            "40": -0.834466820794783,
            "41": -0.299150781164507,
            "42": -0.2988390163256469,
            "43": -0.3266914342715664,
            "44": 0.3311262186061814,
            "45": 0.47013544284911385,
            "46": -0.14870521759023395,
            "47": -0.09151967051705338,
            "48": 0.513509077579102,
            "49": 0.42597583101655334,
            "50": 0.5775934556703108,
            "51": -0.6573488213625125,
            "52": -0.5265158104482989,
            "53": -0.31903178499594476,
            "54": -0.9291399576612677,
            "55": -0.7584202367838802,
            "56": -0.2202278069151725,
            "57": -0.04319443423119494,
            "58": 0.10785118706020962,
            "59": 0.5598066443520758,
            "60": 0.23127048446999376,
            "61": -0.06359812756599198,
            "62": -0.15459714155608328,
            "63": -0.2704709213613891,
            "64": -0.3425666453605979,
            "65": -0.07009309879582941,
            "66": -0.8886083748578606,
            "67": -0.19306906082077996,
            "68": -0.14292447388028437,
            "69": -0.008362688643095448,
            "70": 0.3282206910875744,
            "71": 0.6583529231446309,
            "72": -0.05351713180641414,
            "73": 0.2737904116889954,
            "74": 0.44344495031483516
          }
        },
        {
          "sx": 5,
          "sy": 5,
          "depth": 3,
          "w": {
            "0": 0.009211988512405253,
            "1": -0.0007839746779370614,
            "2": -0.06012068943112144,
            "3": -0.14342407469901555,
            "4": -0.21667943535523176,
            "5": -0.4007914647852577,
            "6": -0.8784685112203583,
            "7": -0.9046448808638221,
            "8": -1.2789872936811852,
            "9": 0.2587570462230998,
            "10": 0.2790094973744749,
            "11": -0.29026017619963645,
            "12": 0.3039789813109202,
            "13": -0.054072773885982285,
            "14": -0.011761735360069681,
            "15": -0.0453226774216043,
            "16": 0.11965706346667838,
            "17": 0.0069019866617528736,
            "18": -0.1657830079530195,
            "19": 0.17979286131237313,
            "20": -0.1915355318829662,
            "21": 0.9492692752669497,
            "22": 1.4229550215636095,
            "23": 1.087077723485567,
            "24": 0.932643748786472,
            "25": 1.2083000379827318,
            "26": 1.1782878205976388,
            "27": -0.37216852623199276,
            "28": -0.5121750890141956,
            "29": 0.00976729266636032,
            "30": -0.13399319176935012,
            "31": 0.299329374521051,
            "32": 0.04506464595384868,
            "33": 0.2161481968549903,
            "34": 0.5130989580180728,
            "35": 0.16101211464718007,
            "36": 0.2884214759997048,
            "37": 0.5281633336678903,
            "38": 0.49165944301680486,
            "39": -1.2402210434071592,
            "40": -1.1022132603145522,
            "41": -0.8132712202044152,
            "42": -0.2717469149743714,
            "43": -0.3974634772149773,
            "44": -0.047561882273231194,
            "45": 0.033440009853541425,
            "46": -0.10157198825945905,
            "47": -0.005955840797402801,
            "48": -0.10854757488949761,
            "49": -0.06078725811113595,
            "50": 0.044930749534273604,
            "51": -0.7626898453309108,
            "52": -0.8569926576966598,
            "53": -0.5071075486130795,
            "54": -0.18532102235591502,
            "55": -0.34360747041293604,
            "56": -0.10663535692672814,
            "57": 0.5401106625422387,
            "58": 0.36115063338606174,
            "59": 0.6398469273632881,
            "60": 0.1684978307834667,
            "61": 0.011345632066202864,
            "62": 0.019692212232789042,
            "63": 0.2552436981573202,
            "64": -0.0466538397772535,
            "65": -0.008869809547390889,
            "66": 0.154014814824917,
            "67": -0.21308614350464078,
            "68": 0.058585037021226805,
            "69": 0.42992288610140234,
            "70": 0.2728751699887371,
            "71": 0.286648242951179,
            "72": -0.061655634848509666,
            "73": -0.35745850099312715,
            "74": -0.2807454709173691
          }
        },
        {
          "sx": 5,
          "sy": 5,
          "depth": 3,
          "w": {
            "0": 0.12652057961369473,
            "1": 0.11110123869728744,
            "2": -0.06401237638189104,
            "3": -0.2759966984603499,
            "4": 0.0007703938991532744,
            "5": 0.3029467626036197,
            "6": -0.13001726235534802,
            "7": -0.17205608508556627,
            "8": 0.20910728473458953,
            "9": -0.04249589749845854,
            "10": 0.07287661581740144,
            "11": 0.22165968363650385,
            "12": 0.10085966369653779,
            "13": -0.06785241140160224,
            "14": 0.27176065549984224,
            "15": -0.2267906434331087,
            "16": -0.014215134261328607,
            "17": 0.28901630009665596,
            "18": -0.03389155800913523,
            "19": 0.11084709228275876,
            "20": 0.5576119345556849,
            "21": -0.5464465480962769,
            "22": 0.07433990285676224,
            "23": 0.25337650393089167,
            "24": -0.5069110581549248,
            "25": 0.013370689718366352,
            "26": 0.05196636953829508,
            "27": -0.17774860663723335,
            "28": -0.20929230742547517,
            "29": -0.171576456449463,
            "30": -0.3080198740371123,
            "31": 0.061163789771043676,
            "32": 0.3650600348115192,
            "33": -0.6849546798503738,
            "34": -0.3340074570963397,
            "35": -0.11642205588335054,
            "36": -0.8779763970091902,
            "37": -0.533234849803597,
            "38": -0.4062341919114648,
            "39": -0.43281027601103156,
            "40": -0.17496331532735482,
            "41": 0.19207248928017975,
            "42": 0.04889901702799824,
            "43": 0.09402564105232351,
            "44": -0.056834311843925005,
            "45": -0.2907537281334536,
            "46": -0.1835507869724239,
            "47": -0.05202121278899296,
            "48": -0.20080565626624808,
            "49": -0.1257310678432548,
            "50": -0.2808618505792971,
            "51": 0.20409106529474652,
            "52": 0.1668680439028267,
            "53": 0.2600218643615604,
            "54": 0.29716623454249597,
            "55": 0.39485279869369605,
            "56": 0.2895565255924897,
            "57": 0.3304553825332598,
            "58": 0.12603254541200276,
            "59": -0.24406607848517764,
            "60": 0.3782782760130388,
            "61": -0.12873908461871614,
            "62": -0.09365969615708529,
            "63": 0.9371148056640993,
            "64": 0.18146530846564063,
            "65": -0.2568036585787009,
            "66": 0.8695417898988316,
            "67": 0.33228847550002133,
            "68": -0.4261920172793116,
            "69": 0.703167340103341,
            "70": 0.10105925851298275,
            "71": -0.5153297760305555,
            "72": 0.6786797779054112,
            "73": -0.023128559980505423,
            "74": -0.3844260666833574
          }
        },
        {
          "sx": 5,
          "sy": 5,
          "depth": 3,
          "w": {
            "0": -0.5282777101207891,
            "1": -0.3649788163771872,
            "2": 0.24515346837097618,
            "3": -0.3198532213055531,
            "4": -0.6519214525818016,
            "5": 0.06973361863137807,
            "6": 0.4200135740372901,
            "7": -0.02132285080433401,
            "8": 0.5059676845357991,
            "9": 0.22791077742849275,
            "10": -0.40837941425562324,
            "11": -0.18473375721291233,
            "12": 0.1715765690869774,
            "13": -0.012631128374860714,
            "14": 0.05717482380124795,
            "15": 0.11323069921683324,
            "16": 0.19443786814466266,
            "17": 0.39729936168086155,
            "18": -0.41415391979269267,
            "19": -0.6853235578704061,
            "20": 0.021751884836296583,
            "21": 0.2464492802378039,
            "22": -0.062325894506066744,
            "23": -0.11541859979300913,
            "24": 0.6450266900839091,
            "25": 0.06370566583929033,
            "26": 0.4487437482596964,
            "27": 0.534893007366877,
            "28": 0.11110636757347392,
            "29": 0.17248078415099832,
            "30": 0.19883514127626975,
            "31": -0.16626998438026322,
            "32": 0.02537456275800938,
            "33": -0.2430949680010111,
            "34": -0.16060736066140194,
            "35": -0.3308179054843552,
            "36": -0.4151049230304373,
            "37": -0.5004188964152249,
            "38": -0.5679683007177886,
            "39": -0.21993924853903382,
            "40": -0.3516189651884844,
            "41": -0.3007600076913409,
            "42": -0.24033678435290773,
            "43": -0.6455652175663202,
            "44": -0.09935414566259905,
            "45": 0.08222870706117494,
            "46": 0.38250651698880644,
            "47": 0.1625859005523278,
            "48": 0.18596350812891066,
            "49": 0.038228930799382325,
            "50": -0.008103627584913922,
            "51": -0.037685423147484146,
            "52": -0.1567101941444252,
            "53": -0.32331335214858864,
            "54": -0.1859952728821118,
            "55": -0.26306093264771246,
            "56": -0.4490048383535316,
            "57": -0.2800898106517739,
            "58": -0.4498705079436426,
            "59": -0.20492900053954335,
            "60": 0.1781062923274292,
            "61": 0.18243295685741576,
            "62": -0.09661498715718055,
            "63": -0.033190176880752244,
            "64": 0.02393846922386132,
            "65": -0.09085927316303026,
            "66": -0.2748144265008097,
            "67": -0.05801521017346697,
            "68": -0.35758694649223133,
            "69": 0.1583145832844831,
            "70": -0.021706002482694598,
            "71": 0.19113679443239426,
            "72": 0.24983377508828325,
            "73": 0.023483077419038215,
            "74": -0.15223391830734784
          }
        },
        {
          "sx": 5,
          "sy": 5,
          "depth": 3,
          "w": {
            "0": -0.2823435486566595,
            "1": -0.05102798320533893,
            "2": 0.1266433808283225,
            "3": -0.4608407635560511,
            "4": -0.3225179526236271,
            "5": -0.2493011992559152,
            "6": -0.38126595726497026,
            "7": -0.17941951495054456,
            "8": -0.2889583725687002,
            "9": -0.01867482552678345,
            "10": 0.06256162141305498,
            "11": -0.22138364907811306,
            "12": -0.1375372606450187,
            "13": -0.035146453581807846,
            "14": 0.08403508680623632,
            "15": 0.45621715639418076,
            "16": 0.2575508884083776,
            "17": 0.4391295908847669,
            "18": 0.43513413378446275,
            "19": 0.35369238103197825,
            "20": 0.46076123137022656,
            "21": -0.37294893454740125,
            "22": -0.16454851583498195,
            "23": -0.3552905987628604,
            "24": -0.32708973556048226,
            "25": -0.33702112273190493,
            "26": -0.671595581126502,
            "27": -0.23008956101633357,
            "28": 0.028880096911843362,
            "29": -0.19805110466267337,
            "30": 0.29328751979190104,
            "31": -0.18553293845278165,
            "32": -0.013017091234296235,
            "33": 0.5161177225463651,
            "34": 0.4075333256157313,
            "35": 0.4274846773070895,
            "36": 0.5996550548731368,
            "37": 0.4009652185117976,
            "38": 0.30225484500626354,
            "39": 0.023130398224708047,
            "40": -0.152677229279981,
            "41": -0.35118375353724496,
            "42": 0.015623453331025534,
            "43": -0.12470374393124839,
            "44": -0.7234893057735204,
            "45": 0.07787422014340808,
            "46": -0.122045637884295,
            "47": -0.03998209058246628,
            "48": -0.10208307852644419,
            "49": 0.012453782548748665,
            "50": 0.012427894950252316,
            "51": 0.27273181889952697,
            "52": 0.0721886741317296,
            "53": 0.38485746143521093,
            "54": 0.46639056607847096,
            "55": 0.1564850087435072,
            "56": 0.3500965743081305,
            "57": 0.3941874569255009,
