-0.3345947563648224
4.744539737701416
-0.3474506735801697
0.2075057327747345
3.316577911376953
2.226144552230835
-0.2145254909992218
2.055119037628174
-0.360765665769577
-0.7174628973007202
-2.685391902923584
1.1443052291870117
0.02232585847377777
-0.11368851363658905
-0.16381925344467163
-0.19423332810401917
-0.32187098264694214
0.47153913974761963
-0.6318204998970032
-0.749598503112793
-0.03622899204492569
-0.5497173070907593
0.08828595280647278
-0.15516290068626404
0.036760300397872925
-0.2818986773490906
0.32801514863967896
0.16052620112895966
0.4262548089027405
-0.8176569938659668
0.7122840881347656
0.6555972099304199
-0.3226192891597748
0.4082745909690857
-0.2831994891166687
-0.5011658072471619
0.2141098976135254
0.24271829426288605
-0.0300200954079628
0.10289314389228821
0.28984886407852173
-0.5596507787704468
0.31769445538520813
0.8065203428268433
0.2340298891067505
0.052286576479673386
-0.03601710498332977
0.128145232796669
-0.1925683617591858
0.3215791583061218
-0.2176375687122345
0.1290934681892395
-0.6293140649795532
0.7608428597450256
-0.6946659684181213
-0.5281892418861389
0.5486901998519897
-0.6281639337539673
0.6273260712623596
0.6564238667488098
-0.2681471109390259
-0.15947088599205017
-0.08546992391347885
-0.14266417920589447
-0.29828107357025146
-0.33811721205711365
-0.38789987564086914
-0.5550944805145264
-0.08227455615997314
-0.08537431806325912
-0.10569445788860321
0.10288555920124054
-0.03314951807260513
-0.04736454039812088
0.03332559019327164
0.060613155364990234
-0.17588657140731812
-0.38004180788993835
-0.24593132734298706
-0.26861849427223206
-0.32040318846702576
-0.29637354612350464
-0.10071250051259995
-0.4279737174510956
0.8618992567062378
2.350722551345825
-1.3997926712036133