-1.279604196548462
 -1.7485414743423462
-0.6583670377731323
 -1.2830376625061035
-1.2097491025924683
-2.2084391117095947
-0.023659225553274155
 -0.2277287393808365
 -0.2571150064468384
 0.20359809696674347
 -0.2057265341281891
 -0.11293014138936996
 0.12089652568101883
 -0.12578275799751282
 0.20358259975910187
 0.17082050442695618
 -0.7555097937583923
 0.0960208997130394
 -0.17223230004310608
 -0.14407120645046234
 -0.4996558129787445
 -0.3280530273914337
 0.21584773063659668
 0.7776758074760437
 -0.04983469098806381
 -0.3249027729034424
 0.38929811120033264
 -0.2566377818584442
 0.3367709815502167
 0.33948400616645813
 0.2077588438987732
 0.9451584219932556
 -0.2276475727558136
 0.34509676694869995
 -0.5127109885215759
 0.2863221764564514
 0.42816704511642456
 0.7439466714859009
 0.35955876111984253
 -0.33139511942863464
 -0.14772900938987732
 -0.31558477878570557
 0.08852238953113556
 -0.2861035168170929
 0.5749396085739136
 -0.1333184689283371
 0.19731378555297852
 -1.096018671989441
 -0.679758608341217
 -0.44437068700790405
 0.5387189388275146
 0.26281237602233887
 0.20227958261966705
 0.06481446325778961
 0.4574606716632843
 0.38188406825065613
 -2.2513419389724731E-4
 0.3898490369319916
 0.2071150839328766
 -0.34901681542396545
 -0.8482946157455444
 0.2954203486442566
 -0.0792720839381218
 -0.23960424959659576
 0.5879426598548889
 -0.8015680909156799
 0.08569501340389252
 -0.4034315347671509
 -0.3877360224723816
 0.21121138334274292
 0.03587183356285095
 -0.04737690091133118
 0.05948368459939957
 -0.8612704277038574
 -0.14972394704818726
 -0.6807115077972412
 0.3171370029449463
 -0.5403168201446533
 0.07047636061906815
 -0.3508422374725342
 -0.2862480580806732
 0.011364597827196121
 -0.47212061285972595
 0.2781342566013336
 0.22879676520824432
 -0.9082038402557373
 0.0034690499305725098
 0.24082985520362854
 0.17486236989498138
 0.030760059133172035
 0.653533935546875
 0.2693265676498413
 -0.3779068887233734
 0.019887108355760574
 -0.40370646119117737
 0.8923708200454712
 0.21205973625183105
 -0.09612401574850082
 0.26238948106765747
 0.5012303590774536
 -0.28634244203567505
 0.7990128397941589
 0.4165487289428711
 0.2156108319759369
 0.2025606334209442
 -0.3946727216243744
 0.10392667353153229
 0.13325586915016174
 -0.2951743006706238
 0.4454742670059204
 -0.2375999391078949
 0.0557732954621315
 -0.09046759456396103
 0.024734023958444595
 -0.5912603735923767
 0.6791602373123169
 0.5014910697937012
 0.2945549488067627
 0.4064585566520691
 -0.1254444271326065
 0.44870591163635254
 0.4616817533969879
 -0.6207358241081238
 0.631821870803833
 0.47785162925720215
 -0.17512212693691254
 -0.23561905324459076
 -0.7737830877304077
 -0.8035448789596558
 0.4012199640274048
 0.18609574437141418
 -0.1610560119152069
 -0.27853691577911377
 -0.3284485340118408
 -0.6111958026885986
 -0.5531818866729736
 -0.2611714005470276
 -0.5643443465232849
 -0.32380449771881104
 0.065782830119133
 -0.5001569390296936
 -0.42213088274002075
 0.12613564729690552
 0.16087186336517334
 -0.004229577723890543
 -0.18201537430286407
 0.14927570521831512
 -0.3768725097179413
 -0.3131498396396637
 0.08455561101436615
 -0.1032397449016571
 0.5431451201438904
 0.6144941449165344
 -0.08188845962285995
 -0.05061550438404083
 0.0758701041340828
 0.897193431854248
 0.3386254906654358
 0.05999162420630455
 0.8485475182533264
 -0.23641863465309143
 0.7085356712341309
 -0.18314723670482635
 -0.5158663988113403
 0.6424502730369568
 0.0959869921207428
 -0.36586281657218933
 8.678502636030316E-4
 0.33462056517601013
 -0.37746453285217285
 -0.4490233361721039
 0.1523677408695221
 -0.4994094669818878
 -0.23576615750789642
 -0.7201021313667297
 -0.19329619407653809
 0.4722058176994324
 -0.3676817715167999
 -0.04086175933480263
 -0.06799609214067459
 -0.6857709288597107
 0.4122653901576996
 -0.47996222972869873
 -0.18665330111980438
 -0.6352423429489136
 -0.5723990201950073
 -0.4908807873725891
 -0.24393868446350098
 -1.097896695137024
 -1.0108271837234497
 0.2915556728839874
 -0.20851804316043854
 -0.41823211312294006
 -1.0765330791473389
 -1.0877068042755127
 -0.41381144523620605
 0.14439721405506134
 -0.03938001021742821
 -0.3699696362018585
 -0.6578369140625
 0.6556774973869324
 -0.3318158686161041
 0.20070669054985046
 -0.4060327410697937
 -0.36797162890434265
 -0.022496037185192108
 0.17705750465393066
 -0.11035110801458359
 0.5483744740486145
 0.12593001127243042
 -0.03210831061005592
 -0.0854962021112442
 0.3447074592113495
 0.30656081438064575
 0.5013644695281982
 -0.24837824702262878
 0.508224368095398
 -0.3906889259815216
 0.3743092715740204
 -0.7887967228889465
 -0.19405391812324524
 0.4241012930870056
 0.13254737854003906
 -0.009710945188999176
 -0.46723806858062744
 -0.39666125178337097
 -0.225289449095726
 -0.15221136808395386
 0.5464309453964233
 -0.14371179044246674
 -0.6225461363792419
 0.36852210760116577
 -0.8138776421546936
 -0.16918347775936127
 0.3783543109893799
 -0.0765276625752449
 -0.6174047589302063
 -0.09062883257865906
 0.055446431040763855
 -0.029949737712740898
 -0.7625973224639893
 -0.39929795265197754
 -0.5684266686439514
 -0.3017272353172302
 -0.14792375266551971
 -0.06332547217607498
 -0.6223698258399963
 0.033680833876132965
 -1.199793815612793
 -0.01713726297020912
 -0.39168021082878113
 -0.7471140027046204
 0.18096190690994263
 0.1501786708831787
 0.382416695356369
 -0.658414900302887
 -0.4050873816013336
 -0.5333367586135864
 -0.35512372851371765
 -0.11001446843147278
 0.24037933349609375
 -0.2111956924200058
 -0.20340940356254578
 -0.257066547870636
 -0.6573258638381958
 -0.2540567219257355
 -0.016400136053562164
 -0.025643281638622284
 -0.17391444742679596
 -0.5725288987159729
 0.2827727794647217
 0.21512120962142944
 -0.5146617293357849
 -0.7182176113128662
 -0.3404919505119324
 0.49499276280403137
 -0.10686951130628586
 -0.43328672647476196
 0.8139371871948242
 0.46578556299209595
 -0.3154362738132477
 0.028893113136291504
 0.7269369959831238
 0.4444161057472229
 -0.6224663853645325
 -0.6289772987365723
 0.14946885406970978
 -0.327804297208786
 0.37545546889305115
 -0.8879822492599487
 -0.742977499961853
 -0.2704356610774994
 -0.3247591257095337
 0.6308102011680603
 -0.24187114834785461
 0.5280668139457703
 -0.4174829423427582
 0.14220085740089417
 0.09127594530582428
 0.26553624868392944
 -0.5033212900161743
 -0.3410841226577759
 -0.5890660881996155
 -0.220284566283226
 0.25608307123184204
 0.37442535161972046
 0.009289022535085678
 -0.2785484790802002
 -0.1325124055147171
 -0.408913254737854
 -0.07245514541864395
 -0.12551312148571014
 -0.3760518431663513
 -0.15762218832969666
 0.43011274933815
 -0.20908378064632416
 0.30486705899238586
 0.07262247800827026
 -0.6281576156616211
 -0.25450870394706726
 0.9075722694396973
 -0.5576741695404053
 0.011531736701726913
 -0.5780539512634277
 0.038320932537317276
 -0.009460356086492538
 0.6631319522857666
 -1.0365163087844849
 -0.11197361350059509
 -0.12401767075061798
 -0.1123499944806099
 -0.3602139353752136
 0.6701889038085938
 -0.538273811340332
 0.3013778626918793
 0.2257414311170578
 -0.0966053232550621
 0.401425838470459
 0.20754817128181458
 0.2409568727016449
 -0.41922205686569214
 0.4878193140029907
 -0.278624564409256
 -0.38124728202819824
 -0.5278483033180237
 0.2935807704925537
 0.39477792382240295
 -0.4140087068080902
 4.8272497951984406E-4
 -0.27188044786453247
 -0.19311155378818512
 -0.3470378518104553
 -0.8032668232917786
 0.08278234302997589
 0.9255363941192627
 0.4502580761909485
 -0.7269538044929504
 0.2704025208950043
 0.4428000748157501
 -0.6509258151054382
 0.11437766253948212
 -0.0648350715637207
 -0.034520410001277924
 -0.3468116223812103
 -0.5597262382507324
 0.6185483336448669
 0.2911730408668518
 -0.16911287605762482
 -0.13773342967033386
 -0.08225560933351517
 -1.066336750984192
 -0.3819057047367096
 -0.030275443568825722
 0.23511527478694916
 0.2066732943058014
 0.25849226117134094
 0.07109378278255463
 -0.7623854875564575
 -0.41585445404052734
 -0.3590446710586548
 -0.14548949897289276
 -0.8175978660583496
 -0.0025491509586572647
 -0.16439224779605865
 0.19479306042194366
 -0.12903770804405212
 0.17361152172088623
 0.16625213623046875
 -0.31588342785835266
 0.5069243907928467
 0.2724297046661377
 0.130069762468338
 -0.29325324296951294
 -0.7539200782775879
 -0.6382920742034912
 0.0642915666103363
 0.059451013803482056
 -0.6118974089622498
 0.2584736943244934
 0.04531031474471092
 -0.03699833154678345
 -0.11440141499042511
 0.16087420284748077
 -0.03915146738290787
 -0.23263119161128998
 -0.34788787364959717
 -0.027283038944005966
 0.09518584609031677
 0.38168174028396606
 -0.04585019126534462
 -0.5963597893714905
 -0.403216153383255
 -0.20685258507728577
 0.018306870013475418
 -0.20718598365783691
 -0.34780389070510864
 -0.6581227779388428
 -0.3051425516605377
 0.13174359500408173
 0.27995821833610535
 0.1819530725479126
 -0.05155523866415024
 -0.28671514987945557
 -0.14309458434581757
 -0.35819941759109497
 -0.31209829449653625
 0.1440357267856598
 -0.3631613850593567
 -0.35206717252731323
 0.4522256553173065
 0.45999473333358765
 -0.1393992155790329
 0.021865829825401306
 -0.006972901523113251
 -0.27022475004196167
 -0.45460808277130127
 -0.10170304775238037
 0.18464261293411255
 -0.20825758576393127
 0.5206591486930847
 0.030276961624622345
 -0.801042377948761
 0.3648637533187866
 -0.3360152542591095
 -0.447195440530777
 -0.2780877947807312
 0.7544140219688416
 -0.5024374723434448
 0.062465786933898926
 -0.46791690587997437
 0.09191642701625824
 -0.17108605802059174
 0.5823707580566406
 -0.16192133724689484
 0.12372979521751404
 0.35244977474212646
 -0.49989646673202515
 -0.6402612924575806
 0.40306246280670166
 -0.3636607527732849
 -0.5198088884353638
 0.030373357236385345
 0.35595107078552246
 -0.1305094063282013
 -0.8405579924583435
 -0.22186286747455597
 -0.37662288546562195
 -0.1970899999141693
 -0.3740899860858917
 -0.894012451171875
 -0.6012164950370789
 -0.2903732359409332
 0.05354112386703491
 0.5092707276344299
 0.15397308766841888
 -0.12200941145420074
 -0.25491225719451904
 0.06465210020542145
 -0.06104553863406181
 -0.19003574550151825
 -0.01611814834177494
 -0.31290772557258606
 -0.9212772846221924
 0.16761593520641327
 -0.3049042224884033
 0.42005908489227295
 -0.39543020725250244
 0.04010132700204849
 -0.5018386840820312
 -0.31947991251945496
 0.28945010900497437
 -0.11380045115947723
 0.18377837538719177
 0.3431352376937866
 0.03703256696462631
 -0.34656476974487305
 -0.0915847197175026
 -0.034357696771621704
 0.2057390809059143
 -0.09710362553596497
 0.7770194411277771
 -0.41911590099334717
 -0.3742811381816864
 0.28827694058418274
 -0.1346767395734787
 0.09772418439388275
 0.700117290019989
 -0.6257946491241455
 -0.1261846125125885
 -0.5834961533546448
 0.3697229027748108
 -0.21282675862312317
 0.14849194884300232
 0.19047437608242035
 0.21246615052223206
 -0.025902893394231796
 0.37871432304382324
 -0.024944022297859192
 0.0679488331079483
 0.33823949098587036
 0.3214918375015259
 0.006397254765033722
 -0.27426594495773315
 -0.04630032181739807
 -0.5893334150314331
 0.8692402839660645
 -0.009343581274151802
 -0.08168505132198334
 0.38617250323295593
 0.33617648482322693
 -0.27235284447669983
 0.20089799165725708
 -0.2980841398239136
 -0.2069268673658371
 -0.5608574151992798
 0.1639835238456726
 -0.19650717079639435
 0.7476016283035278
 -0.020188424736261368
 -0.11029693484306335
 0.04977970942854881
 -0.3426051139831543
 -0.028937585651874542
 -0.5010698437690735
 0.3523171842098236
 -0.11638544499874115
 -0.033827681094408035
 0.8546373248100281
 0.25516971945762634
 -0.1208265945315361
 0.5317415595054626
 0.34245771169662476
 -0.38160258531570435
 0.5109732747077942
 0.0065726228058338165
 -0.015253990888595581
 0.5184569954872131
 -0.42191869020462036
 -0.45910969376564026
 -0.23191340267658234
 -0.06630197167396545
 0.31532567739486694
 -0.17160312831401825
 -0.2049686163663864
 -0.4402894079685211
 0.3408452570438385
 1.2714885473251343
 -0.04759397357702255
 -0.08130086958408356
 0.02897949516773224
 -0.21294377744197845
 -0.7148957252502441
 -0.22040602564811707
 0.3025716543197632
 -0.19412238895893097
 -0.3360622227191925
 -0.5208970308303833
 0.03962429612874985
 0.1429411768913269
 0.7221328616142273
 -0.033105846494436264
 -0.5421850681304932
 -0.006373956799507141
 0.102760910987854
 -0.5560107231140137
 0.3250824213027954
 0.38594308495521545
 -0.1809835284948349
 0.3608822226524353
 -0.28920426964759827
 -0.8752598762512207
 0.17748646438121796
 -0.47600582242012024
 -0.21402513980865479
 0.7006733417510986
 -0.31436505913734436
 -0.392442911863327
 0.646703839302063
 0.13338564336299896
 0.13068968057632446
 -0.17567242681980133
 0.321559876203537
 -0.6094217300415039
 -0.08209194242954254
 0.44370320439338684
 -0.10743269324302673
 -0.08489102125167847
 -0.03541414812207222
 -0.08698603510856628
 0.044855162501335144
 -0.05644999444484711
 0.034085243940353394
 0.0705869197845459
 0.059507351368665695
 -0.010713867843151093
 0.03283676877617836
 -0.017421061173081398
 0.0065509360283613205
 0.01836274564266205
 -0.014696001075208187
 0.016624324023723602
 -0.04885777831077576
 0.03939545154571533
 0.09331511706113815
 0.006907323375344276
 0.019740045070648193
 -0.01172824390232563
 -0.0785100907087326
 -0.0027395368088036776
 -0.02970786578953266
 -0.023375676944851875
 0.05159098654985428
 0.051325906068086624
 0.052071623504161835
 0.01022062636911869
 -0.06550206989049911
 -0.02398437261581421
 -0.059690263122320175
 0.06569500267505646
 0.07577890157699585
 -0.03903576359152794
 0.05349555239081383
 -0.026199692860245705
 0.014020099304616451
 0.04948063939809799
 -0.016462573781609535
 0.018006961792707443
 -0.06544853746891022
 -0.057210829108953476
 0.023163948208093643
 -0.029413899406790733
 0.07511577755212784
 0.013865122571587563
 0.05762234702706337
 0.04555036127567291
 -0.03063606470823288
 -0.09614942222833633
 0.0016944664530456066
 -0.07200658321380615
 -0.011345121078193188
 0.011744225397706032
 -0.0438045933842659
 -0.05609668046236038
 0.05490801855921745
 -0.020764116197824478
 -0.08787223696708679
 0.014252319931983948
 0.015180571936070919
 -0.06616722047328949
 -0.0010879195760935545
 -0.08950340747833252
 -0.02564110979437828
 0.05806087702512741
 0.03870956599712372
 0.04773249477148056
 -0.010969460010528564
 0.007241926621645689
 -0.024945251643657684
 -0.02339751087129116
 0.039837561547756195
 0.020367633551359177
 0.023798460140824318
 0.11253312230110168
 0.06776820123195648
 0.01879137009382248
 -0.015549756586551666
 -0.06697756797075272
 -0.06730251759290695
 0.057689979672431946
 -0.0709138885140419
 -0.09167049825191498
 -0.09107743948698044
 -0.053452275693416595
 -0.04315386340022087
 -0.0052046142518520355
 0.09560427069664001
 -0.04259727895259857
 0.019574303179979324
 -0.02233341708779335
 -0.03481425344944
 0.03555364906787872
 -0.06958941370248795
 -0.08646903932094574
 -0.13997837901115417
 -0.058360155671834946
 0.02447022683918476
 0.026799680665135384
 0.010312337428331375
 -0.025007233023643494
 -0.05785316973924637
 -0.030429165810346603
 -0.020759377628564835
 -0.02332387864589691
 -0.06923741102218628
 -0.051640383899211884
 0.08564771711826324
 0.027237404137849808
 0.10469728708267212
 0.026941929012537003
 -0.11770564317703247
 -0.0505867525935173
 -0.042780593037605286
 -0.037648990750312805
 -0.12050604075193405
 -0.11130446195602417
 -0.0252092182636261
 0.0894441157579422
 -0.06388729065656662
 -0.026603981852531433
 -0.05248235911130905
 0.030322857201099396
 -0.04830315709114075
 -0.01972254179418087
 -0.01768549345433712
 -0.006055531091988087
 -0.03750021383166313
 0.10145916044712067
 0.011649650521576405
 -0.0735650584101677
 -0.1204676479101181
 -0.14207246899604797
 -0.10108232498168945
 0.00914347730576992
 -0.03570401668548584
 -0.12391320616006851
 0.018802544102072716
 0.049587979912757874
 0.05947346240282059
 -0.014124971814453602
 -0.22754129767417908
 -0.10790595412254333
 -0.02621193788945675
 -0.026704613119363785
 -0.00290566124022007
 0.06978952139616013
 0.15497760474681854
 0.09486944228410721
 0.0075797392055392265
 -0.138578861951828
 -0.04662449285387993
 -0.08989421278238297
 -0.11367406696081161
 0.014810732565820217
 0.018961679190397263
 0.14675095677375793
 0.09137918055057526
 -0.0091102821752429
 -0.07301516830921173
 -0.215687096118927
 -0.18459069728851318
 -0.18735502660274506
 -0.049005601555109024
 -0.05724981799721718
 -0.0904715284705162
 -0.077764593064785
 -0.0627313181757927
 -0.17968550324440002
 -0.19817174971103668
 -0.05774703621864319
 -0.0024611232802271843
 0.1708189696073532
 0.13804399967193604
 0.021791493520140648
 -0.012614035978913307
 -0.08085744082927704
 -0.07247655838727951
 -0.17717482149600983
 -0.17263540625572205
 -0.062342483550310135
 -0.011503875255584717
 0.2184000164270401
 0.207716166973114
 0.03061375766992569
 -0.15782584249973297
 -0.13534961640834808
 -0.304901659488678
 -0.2809840738773346
 -0.08588582277297974
 0.12394443899393082
 0.1685957908630371
 -0.03352365642786026
 -0.1371544599533081
 -0.07917305827140808
 -0.11421652138233185
 -0.2817232310771942
 -0.1498173475265503
 -0.1554223746061325
 -0.09388822317123413
 -0.0526086688041687
 -0.10715515911579132
 -0.16821938753128052
 -0.17848028242588043
 0.050867483019828796
 -0.2808118760585785
 -0.09737909585237503
 -0.1158861294388771
 -0.05066733434796333
 -0.05590371415019035
 -0.07002664357423782
 -0.11613629013299942
 -0.03826476261019707
 0.056277040392160416
 -0.2343442440032959
 -0.15639613568782806
 -0.08568429201841354
 -0.02736162580549717
 -0.13622039556503296
 -0.08203693479299545
 0.06281019747257233
 0.04424518346786499
 0.01973288506269455
 -0.1664590686559677
 -0.1136113852262497
 -0.12315787374973297
 -0.13633562624454498
 -0.08387509733438492
 0.13623183965682983
 0.11641843616962433
 0.12242284417152405
 0.06919457018375397
 0.03349551558494568
 -0.11855098605155945
 -0.1376478523015976
 -0.08925114572048187
 0.09607989341020584
 0.1890205293893814
 0.17031975090503693
 0.05090237036347389
 0.06286048144102097
 0.04386289045214653
 -0.09178625047206879
 0.002995024435222149
 -0.016996102407574654
 -0.05388074368238449
 -0.022268380969762802
 -0.027476800605654716
 -0.04024577885866165
 -0.0813775509595871
 0.04145653545856476
 -0.0064119393937289715
 0.06421107053756714
 0.013153806328773499
 -0.14113622903823853
 -0.1291443556547165
 -0.0865526869893074
 -0.13884584605693817
 -0.18895591795444489
 0.11858826875686646
 0.08198146522045135
 -0.040749259293079376
 -0.07768803834915161
 -0.16407783329486847
 -0.04984889179468155
 -0.048232294619083405
 -0.1299450844526291
 -0.13660910725593567
 0.17948539555072784
 0.044608987867832184
 0.04447903111577034
 -0.06360096484422684
 -0.057066626846790314
 -0.13694408535957336
 -0.06430362164974213
 -0.06554204225540161
 -0.05307808518409729
 0.10147036612033844
 0.052474528551101685
 -0.0372091680765152
 -0.07090465724468231
 -0.13514964282512665
 -0.027386348694562912
 0.00295066274702549
 -0.03716022148728371
 -0.0396067351102829
 -0.012792771682143211
 0.04871688410639763
 -0.10371594876050949
 -0.041735466569662094
 -0.08872866630554199
 0.12014731764793396
 0.16797326505184174
 -0.06094346567988396
 -0.012391619384288788
 -0.12460047006607056
 0.002320815809071064
 -0.0431051142513752
 -0.0707617998123169
 0.1713327020406723
 0.19080083072185516
 0.03190389648079872
 -0.0660877451300621
 -0.062341973185539246
 -0.17539672553539276
 -0.06310097128152847
 -0.08032172173261642
 -0.02035636082291603
 0.22346727550029755
 0.17286467552185059
 -0.03208537772297859
 -0.09204580634832382
 -0.14151836931705475
 -0.2232460081577301
 -0.17190878093242645
 -0.10091623663902283
 -0.05253439396619797
 0.03963198885321617
 -0.021066417917609215
 0.06584753096103668
 -0.08794446289539337
 0.06723693013191223
 0.01452673226594925
 0.0424690842628479
 -0.002004239708185196
 -0.027756478637456894
 -0.036555688828229904
 -0.03879368305206299
 -0.08482552319765091
 -0.04062991961836815
 -0.04231656342744827
 0.016948288306593895
 -0.08594631403684616
 -0.0755106508731842
 -0.05710886791348457
 0.026020154356956482
 -0.03727902099490166
 -0.04487122595310211
 -0.03802686929702759
 -0.03870617598295212
 -0.13606752455234528
 -0.05302289128303528
 -0.05574865639209747
 0.01376081071794033
 -0.05063793435692787
 0.07822289317846298
 -0.0020660758018493652
 0.03727961704134941
 -0.10982605069875717
 -0.04220832884311676
 -0.07749369740486145
 -0.019302237778902054
 -0.009359294548630714
 0.13546839356422424
 0.09917482733726501
 0.0024131136015057564
 -0.013819434680044651
 0.010208183899521828
 -0.115607850253582
 -0.003233705647289753
 0.02633410505950451
 -0.03711824119091034
 0.08935611695051193
 0.11431179195642471
 0.014294966123998165
 0.00886299554258585
 -0.07449864596128464
 -0.03095156140625477
 -0.0020905989222228527
 -0.055866602808237076
 0.008505865931510925
 0.04910732060670853
 0.10486193746328354
 0.040320027619600296
 -0.06276562809944153
 -0.007135630119591951
 -0.00661098537966609
 -0.02557552419602871
 -0.09242042154073715
 -0.010067153722047806
 -0.07562672346830368
 0.008545270189642906
 -0.030347079038619995
 0.07802491635084152
 -0.020682318136096
 -0.02121649496257305
 0.032740503549575806
 -0.045410919934511185
 0.012892522849142551
 0.028614597395062447
 -0.06382590532302856
 -3.94290080294013E-4
 -0.09247511625289917
 -0.0026705290656536818
 -0.027915893122553825
 -0.012590888887643814
 -0.12513847649097443
 -0.0988735482096672
 0.0063742841593921185
 -0.06868233531713486
 0.0177760049700737
 -0.07219630479812622
 -0.029657108709216118
 0.05257891118526459
 0.025618258863687515
 -0.033544208854436874
 -0.05017192289233208
 -0.03523264825344086
 -0.010432800278067589
 -0.04156313091516495
 0.01584603451192379
 0.0023945344146341085
 -0.03262829780578613
 0.009563976898789406
 -0.08185295015573502
 0.03747064620256424
 0.031025173142552376
 0.07488077878952026
 -0.007257295306771994
 0.07903487235307693
 0.1233745738863945
 0.019931411370635033
 -0.015287000685930252
 0.032952602952718735
 -0.0446355827152729
 -0.043149691075086594
 -0.1365002542734146
 -0.009154004044830799
 -0.009765167720615864
 0.141990527510643
 0.035412389785051346
 -0.11502853780984879
 -0.056248199194669724
 -0.1007952094078064
 -0.04537608474493027
 -0.02066502347588539
 -0.02649662457406521
 -0.0983196571469307
 0.05077757686376572
 0.0929325595498085
 0.023747701197862625
 0.043131034821271896
 0.049258384853601456
 -0.04385591670870781
 -0.015454619191586971
 -0.005598010960966349
 0.012578343041241169
 -0.09336171299219131
 -0.022157633677124977
 0.025175059214234352
 0.0068442607298493385
 -0.02432125248014927
 -0.09984927624464035
 -0.06197197735309601
 -0.06610076874494553
 -0.07155309617519379
 -0.08478309214115143
 0.014624417759478092
 0.011337153613567352
 0.006030113901942968
 -0.01720327138900757
 0.03941027447581291
 -0.10208486020565033
 -0.09527470916509628
 0.04180852323770523
 0.03223185986280441
 0.06020618602633476
 -0.07375020533800125
 0.05990546569228172
 0.11038072407245636
 0.05741516500711441
 0.11711156368255615
 -0.05253179371356964
 0.020574109628796577
 -0.04377899691462517
 -0.011301588267087936
 -0.05587596073746681
 0.08442679792642593
 0.07268989086151123
 0.1505773365497589
 -0.01703675463795662
 -0.002323390915989876
 -0.0637395977973938
 -0.037478748708963394
 -0.07664497941732407
 -0.03694622591137886
 0.012950925156474113
 -0.012375852093100548
 0.02223137766122818
 -0.051369380205869675
 -0.055345214903354645
 -0.03331099823117256
 -0.09912533313035965
 0.0091639319434762
 -0.017640503123402596
 -0.03170042857527733
 0.02144947648048401
 -0.019955554977059364
 -0.05550972372293472
 -0.1356494426727295
 -0.08464095741510391
 -0.10991672426462173
 0.005417525768280029
 0.013891628012061119
 0.029492570087313652
 -0.031072627753019333
 -0.002779135713353753
 -0.03617336228489876
 -0.049709003418684006
 -0.03356301039457321
 -0.02031552419066429
 -0.1415606439113617
 -0.018915310502052307
 -0.02129911631345749
 0.04634103551506996
 0.0014288608217611909
 0.018889809027314186
 -0.060465164482593536
 0.10900123417377472
 -0.02000514045357704
 0.09591233730316162
 0.01723702996969223
 0.02091286890208721
 0.02329103648662567
 -0.0534726120531559
 0.01758406311273575
 -0.0828239768743515
 0.08008264750242233
 -0.019005335867404938
 -0.048989806324243546
 0.01711658388376236
 0.05835624411702156
 0.06031806021928787
 0.05983562767505646
 0.018196674063801765
 -0.002894727746024728
 -0.07558482885360718
 -0.06578844785690308
 0.033198632299900055
 -0.0758291482925415
 -0.058531008660793304
 0.04292120411992073
 0.014702037908136845
 -0.10745172202587128
 -0.059532418847084045
 0.05701629817485809
 -0.09276598691940308
 -0.04279937595129013
 0.033161062747240067
 -0.05226188898086548
 -0.056188084185123444
 -0.0609312430024147
 -0.08177008479833603
 0.03192247450351715
 -0.06827643513679504
 -0.04616094380617142
 0.025352701544761658
 -0.025662310421466827
 -0.06575684249401093
 0.010080154985189438
 0.028574742376804352
 -0.05578070506453514
 -0.01761389896273613
 0.09414275735616684
 0.05029866099357605
 0.009146531112492085
 -0.005535856354981661
 -0.06380843371152878
 -0.06949952989816666
 0.06971441954374313
 0.023670772090554237
 0.2286970615386963
 0.0911964401602745
 0.05562092363834381
 -0.06985098123550415
 -0.011494450271129608
 0.07066510617733002
 -0.007323861122131348
 -0.005825369153171778
 -0.017660174518823624
 0.08519519865512848
 0.11042946577072144
 -0.016601283103227615
 0.01131828036159277
 0.01674433797597885
 -0.009200261905789375
 0.008952184580266476
 0.013958854600787163
 -0.06944438815116882
 0.057932257652282715
 0.13693270087242126
 -0.07830614596605301
 -0.00884894747287035
 -0.0038399100303649902
 0.05608588457107544
 0.02037753537297249
 -0.09351017326116562
 0.009020745754241943
 0.14975644648075104
 0.06286328285932541
 -0.06308221817016602
 -0.037067487835884094
 0.0680730789899826
 -0.06123986840248108
 0.04707971215248108
 -0.0919058620929718
 0.06895624101161957
 -0.07584859430789948
 0.12018630653619766
 -0.21898077428340912
 -0.12709392607212067
 0.020607316866517067
 0.028552131727337837
 -0.006198681425303221
 0.06366772204637527
 0.002090549562126398
 0.08665229380130768
 0.057398729026317596
 -0.18091978132724762
 -0.0838942676782608
 0.011368189938366413
 0.0957244485616684
 0.03037673979997635
 -0.01143160741776228
 -0.007789527997374535
 -0.031044013798236847
 0.039380691945552826
 -0.006864510476589203
 -0.057888779789209366
 0.06896882504224777
 0.022051993757486343
 -0.030269797891378403
 0.010303307324647903
 0.020991209894418716
 -0.01013682410120964
 0.12795311212539673
 0.11178697645664215
 -0.0071065546944737434
 0.026230094954371452
 0.011175272986292839
 -0.0183541402220726
 -0.012802207842469215
 -0.1160217672586441
 -0.17515721917152405
 0.03563932701945305
 0.11342757940292358
 -0.044296689331531525
 -0.27175387740135193
 -0.22258733212947845
 -0.1442422866821289
 -0.02362161874771118
 -0.044344961643218994
 -0.006516711320728064
 -0.06110375374555588
 0.03182113915681839
 -0.23633307218551636
 -0.2356519103050232
 -0.2284635603427887
 -0.19120199978351593
 -0.060187291353940964
 -0.05796172469854355
 -0.05820827558636665
 -0.014690043404698372
 0.10504620522260666
 -0.2581627368927002
 -0.23561297357082367
 -0.16811953485012054
 -0.024182142689824104
 -0.05322909727692604
 -0.10396610200405121
 -0.09605006873607635
 0.03844595327973366
 0.02255401387810707
 -0.24026347696781158
 -0.11714615672826767
 -0.14373041689395905
 0.031704775989055634
 -0.025885485112667084
 -0.05234160274267197
 0.07056406140327454
 -0.01759614422917366
 -0.20176932215690613
 -0.19093982875347137
 -0.10852950066328049
 -0.09125173836946487
 -0.02906273491680622
 0.09688699245452881
 0.08002384006977081
 0.032191015779972076
 -0.17743177711963654
 -0.10919608175754547
 -0.2286767065525055
 -0.1767517775297165
 -0.09065087139606476
 0.0028234394267201424
 0.02534879557788372
 0.013725057244300842
 -0.13423971831798553
 -0.052365031093358994
 -0.08759530633687973
 -0.1880258470773697
 -0.21829503774642944
 4.847431555390358E-4
 0.052870672196149826
 0.027041273191571236
 -0.05628590285778046
 -0.15000753104686737
 -0.09804650396108627
 -0.06819504499435425
 -0.20119556784629822
 -0.023822983726859093
 0.05025988072156906
 0.004415452480316162
 -0.007719383109360933
 -0.10841497778892517
 -0.16989687085151672
 -0.07257352769374847
 0.005319029558449984
 -0.1477130651473999
 0.05625377222895622
 0.0930664911866188
 0.06939880549907684
 0.030744872987270355
 -0.2091461420059204
 -0.25829631090164185
 -0.15907958149909973
 -0.08753980696201324
 -0.28736910223960876
 -0.11304351687431335
 -0.03880476579070091
 0.01907823607325554
 0.015227154828608036
 0.022072605788707733
 -0.030546264722943306
 -0.046950563788414
 0.011649802327156067
 -0.2228190302848816
 -0.33618786931037903
 -0.0438590869307518
 0.06252114474773407
 0.0447128564119339
 0.026609724387526512
 -0.016485536471009254
 -0.025065261870622635
 0.024984214454889297
 -0.24364465475082397
 -0.29481881856918335
 0.1455652415752411
 0.20780155062675476
 0.06695853918790817
 -0.0713622197508812
 -0.056671857833862305
 0.03119964525103569
 0.01636364683508873
 -0.24893318116664886
 -0.2604522407054901
 0.14008894562721252
 0.07870429754257202
 0.03512267768383026
 -0.18265579640865326
 0.0121684018522501
 0.012152738869190216
 -0.1318802386522293
 -0.3545236885547638
 -0.004026837646961212
 0.20733438432216644
 0.028597038239240646
 -0.15037104487419128
 -0.2196943759918213
 -0.026607388630509377
 0.06086410954594612
 -0.06640473008155823
 -0.1444711536169052
 0.09237252175807953
 0.10804729908704758
 -0.0292949341237545
 -0.13193389773368835
 -0.15806251764297485
 0.03055415116250515
 -0.00462361890822649
 -0.04098289832472801
 0.018015185371041298
 0.053111687302589417
 0.08536498993635178
 0.007472073193639517
 -0.02999991551041603
 -0.16800382733345032
 -0.058547571301460266
 -0.02647315338253975
 0.0340045690536499
 0.12952664494514465
 0.03493758291006088
 0.08849756419658661
 -0.00174784567207098
 -0.17507776618003845
 -0.03660278022289276
 -0.016001490876078606
 -0.04352883622050285
 -0.023913687095046043
 0.0945778638124466
 0.007432578131556511
 -0.005470148287713528
 -0.06050838902592659
 -0.14828743040561676
 -0.18569059669971466
 -0.03816451132297516
 0.046476949006319046
 0.13541603088378906
 -0.00966426357626915
 0.05533282458782196
 0.043165016919374466
 0.09046893566846848
 -0.008661474101245403
 0.03376666083931923
 0.09991417080163956
 0.06745390594005585
 0.0058774747885763645
 0.012541052885353565
 -0.008367764763534069
 0.03524063155055046
 0.03656071797013283
 0.02344980463385582
 0.024013150483369827
 -0.021044457331299782
 0.042628176510334015
 0.07059455662965775
 0.05227501317858696
 0.13542568683624268
 0.03872222825884819
 0.08392734825611115
 -0.014847824349999428
 0.0529128760099411
 0.04164348170161247
 0.10661418735980988
 0.10081517696380615
 -0.06957042962312698
 -0.045304685831069946
 0.05346035584807396
 -0.007672230247408152
 0.010779441334307194
 -0.02032080851495266
 0.0047853803262114525
 0.13719697296619415
 -0.035439591854810715
 -0.10502534359693527
 -0.09709538519382477
 0.026363985612988472
 -0.03746204450726509
 -0.06809893995523453
 -0.028796467930078506
 0.05185924842953682
 0.0657520443201065
 -0.023569835349917412
 -0.1419382244348526
 -0.048053670674562454
 0.06006024032831192
 -0.06041605398058891
 0.03775159269571304
 -0.032530151307582855
 0.04323988035321236
 0.04524178057909012
 -0.051362644881010056
 -0.06404761970043182
 -0.0072319041937589645
 0.03322581201791763
 0.017575789242982864
 0.05216790363192558
 0.09663110971450806
 0.11116234213113785
 -0.03423622250556946
 -0.029899829998612404
 -0.07328086346387863
 -0.04705096036195755
 0.029951242730021477
 0.07768255472183228
 -0.010343046858906746
 0.07301127165555954
 0.013099394738674164
 -0.01891425997018814
 0.0781976506114006
 -0.022027868777513504
 -0.03568136319518089
 0.05404353141784668
 0.08284594118595123
 -0.060761041939258575
 -0.07016388326883316
 -0.03183075785636902
 -0.014291470870375633
 -0.1497955322265625
 -0.01620776765048504
 -0.02670074999332428
 -0.02969380095601082
 0.11656461656093597
 0.08663603663444519
 0.15573735535144806
 0.09981662034988403
 -0.08301811665296555
 -0.10874831676483154
 0.003450215794146061
 0.03060309775173664
 -0.08715758472681046
 -0.026497505605220795
 0.049012694507837296
 0.01460622064769268
 -0.00929227378219366
 -0.071958526968956
 -0.0292374100536108
 -0.04974450543522835
 -0.06529016047716141
 -0.10044322162866592
 -0.12771077454090118
 0.060265589505434036
 0.07108750939369202
 -0.054785192012786865
 -0.011876771226525307
 -0.03682854771614075
 -0.0718659833073616
 -0.054839178919792175
 -0.10959384590387344
 0.028506575152277946
 0.09864780306816101
 0.038652077317237854
 -0.007184198126196861
 0.025106273591518402
 0.03188145533204079
 0.0339059978723526
 -0.039361223578453064
 -0.04507619887590408
 0.012635302729904652
 0.023453956469893456
 -0.024006862193346024
 -0.004568010568618774
 -0.030100718140602112
 -0.038545724004507065
 -0.06407409906387329
 -0.11612605303525925
 0.09659067541360855
 0.07461637258529663
 0.002862186636775732
 -0.0882154032588005
 0.009068512357771397
 -0.05877682566642761
 -0.03695111721754074
 -0.12301552295684814
 -0.03994280844926834
 0.07239210605621338
 0.07168382406234741
 -0.028305107727646828
 -0.014002924785017967
 0.04802487790584564
 0.027328502386808395
 -0.061084918677806854
 -0.0875919982790947
 1.5050172805786133E-5
 0.09704622626304626
 -0.08524168282747269
 -0.06437709927558899
 0.018765203654766083
 0.06291692703962326
 0.039471641182899475
 -0.07665923982858658
 0.030037006363272667
 0.003554781200364232
 0.015520155429840088
 -0.1337752342224121
 -0.09649784862995148
 0.03951912745833397
 0.09770788252353668
 0.09624025970697403
 -0.06915715336799622
 0.03342343121767044
 0.024200668558478355
 7.680326234549284E-4
 -0.02899160236120224
 -0.003321364987641573
 -2.052683848887682E-4
 -0.010474584065377712
 0.07615438103675842
 0.009277353063225746
 -0.07255282998085022
 0.10980820655822754
 -0.05647001788020134
 -0.0530819445848465
 0.04337737336754799
 -0.05498272925615311
 -0.04317575693130493
 -0.07754364609718323
 -0.033794522285461426
 -0.0011032037436962128
 -0.002505624433979392
 -0.08637123554944992
 0.07691717147827148
 -0.06276731193065643
 0.014993324875831604
 0.0156492218375206
 -0.03147400543093681
 -0.07484985142946243
 0.031047938391566277
 -0.033664729446172714
 0.02109132520854473
 -0.07563187181949615
 -0.043618444353342056
 -0.007070649415254593
 -0.056945156306028366
 -0.0016561946831643581
 -0.05372104048728943
 0.033789247274398804
 0.0026814669836312532
 -0.06349926441907883
 -0.03305959329009056
 -0.004477119073271751
 0.020330730825662613
 0.056643709540367126
 0.05347459390759468
 -0.004750225227326155
 -0.04246973246335983
 -0.04750572890043259
 0.07451149076223373
 0.016509292647242546
 -0.059185709804296494
 -0.020094627514481544
 -0.05330681428313255
 0.028358133509755135
 -0.03217972815036774
 0.12098471075296402
 0.026088621467351913
 -0.08030499517917633
 0.03264201432466507
 0.027827775105834007
 -0.008224884048104286
 -0.020653199404478073
 0.07097537815570831
 0.09070050716400146
 -0.01694556325674057
 0.03184027969837189
 -0.04042226821184158
 -0.04845843091607094
 0.023835785686969757
 -0.03986132889986038
 -0.008622895926237106
 0.0807994157075882
 0.10150578618049622
 -0.044192299246788025
 0.006441432982683182
 -0.03304601460695267
 0.0214686319231987
 -0.056314971297979355
 -0.08421880751848221
 0.0831834226846695
 0.0410262867808342
 0.13244971632957458
 -0.030904382467269897
 0.030124017968773842
 -0.01190477516502142
 0.016617093235254288
 0.05382278934121132
 -0.06311728060245514
 0.06769981980323792
 -0.037162378430366516
 0.05084484815597534
 -0.06992858648300171
 0.006143403239548206
 0.06452268362045288
 -0.029199447482824326
 -0.06805770099163055
 -0.10282885283231735
 -0.05812996253371239
 -0.01868489757180214
 0.04943649098277092
 0.089459627866745
 0.061501387506723404
 0.013384806923568249
 0.021565940231084824
 -0.008253252133727074
 0.014206523075699806
 0.0035329435486346483
 0.018918465822935104
 -0.017171481624245644
 0.06996814906597137
 -0.015422197990119457
 0.11390573531389236
 0.01355087012052536
 0.05124115198850632
 -0.03900432586669922
 -0.06434346735477448
 0.03020606003701687
 -0.10435255616903305
 -0.0019587541464716196
 -0.09707354754209518
 -0.04594389349222183
 0.008931742049753666
 0.021506957709789276
 0.040032997727394104
 0.03639598935842514
 -0.046947628259658813
 -0.06431560218334198
 -0.11657314002513885
 -0.02828902192413807
 -0.018164340406656265
 0.07504196465015411
 0.12560102343559265
 0.07962130010128021
 0.1333250254392624
 0.017516084015369415
 -0.08148885518312454
 -0.06470433622598648
 -0.050524622201919556
 -0.045081958174705505
 0.019517937675118446
 0.050189632922410965
 0.037044376134872437
 0.07136447727680206
 -0.07554947584867477
 -0.02436867728829384
 0.01662379503250122
 -0.15895619988441467
 -0.01263928972184658
 -0.07520180940628052
 0.025172943249344826
 -0.06193087622523308
 -0.08949946612119675
 -0.007958775386214256
 -0.0712757408618927
 -0.06889217346906662
 -0.03969264402985573
 -0.025279834866523743
 0.024726910516619682
 6.644781678915024E-4
 -0.034475307911634445
 -0.008897818624973297
 0.010850791819393635
 0.13703693449497223
 0.136016383767128
 0.15086141228675842
 0.31036385893821716
 0.1870204210281372
 0.08955378085374832
 0.021032774820923805
 0.009787079878151417
 -0.11897961050271988
 -0.07239208370447159
 0.14609095454216003
 0.1879051774740219
 0.12967737019062042
 0.19869668781757355
 0.058181922882795334
 0.08489486575126648
 -0.03579668328166008
 -0.037514735013246536
 -0.11637551337480545
 0.15698572993278503
 0.08885321021080017
 0.013344865292310715
 0.1338907927274704
 -0.036034390330314636
 -0.0125387879088521
 -0.048141393810510635
 -0.11135539412498474
 -0.027077268809080124
 0.15851853787899017
 0.03529701381921768
 0.006292225793004036
 -0.010542096570134163
 -0.09678906202316284
 -0.029927300289273262
 -0.14923357963562012
 -0.030226849019527435
 -0.0025966791436076164
 -0.14994490146636963
 -0.18785305321216583
 -0.21415452659130096
 -0.10586468130350113
 -0.07831557840108871
 0.01891251653432846
 -3.6723422817885876E-4
 -0.029967665672302246
 0.02299833483994007
 -0.21945831179618835
 -0.16658025979995728
 -0.01632378064095974
 -0.07204631716012955
 -0.019249647855758667
 0.0949443131685257
 0.11069072782993317
 0.227684885263443
 0.21887370944023132
 -0.045740991830825806
 0.04538831487298012
 0.13181433081626892
 0.09027107059955597
 0.180970698595047
 0.20533517003059387
 0.13508637249469757
 0.15797202289104462
 0.15837179124355316
 0.097002774477005
 0.1338692605495453
 0.19434329867362976
 0.07573245465755463
 0.10700578987598419
 0.06835439801216125
 -0.006703947205096483
 0.1843445748090744
 0.17229343950748444
 0.16825442016124725
 0.07664049416780472
 0.12093253433704376
 0.0506308376789093
 -0.0386817529797554
 -0.04825746268033981
 -0.010532231070101261
 0.006278090178966522
 0.26648062467575073
 0.020194683223962784
 -0.032985758036375046
 0.06440553814172745
 0.002295695710927248
 -0.1213647723197937
 -0.08994843065738678
 0.018557026982307434
 0.023744026198983192
 0.01245027408003807
 -0.16357280313968658
 -0.0346653014421463
 -0.05826694145798683
 0.0211830772459507
 -0.06921178847551346
 -0.1426537185907364
 -0.0435183160007
 -0.006799580063670874
 0.1306181252002716
 -0.16928817331790924
 -0.18585114181041718
 -0.19115790724754333
 -0.08168692141771317
 -0.0835699513554573
 -0.10210263729095459
 -0.07217209041118622
 0.02194400504231453
 -0.01979283057153225
 -0.16809873282909393
 -0.16190771758556366
 -0.10992979258298874
 -0.004449230618774891
 0.03038085624575615
 0.00876949355006218
 -0.10960046947002411
 -0.032806895673274994
 -0.10768189281225204
 0.003930715378373861
 0.07236456125974655
 0.06005940958857536
 0.17626869678497314
 0.07055643945932388
 0.06329019367694855
 -0.03321848064661026
 -0.0577055886387825
 -0.05523983761668205
 0.12881700694561005
 0.1102883443236351
 0.07579439878463745
 0.041432108730077744
 0.08262285590171814
 -0.09605742245912552
 -0.06213773041963577
 -0.03686979413032532
 2.942261635325849E-4
 0.02527126669883728
 0.05534513294696808
 0.004947394598275423
 0.009704708121716976
 -0.025919310748577118
 -0.0333365835249424
 0.026893524453043938
 0.10418879985809326
 -0.06815990060567856
 -0.10159517824649811
 -0.05848684906959534
 -0.08194301277399063
 -0.05755290761590004
 -0.10532887279987335
 0.018037140369415283
 0.005022295750677586
 0.1525229662656784
 0.08365131914615631
 -0.06931542605161667
 -0.05131502076983452
 -0.13568216562271118
 -0.12281069904565811
 -0.14434289932250977
 -0.0910414457321167
 0.004936193581670523
 0.0960126742720604
 0.0794491246342659
 -0.030492262914776802
 -0.00788893923163414
 -0.04312553256750107
 -0.010226222686469555
 0.037729039788246155
 -0.02308654971420765
 -0.05199340358376503
 -0.03979251906275749
 0.04451442509889603
 0.010873708873987198
 -0.04248687997460365
 0.07372579723596573
 0.06322258710861206
 0.02228577621281147
 0.05295126140117645
 -0.06735309958457947
 -0.047412700951099396
 -0.06410659104585648
 0.026959959417581558
 0.050176799297332764
 0.061566513031721115
 0.050544802099466324
 0.055881012231111526
 -0.004950847011059523
 -0.05221513658761978
 0.005371983628720045
 -0.062232546508312225
 0.08143480867147446
 0.01874195784330368
 0.06373557448387146
 0.018995989114046097
 0.054503247141838074
 -0.007130360696464777
 0.05232430249452591
 -0.05713193491101265
 -0.020885774865746498
 0.040771227329969406
 -0.06413263082504272
 0.009654038585722446
 -0.005682631861418486
 0.002917507430538535
 -0.04397059231996536
 -2.0475219935178757E-4
 0.02518313191831112
 4.417433519847691E-4
 -0.11683077365159988
 0.051765333861112595
 -0.13274966180324554
 0.015906978398561478
 -0.031527359038591385
 0.045059286057949066
 -0.09480798989534378
 0.015142538584768772
 -0.023857219144701958
 -0.08010729402303696
 -0.0475708544254303
 -0.06039829179644585
 -0.04799274355173111
 0.03493047133088112
 -0.008799724280834198
 -0.002103920094668865
 -0.0015883897431194782
 0.04424618184566498
 -0.03296152502298355
 -0.01814952865242958
 0.07979084551334381
 -0.05887290835380554
 -0.026149461045861244
 0.03693034499883652
 0.016984684392809868
 -0.04261143133044243
 0.04544674977660179
 0.067975252866745
 -0.03238459676504135
 0.009446892887353897
 -0.07834574580192566
 -0.028374169021844864
 0.017587656155228615
 0.03934741020202637
 0.05151811242103577
 -0.026060260832309723
 0.004972987808287144
 0.013978919014334679
 0.021346932277083397
 -0.006933051627129316
 0.013110286556184292
 0.02663537859916687
 0.1078466922044754
 0.10382219403982162
 0.12832841277122498
 -0.029102973639965057
 0.0017528701573610306
 -0.04936741292476654
 -0.028215602040290833
 0.04109710827469826
 0.04177669808268547
 0.0015234476886689663
 0.06967023760080338
 0.051460180431604385
 -0.08733449131250381
 -0.05203405022621155
 -0.02884932979941368
 -0.07213036715984344
 0.058478884398937225
 -0.05670586973428726
 -0.027775736525654793
 0.0062982868403196335
 -0.011364913545548916
 0.029507920145988464
 -0.04907570406794548
 -0.08889608085155487
 0.0040437765419483185
 -0.038175586611032486
 0.020391320809721947
 -0.07046142220497131
 -0.041486628353595734
 -0.01611602120101452
 0.003254045033827424
 0.07665453106164932
 0.0037367823533713818
 0.009466755203902721
 -0.04953168332576752
 -0.12037200480699539
 -0.04526445269584656
 -0.034069206565618515
 -0.009706896729767323
 0.06812074780464172
 0.0618983656167984
 0.025129757821559906
 -0.06274576485157013
 0.010102717205882072
 0.0036785961128771305
 -0.028809471055865288
 -0.11017180979251862
 0.01332341693341732
 0.09726206958293915
 0.014404501765966415
 -0.018691981211304665
 0.02047223225235939
 -0.040369391441345215
 -0.010546223260462284
 0.004345917608588934
 0.04901007190346718
 0.11616890877485275
 -4.882507782895118E-4
 -0.11095444113016129
 -0.057583559304475784
 -0.013401779346168041
 -0.07119284570217133
 6.773032946512103E-4
 0.042544957250356674
 0.09763330221176147
 0.11452891677618027
 -0.04905074089765549
 -0.10168596357107162
 -0.043357089161872864
 -0.04070378839969635
 -0.044296763837337494
 -0.01291000284254551
 0.017281733453273773
 0.06786296516656876
 0.1145731657743454
 0.05206767097115517
 0.07141555100679398
 -0.006977068725973368
 -0.024892428889870644
 0.013330943882465363
 -0.045860979706048965
 0.05878438428044319
 -0.05247604846954346
 -0.05807206407189369
 -0.001468702219426632
 0.010847046039998531
 0.041803546249866486
 0.05406796559691429
 0.03113623335957527
 -0.009815393015742302
 -0.021280765533447266
 -0.06682178378105164
 -0.02040456421673298
 -0.06366197019815445
 -0.08149295300245285
 -0.03310789912939072
 0.04967407509684563
 -0.08403889834880829
 0.056232988834381104
 -0.08754905313253403
 -0.037434983998537064
 -0.0701080858707428
 0.007144440896809101
 0.023402757942676544
 -0.044252000749111176
 -0.031619369983673096
 -0.018289189785718918
 0.028879301622509956
 -0.08488631248474121
 -0.08231006562709808
 0.03237927705049515
 -0.10968899726867676
 0.04724885895848274
 0.04522117227315903
 0.007955805398523808
 0.020062102004885674
 -0.04357553645968437
 -0.04676809534430504
 0.011180827394127846
 -0.04065887629985809
 -0.02530987374484539
 0.039606936275959015
 -0.05707921087741852
 -0.005926202982664108
 -0.008629932999610901
 0.06679518520832062
 -0.0058425422757864
 -0.015715433284640312
 0.08960987627506256
 0.12938709557056427
 0.1664680689573288
 0.024553809314966202
 0.08909516781568527
 0.02456173300743103
 -0.0533464290201664
 0.007472682744264603
 0.028005316853523254
 0.0462120845913887
 -0.015206504613161087
 0.0913681834936142
 0.09189006686210632
 0.047678425908088684
 -8.789349813014269E-4
 0.004104548133909702
 -0.016062013804912567
 0.011100283823907375
 0.0214818324893713
 0.047377556562423706
 0.11242574453353882
 0.0912599042057991
 -0.018338603898882866
 -0.014554383233189583
 -0.010254526510834694
 -0.0024260119535028934
 -0.11215275526046753
 -0.013041428290307522
 0.036630239337682724
 -0.0011550216004252434
 0.043185338377952576
 -0.09614218771457672
 0.008941087871789932
 -0.10082085430622101
 -0.01606515422463417
 0.03576362133026123
 0.07893016934394836
 0.028455542400479317
 -0.009900752454996109
 0.019532451406121254
 0.007348664104938507
 -0.0550399124622345
 -0.02570177987217903
 -0.06290148198604584
 0.05143646150827408
 0.019182665273547173
 0.05265016853809357
 0.06073138117790222
 0.008873295970261097
 -0.08058981597423553
 0.0428939014673233
 -0.1349223107099533
 4.941287916153669E-4
 -0.08909791707992554
 -0.0277535542845726
 0.01869291625916958
 0.07101316750049591
 0.04191382974386215
 -0.01333399023860693
 -0.024002760648727417
 -0.12240536510944366
 0.03634001314640045
 -0.04654809460043907
 0.012782732024788857
 -0.031026678159832954
 0.06789987534284592
 0.09492771327495575
 -0.0159207284450531
 -0.01713365688920021
 0.05647674947977066
 -0.08885756134986877
 -0.16783714294433594
 -0.14002004265785217
 -0.10392843186855316
 0.09613000601530075
 0.09138195961713791
 0.036330439150333405
 -0.04505639150738716
 -0.08806416392326355
 -0.039310187101364136
 -0.07930687814950943
 -0.01684018224477768
 0.02750432677567005
 0.01561437826603651
 0.0661926120519638
 0.1588108241558075
 0.05514172837138176
 -0.07433311641216278
 -0.08538015931844711
 0.09570009261369705
 0.04276758059859276
 -0.005756937433034182
 0.03215639665722847
 0.0383075587451458
 0.04845581203699112
 -0.05726069584488869
 -0.06002054363489151
 -0.08066354691982269
 -0.041511163115501404
 -0.1221299022436142
 0.02108519710600376
 -0.034371089190244675
 -0.0020421044901013374
 0.02730567194521427
 0.05685536190867424
 0.0462334044277668
 -0.040599655359983444
 -0.052538979798555374
 -0.09345731884241104
 0.0746733695268631
 0.21352161467075348
 0.18581010401248932
 -0.010274818167090416
 -0.035496510565280914
 -0.0016373948892578483
 -0.11613938212394714
 -0.19902148842811584
 0.0038357325829565525
 0.15851446986198425
 0.12157899141311646
 0.04649104177951813
 -0.00787494145333767
 0.011712470091879368
 -0.06658315658569336
 -0.1279895007610321
 -0.10969512164592743
 0.019748501479625702
 0.2450401782989502
 0.14565332233905792
 0.03143459931015968
 0.04313284903764725
 -0.08476134389638901
 -0.06523072719573975
 -0.06621584296226501
 0.012352836318314075
 -0.0021352507174015045
 0.10427592694759369
 0.008236952126026154
 0.048146747052669525
 -0.09181556105613708
 -0.054542914032936096
 -0.009094838052988052
 -0.021016567945480347
 -0.0809415802359581
 -0.08461247384548187
 -0.16369247436523438
 -0.04682286083698273
 0.09009937942028046
 0.09107881784439087
 0.05206965655088425
 -0.03755105659365654
 0.03284597024321556
 -0.1447908729314804
 -0.044770583510398865
 -0.08425331860780716
 0.008590706624090672
 0.17590831220149994
 0.21917900443077087
 0.041704609990119934
 0.03850064426660538
 -0.13590438663959503
 -0.2925480902194977
 -0.01128978282213211
 -0.15066173672676086
 -0.08504898846149445
 -0.07787947356700897
 0.12986770272254944
 -0.19282686710357666
 -0.17555172741413116
 -0.17324557900428772
 -0.1309974491596222
 0.013217037543654442
 0.015799349173903465
 -0.13291975855827332
 -0.13941098749637604
 -0.05525519698858261
 0.1050449088215828
 0.10621876269578934
 0.016913311555981636
 0.056960735470056534
 0.03243188187479973
 0.02334296889603138
 -0.046782683581113815
 -0.019100269302725792
 0.13432970643043518
 0.10346512496471405
 0.08684562891721725
 0.02120039612054825
 -0.03228127956390381
 -0.14373181760311127
 0.06465385109186172
 0.11724770814180374
 0.05382047966122627
 0.041737150400877
 -0.028146788477897644
 0.04352596029639244
 0.07812488824129105
 0.018499206751585007
 0.07778804749250412
 0.003302197903394699
 -0.07172282040119171
 0.07500095665454865
 -0.08283361792564392
 0.012720825150609016
 -0.09447895735502243
 -0.0038710616063326597
 -0.05167653039097786
 0.02676769718527794
 -0.18486878275871277
 -0.08494050800800323
 -0.07983255386352539
 -0.03173263743519783
 -0.07468017190694809
 -0.12307984381914139
 -0.09283194690942764
 -0.03375690430402756
 0.015476012602448463
 -0.1656094491481781
 0.021209465339779854
 0.09917650371789932
 0.026489026844501495
 -0.008115667849779129
 -0.1431008279323578
 -0.14457689225673676
 -0.09765173494815826
 -0.015973996371030807
 -0.06621523201465607
 0.0197129063308239
 0.03923657163977623
 0.025141814723610878
 0.0219813771545887
 -0.048048052936792374
 -0.14682747423648834
 -0.0403602160513401
 0.05103561282157898
 -0.09695512801408768
 -0.09807009994983673
 -0.12879525125026703
 -0.13581925630569458
 -0.1276569962501526
 -0.09978588670492172
 -0.06850428134202957
 -0.013527645729482174
 0.1466466188430786
 -0.19469217956066132
 -0.10075897723436356
 -0.09480903297662735
 0.011741863563656807
 0.028721563518047333
 -0.006360430270433426
 -0.030551113188266754
 -0.007522741332650185
 0.12234590947628021
 0.026003405451774597
 0.03317445516586304
 0.12780866026878357
 0.07501967996358871
 0.05090590566396713
 -0.012695886194705963
 -0.016975782811641693
 -0.15912441909313202
 0.06410548090934753
 0.011336701922118664
 0.028552072122693062
 0.020368492230772972
 0.04695332050323486
 0.011488749645650387
 -0.02086617425084114
 0.013927605003118515
 -0.11779720336198807
 -6.959270103834569E-4
 0.024867190048098564
 5.90891984757036E-4
 0.03109206259250641
 -0.012175487354397774
 0.057616524398326874
 0.01934850588440895
 0.0031066108494997025
 0.05300221964716911
 -0.03154176473617554
 0.0035246568731963634
 -0.04723835363984108
 0.011215876787900925
 -0.04465727135539055
 0.04311469569802284
 -0.022556595504283905
 -0.048903681337833405
 -0.013692880049347878
 -0.0236790981143713
 0.03873724490404129
 0.017353009432554245
 0.005482430569827557
 0.03660876303911209
 0.029236620292067528
 -0.04178345948457718
 -0.12163875997066498
 0.01375293917953968
 0.026681670919060707
 -0.020054487511515617
 0.034454427659511566
 0.010405938141047955
 -5.422313697636127E-4
 0.06508879363536835
 -0.05022145435214043
 -0.0334046296775341
 -0.04318523406982422
 0.10388616472482681
 -0.038713764399290085
 0.053736306726932526
 -0.006695332005620003
 0.05298425629734993
 0.026942171156406403
 -0.03580072149634361
 -0.0428323894739151
 0.015773525461554527
 0.03162354975938797
 -0.057169847190380096
 0.02363305352628231
 0.11818505078554153
 0.19046086072921753
 0.011638784781098366
 -0.0457296259701252
 0.05315501615405083
 -0.028643351048231125
 -0.015574611723423004
 -0.17453476786613464
 0.0017839869251474738
 0.032508883625268936
 0.11538711935281754
 -6.912206299602985E-5
 -0.024822266772389412
 -0.05096685141324997
 0.07527570426464081
 -0.046384334564208984
 -0.0555013008415699
 -0.016786865890026093
 -0.06046140193939209
 -0.007998833432793617
 0.024805976077914238
 -0.04751599207520485
 0.0023849792778491974
 -0.004932499956339598
 0.06947410106658936
 -0.012876909226179123
 -0.014530044049024582
 -0.10516494512557983
 -0.0304829403758049
 0.10006623715162277
 -0.018536226823925972
 -0.013019036501646042
 -0.024584438651800156
 0.10545022785663605
 -0.007979203946888447
 -0.009419365786015987
 -0.07148513197898865
 0.03637920320034027
 0.02704261615872383
 0.02840518206357956
 0.06811903417110443
 -0.04081385210156441
 -0.04334608092904091
 -0.024062305688858032
 -0.03934941440820694
 -0.003394944593310356
 0.007309453561902046
 0.04060196876525879
 -0.016770940274000168
 -0.06797108799219131
 0.015866728499531746
 -0.02949814684689045
 -0.006952696014195681
 0.01572572998702526
 0.007603462785482407
 -0.10578150302171707
 -0.0071027847006917
 0.004065914545208216
 -3.854685928672552E-4
 -0.08263348042964935
 -0.05938607454299927
 -0.043935377150774
 -0.039714161306619644
 0.007806756068021059
 -0.053378213196992874
 0.028215669095516205
 -0.015015651471912861
 -0.03245902433991432
 -0.03441781923174858
 -0.11974412202835083
 0.03532453253865242
 -0.07407014816999435
 -0.18559056520462036
 -0.09126453101634979
 -0.07575437426567078
 -0.01764582470059395
 -0.08089814335107803
 -0.020901227369904518
 0.0028582075610756874
 -0.008651461452245712
 -0.04104897379875183
 -0.08519314229488373
 0.05197148025035858
 -0.047727037221193314
 0.05658696964383125
 0.047013118863105774
 0.11420359462499619
 0.003286434104666114
 0.10278081148862839
 0.15148764848709106
 -0.03598110005259514
 -0.013196127489209175
 -0.026613403111696243
 0.07051236182451248
 0.02104657143354416
 -0.012742660008370876
 0.08749513328075409
 0.03889750316739082
 0.13488242030143738
 0.09560766071081161
 0.0184177253395319
 -0.0076326048001646996
 -0.0770711600780487
 -0.04796985164284706
 -0.07937737554311752
 0.13727392256259918
 -0.014996789395809174
 0.040620386600494385
 -0.007224594708532095
 0.021849721670150757
 -0.0020960038527846336
 -0.03293805941939354
 -0.0850411131978035
 -0.0453529953956604
 0.04224523529410362
 0.020412743091583252
 -0.11192587018013
 -0.09297571331262589
 0.11754953116178513
 -0.035799846053123474
 -0.07248082756996155
 -0.07236276566982269
 -0.10653574764728546
 -0.07074898481369019
 -0.04981163889169693
 0.06581391394138336
 0.003802252933382988
 -0.029205644503235817
 -0.05770795792341232
 -0.19199547171592712
 -0.16935676336288452
 -0.1635565161705017
 -0.13842064142227173
 0.15391932427883148
 0.06111785024404526
 0.033095162361860275
 -0.04896300658583641
 -0.033644966781139374
 -0.01277915108948946
 -0.131018728017807
 4.782266914844513E-4
 -0.04479234665632248
 -0.04203663393855095
 0.027272874489426613
 0.05081016570329666
 0.11200301349163055
 0.0745810866355896
 0.01738990657031536
 0.004967174492776394
 -0.07104004919528961
 -0.09705454111099243
 0.06556925177574158
 0.06650446355342865
 -0.017213456332683563
 0.11641397327184677
 0.005968802142888308
 0.0059200916439294815
 -0.035909250378608704
 -0.03015885315835476
 -0.010020190849900246
 0.05855521559715271
 0.031607478857040405
 0.0328642912209034
 0.0605679415166378
 0.04053821042180061
 0.04652620851993561
 0.016117405146360397
 -0.02775409258902073
 0.04120124131441116
 -0.18937528133392334
 -0.11700518429279327
 0.04004945978522301
 -0.08355389535427094
 -0.0138943400233984
 0.07181669026613235
 0.03329983726143837
 -0.024536876007914543
 -0.0016631614416837692
 -0.052345458418130875
 -0.04122263565659523
 -0.03431098163127899
 0.011661998927593231
 -0.06633590906858444
 -0.02395462617278099
 -0.033059217035770416
 -0.1413310468196869
 -0.10658730566501617
 0.0659104436635971
 -0.024552293121814728
 -0.05501865968108177
 -0.04894910752773285
 -0.03229715675115585
 -0.1091921329498291
 -0.07242177426815033
 -0.012406242080032825
 0.013951648026704788
 0.02452421374619007
 0.11523731797933578
 0.04954391345381737
 0.07275408506393433
 0.09618920087814331
 0.09162497520446777
 -0.12205905467271805
 -0.11354020237922668
 -0.0511118620634079
 0.04471324011683464
 0.03733900561928749
 0.1763191968202591
 0.14844229817390442
 0.1458924561738968
 0.1234041228890419
 -0.1598721593618393
 -0.22775724530220032
 -0.1221928745508194
 0.04567465931177139
 0.007317360490560532
 0.16108083724975586
 -0.04583472013473511
 0.009067822247743607
 0.05223684012889862
 -0.1393170803785324
 -0.050818730145692825
 -0.05718807876110077
 -0.09546642005443573
 -0.045042213052511215
 -0.01633283495903015
 -0.053597599267959595
 -1.6547739505767822E-4
 0.05463503673672676
 0.04324789345264435
 0.043662574142217636
 0.004191994667053223
 -0.027282901108264923
 -0.03721955046057701
 -0.026807963848114014
 0.0049494411796331406
 0.021333392709493637
 0.046374399214982986
 0.04098430275917053
 -0.022307908162474632
 -0.014197342097759247
 -0.0131016094237566
 -0.013378065079450607
 -0.014159157872200012
 0.003917009569704533
 -0.06703357398509979
 -0.057995881885290146
 0.04449165612459183
 0.020610306411981583
 -0.0541582852602005
 0.05649009346961975
 -0.09201701730489731
 -0.06749099493026733
 -0.06156378611922264
 -0.1149517372250557
 0.03348581865429878
 0.042741406708955765
 0.03837423399090767
 0.0032918546348810196
 -0.013948984444141388
 0.0840679258108139
 -0.04379292204976082
 -0.20955251157283783
 -0.011742588132619858
 0.0013361722230911255
 0.0019424203783273697
 -0.035159219056367874
 -0.061982348561286926
 -0.02904493920505047
 -0.049520015716552734
 0.06630120426416397
 -0.04181196540594101
 -0.059122197329998016
 -0.16642984747886658
 -0.05240706726908684
 -0.14365582168102264
 -0.21425214409828186
 0.07664740830659866
 0.07456119358539581
 -0.05058513954281807
 0.002888930030167103
 -0.09527652710676193
 -0.22794046998023987
 -0.1070818305015564
 -0.19388428330421448
 -0.015543953515589237
 -0.11347619444131851
 -0.09778612852096558
 -0.020211556926369667
 -0.20989090204238892
 -0.21563290059566498
 -0.21224431693553925
 -0.06326570361852646
 -0.06728243082761765
 0.054789915680885315
 -0.19114281237125397
 -0.18955083191394806
 -0.21207939088344574
 -0.2662683129310608
 -0.21574850380420685
 -0.09438741207122803
 -0.0751473605632782
 -0.040241871029138565
 0.03891032189130783
 -0.16083097457885742
 -0.17135734856128693
 -0.14793166518211365
 -0.2758748531341553
 -0.1614760458469391
 -0.007586363237351179
 -0.014958474785089493
 -0.07456202059984207
 0.022840050980448723
 0.04207597300410271
 0.019996818155050278
 -0.045671992003917694
 -0.12546370923519135
 -0.042971957474946976
 0.10232390463352203
 0.04511408507823944
 -0.018246591091156006
 -0.009935627691447735
 0.15085577964782715
 0.06875772029161453
 0.08421419560909271
 0.027612527832388878
 -0.07986081391572952
 0.04572170227766037
 0.05932305008172989
 0.10299765318632126
 0.16866736114025116
 0.14247950911521912
 0.1508965790271759
 0.06510623544454575
 0.01861642301082611
 0.057375796139240265
 0.10106401145458221
 0.15071292221546173
 0.06321126222610474
 -0.05136018991470337
 0.15337176620960236
 0.005443379282951355
 0.014745421707630157
 0.10716257989406586
 0.024009814485907555
 -0.012859015725553036
 0.0066833822056651115
 -0.11150766909122467
 -0.18759340047836304
 -0.22591644525527954
 -0.11486999690532684
 -0.19667048752307892
 -0.05872364342212677
 -0.10772833228111267
 -0.12083607167005539
 -0.24190783500671387
 -0.45983976125717163
 -0.25724929571151733
 0.03737598657608032
 -0.04659886285662651
 -0.09525895118713379
 -0.12736022472381592
 0.04639516398310661
 0.1552562713623047
 0.11587206274271011
 0.13249418139457703
 -0.004625458270311356
 -0.0699319988489151
 -0.045061126351356506
 -0.1338348686695099
 -0.10101929306983948
 0.11973126232624054
 0.16321666538715363
 0.030960379168391228
 -0.04543904587626457
 -0.06832319498062134
 -0.05160700902342796
 -0.11431284993886948
 0.012125682085752487
 0.07931644469499588
 0.12573976814746857
 0.09204719215631485
 -0.01443412248045206
 -0.00893185194581747
 -0.08740557730197906
 0.02808188647031784
 0.02681725285947323
 -0.05454806983470917
 0.042238038033246994
 0.10702540725469589
 0.10350500792264938
 -0.026117678731679916
 -0.08638656884431839
 -0.042263880372047424
 0.041124969720840454
 0.09251166880130768
 -0.012515198439359665
 0.017564624547958374
 -0.01114436611533165
 0.08108876645565033
 -0.012379073537886143
 -0.05458180978894234
 -0.05818752199411392
 0.05087828263640404
 0.019613921642303467
 -0.014059416949748993
 -0.012671608477830887
 -0.044845059514045715
 0.08484615385532379
 0.02564300410449505
 -0.005285999272018671
 -0.07002462446689606
 -0.2259211540222168
 -0.10209351778030396
 -0.070418581366539
 -0.030117513611912727
 0.039227187633514404
 -0.030702512711286545
 -0.04777012765407562
 -0.24220293760299683
 -0.04853493720293045
 -0.19050933420658112
 -0.1852836310863495
 -0.16956883668899536
 -0.11144714057445526
 -0.06379487365484238
 -0.056603822857141495
 -0.35405272245407104
 -0.2274722009897232
 -0.10143574327230453
 -0.13665050268173218
 -0.13689932227134705
 -0.01395527645945549
 -0.08106744289398193
 0.21133074164390564
 -0.02811211720108986
 -0.3043660521507263
 -0.024541422724723816
 0.03666292876005173
 -0.058911390602588654
 -0.047145992517471313
 0.039376482367515564
 0.1553189754486084
 0.14416339993476868
 0.06878378987312317
 0.025153668597340584
 -0.07509929686784744
 -0.05456255376338959
 0.05636196583509445
 -0.013042030856013298
 0.02163439430296421
 0.0600065179169178
 0.11452602595090866
 0.08630719780921936
 0.07451552897691727
 0.012467831373214722
 0.005787976086139679
 0.051417164504528046
 -0.02101629227399826
 0.05837194249033928
 0.10115495324134827
 0.1450260430574417
 0.06422140449285507
 0.061382703483104706
 -0.06158551201224327
 0.024294709786772728
 0.05832118168473244
 0.053976912051439285
 -0.020394377410411835
 -0.05274166166782379
 0.029009079560637474
 -0.016189495101571083
 -0.02434065192937851
 -0.0666314885020256
 0.0200490839779377
 0.015309412032365799
 0.08151712268590927
 -0.09033676236867905
 -0.012097828090190887
 -0.01820770464837551
 -0.014964784495532513
 -0.022028837352991104
 0.050005313009023666
 -0.04449905827641487
 -0.01751748099923134
 0.010642467997968197
 -0.01928727887570858
 0.0459631122648716
 0.01440243236720562
 0.03318966180086136
 -0.10229042172431946
 0.0489511638879776
 -0.024672869592905045
 0.024330954998731613
 0.07928695529699326
 0.01661904901266098
 0.007511027157306671
 0.04524321109056473
 0.02162003330886364
 -0.03523842245340347
 0.06598355621099472
 0.02204422652721405
 0.1149868369102478
 0.08950549364089966
 0.03129676729440689
 0.07467383146286011
 0.11382957547903061
 0.06224362179636955
 0.05091140419244766
 -0.03347136825323105
 0.042976778000593185
 0.07134014368057251
 -0.016654985025525093
 0.01531057059764862
 0.007018744945526123
 0.13284459710121155
 -0.038979556411504745
 -0.04841768741607666
 0.0351724848151207
 0.03333194553852081
 0.07142476737499237
 0.1123916432261467
 0.01617424562573433
 -0.023565134033560753
 0.04789246618747711
 -0.004089437425136566
 -0.07121499627828598
 -0.020087702199816704
 0.03700646013021469
 0.04656606912612915
 0.04419270157814026
 0.14853894710540771
 -0.0011264048516750336
 -0.04133432358503342
 -0.27264904975891113
 -0.13091769814491272
 -0.16310976445674896
 -0.15608897805213928
 0.1350010484457016
 0.10853049159049988
 0.045026008039712906
 -0.011255313642323017
 -0.006872067227959633
 -0.03876069188117981
 -0.1904856562614441
 -0.15747442841529846
 -0.14221727848052979
 0.024469738826155663
 0.08216926455497742
 0.0356956422328949
 0.048748429864645004
 -0.0059179868549108505
 0.02527792938053608
 0.06036169081926346
 -0.055264879018068314
 -0.10134738683700562
 0.09131026268005371
 0.051255591213703156
 0.11052881181240082
 0.05636642128229141
 0.06252442300319672
 0.018983252346515656
 -0.011704521253705025
 -0.032242342829704285
 -0.0632953867316246
 0.003971767146140337
 0.0626368373632431
 0.05850076675415039
 0.004495697095990181
 0.005676452070474625
 0.15618473291397095
 0.061270926147699356
 0.042762674391269684
 0.08073446899652481
 -0.23333054780960083
 -0.23481805622577667
 -0.019238246604800224
 0.07796935737133026
 0.025010988116264343
 0.021938610821962357
 0.09043025225400925
 0.05163045972585678
 0.03354980796575546
 -0.06859488040208817
 -0.08596343547105789
 -0.030379487201571465
 -0.03752372786402702
 0.11202721297740936
 -0.025858251377940178
 -0.03226915001869202
 -0.06669355928897858
 -0.009543047286570072
 -0.08872217684984207
 -0.1224745661020279
 -0.15694426000118256
 -0.11430772393941879
 -0.1357458233833313
 -0.15967866778373718
 -0.04548075050115585
 0.007502641528844833
 0.009683715179562569
 0.04537790268659592
 0.055278319865465164
 -0.0046128276735544205
 -0.08035167306661606
 -0.03665298968553543
 -0.029106007888913155
 0.027226978912949562
 0.02944035455584526
 0.04362796992063522
 0.03438632935285568
 -0.0016679060645401478
 0.0054919482208788395
 -0.01513571385294199
 0.08331380784511566
 -0.015124619007110596
 -0.0444473996758461
 0.03285106644034386
 0.024721642956137657
 -0.047469623386859894
 -0.045434463769197464
 -0.037688713520765305
 0.034267935901880264
 0.017343349754810333
 -0.10833490639925003
 -0.01526019349694252
 -0.00491141714155674
 0.0011081529082730412
 -0.02893953211605549
 -0.05418737977743149
 -0.0052184006199240685
 -0.03707941249012947
 -0.0368591845035553
 0.018202483654022217
 0.1251692771911621
 -0.04700149968266487
 -0.023137196898460388
 0.10565140098333359
 -0.01133272610604763
 0.11584708094596863
 -0.06071848049759865
 -0.00953558087348938
 0.0205822866410017
 -0.059021372348070145
 0.10786136984825134
 -0.004040630534291267
 -0.01548585295677185
 0.004951493814587593
 -0.0685722753405571
 -0.006428244058042765
 -0.043310023844242096
 -0.013963816687464714
 0.046442121267318726
 7.008276879787445E-4
 0.06439188867807388
 -0.0016915906453505158
 0.02138749696314335
 -0.009356813505291939
 0.049583785235881805
 -0.028357185423374176
 -0.02057696133852005
 -0.005499119404703379
 0.021193142980337143
 -0.014641018584370613
 0.030851539224386215
 0.005077354144304991
 0.021102137863636017
 0.003989395685493946
 0.009164768271148205
 0.012098439037799835
 -0.09928503632545471
 0.032346270978450775
 -0.00804037507623434
 -0.06441967934370041
 -4.740075091831386E-4
 0.08433610200881958
 -0.0016247129533439875
 0.040875453501939774
 -0.01434885710477829
 -0.05474886670708656
 0.006626873277127743
 -0.05198463425040245
 -0.09269484132528305
 0.044911015778779984
 -0.0998714491724968
 0.10233377665281296
 -0.007092415355145931
 0.04567164555191994
 -0.062411271035671234
 -0.09073207527399063
 -0.07874417304992676
 0.10785418003797531
 -0.011602274142205715
 -0.029727134853601456
 -0.02904961071908474
 -0.04470420628786087
 0.05383487045764923
 -0.004396622069180012
 0.02737101912498474
 0.015950750559568405
 -0.024347689002752304
 0.02228064090013504
 0.012283100746572018
 -0.008559094741940498
 0.04113161191344261
 0.03917548432946205
 -0.03961529955267906
 0.03439993038773537
 -0.07252474129199982
 0.025569595396518707
 -0.015483847819268703
 -0.04250894486904144
 0.030493995174765587
 0.06722540408372879
 -0.008286239579319954
 0.09736239165067673
 -0.008045273832976818
 0.0016187394503504038
 -0.0544150248169899
 0.006705982610583305
 0.007896392606198788
 -0.023078100755810738
 -0.042505476623773575
 0.004347185138612986
 -0.043292880058288574
 0.01713128201663494
 0.050182051956653595
 0.04358569532632828
 -0.046194590628147125
 0.015222382731735706
 -0.0923362597823143
 -9.761510882526636E-4
 -0.058991171419620514
 0.04076330363750458
 -0.004302394576370716
 0.05408960208296776
 -0.028645051643252373
 -0.025242246687412262
 -0.0055617052130401134
 0.007166152819991112
 0.033466193825006485
 0.04706961661577225
 -0.008392825722694397
 0.006247515790164471
 0.125920370221138
 -0.07731818407773972
 0.008400971069931984
 -0.03335518762469292
 0.035699013620615005
 0.040801435708999634
 -0.05247430130839348
 -0.013041235506534576
 0.0011344430968165398
 -0.011692898347973824
 -0.0531267486512661
 -0.007020588032901287
 -0.043152522295713425
 -0.03652298450469971
 -0.013202913105487823
 0.10779120028018951
 0.004808071069419384
 0.04613114520907402
 0.03283947333693504
 -0.036284029483795166
 -0.12435231357812881
 -0.08055529743432999
 -0.08951316028833389
 0.009068053215742111
 0.11861734837293625
 0.10168176889419556
 0.005504988133907318
 0.08056377619504929
 -0.021590430289506912
 -0.06874465942382812
 -0.13576668500900269
 -0.08611945062875748
 0.13705527782440186
 0.14025692641735077
 0.10350284725427628
 0.17994891107082367
 0.08087339252233505
 -0.0465984083712101
 0.02580801211297512
 0.009834498167037964
 0.030269429087638855
 0.02592487446963787
 0.01763191632926464
 0.1794498860836029
 0.1468271017074585
 0.17924854159355164
 -0.07021993398666382
 -0.08770038187503815
 -0.04681745916604996
 -0.06905464082956314
 0.05451469123363495
 0.030578522011637688
 0.005272555630654097
 0.02764105424284935
 0.057674575597047806
 -0.011699547991156578
 0.07941511273384094
 0.09066000580787659
 0.04158170893788338
 -0.025233857333660126
 -0.002066685352474451
 -0.08579058200120926
 -0.0294463150203228
 -0.01906341314315796
 -0.024559713900089264
 0.04346466064453125
 0.017249805852770805
 -0.010487347841262817
 -0.011185492388904095
 0.018313849344849586
 -0.08716049045324326
 -0.06707058846950531
 -0.06615115702152252
 -0.10950528830289841
 0.026517467573285103
 -0.0370822437107563
 -0.03149862587451935
 0.0010024841176345944
 -0.05407675728201866
 -0.05556168407201767
 -0.09881744533777237
 -0.14383135735988617
 -0.03152577951550484
 -0.026522334665060043
 0.034776728600263596
 -0.0471213161945343
 -0.029834561049938202
 -0.017903055995702744
 -0.04497195780277252
 0.05420013517141342
 -0.041972510516643524
 0.09116803854703903
 0.011908628046512604
 0.05795330926775932
 0.06348143517971039
 -0.019450128078460693
 -0.017894981428980827
 -0.0017189315985888243
 0.026646938174962997
 -0.045266781002283096
 -0.04300128296017647
 0.028108024969697
 -0.002033374272286892
 -0.035200152546167374
 -0.08262648433446884
 0.07649863511323929
 0.03252284973859787
 0.012482425197958946
 -0.013134739361703396
 -0.0236300528049469
 0.029894327744841576
 -0.07231521606445312
 -0.056662801653146744
 -0.006886204704642296
 0.05349258705973625
 0.09641782939434052
 0.0833902359008789
 0.007573044393211603
 0.07006873190402985
 0.13739967346191406
 -0.015267327427864075
 -0.03125949576497078
 -0.0588054358959198
 0.017273763194680214
 0.01654505543410778
 -0.007494753692299128
 0.0536162331700325
 -0.004640892148017883
 0.006796959787607193
 -0.030748074874281883
 0.012346050702035427
 0.011182774789631367
 -0.057434700429439545
 0.01188685279339552
 0.052292972803115845
 -0.04328161105513573
 -0.029068101197481155
 -0.04146510362625122
 -0.11621469259262085
 -0.04069554805755615
 0.01022209320217371
 0.027370544150471687
 -0.04803869500756264
 0.07779388129711151
 -0.0050174277275800705
 0.029504939913749695
 -0.11241073906421661
 -0.07297039777040482
 0.005422948393970728
 -0.010232078842818737
 0.020385053008794785
 0.001640940667130053
 0.08841557055711746
 0.007100576534867287
 0.018307112157344818
 -0.0930301621556282
 -0.0990656167268753
 0.035673703998327255
 0.015537066385149956
 0.009122281335294247
 -0.05075039714574814
 -0.0051237428560853004
 -0.0224564578384161
 0.06735400855541229
 -0.00698267575353384
 -0.02404710091650486
 0.07049781084060669
 0.04311935603618622
 0.06043948978185654
 0.024727152660489082
 -0.1308569461107254
 -0.015067962929606438
 -0.026435259729623795
 0.10687199980020523
 0.014163742773234844
 -0.03114975430071354
 0.027277201414108276
 -0.09036536514759064
 0.055268436670303345
 0.03746773302555084
 0.062095776200294495
 -0.011502978391945362
 0.031449757516384125
 0.027885491028428078
 -0.10362553596496582
 -0.028824983164668083
 0.00805752445012331
 0.01969420723617077
 -0.031061554327607155
 -0.042679429054260254
 -0.027014130726456642
 -0.0031344254966825247
 -0.056625254452228546
 0.04182536527514458
 0.006155120208859444
 -0.03788341209292412
 -0.011647472158074379
 -0.020421186462044716
 0.04388698190450668
 -0.0607878640294075
 0.0259112399071455
 0.027549203485250473
 -0.03507457301020622
 0.06925413757562637
 -0.06571150571107864
 -0.0108796376734972
 0.023601986467838287
 -0.013123555108904839
 -0.017280740663409233
 -0.06918898224830627
 0.021211478859186172
 -0.059905946254730225
 0.0020642653107643127
 0.04275760054588318
 -0.046582840383052826
 0.025453200563788414
 0.00596077973023057
 -0.04955890402197838
 -0.040732674300670624
 -0.011459237895905972
 0.03882019966840744
 0.04099501669406891
 -0.04264329373836517
 -0.01769939437508583
 -0.055971093475818634
 0.06363954395055771
 0.028073197230696678
 -0.004075785633176565
 0.045122016221284866
 0.03797326609492302
 0.02295086719095707
 0.014971529133617878
 0.02036888524889946
 -0.04385589435696602
 0.0692426860332489
 -0.022171510383486748
 -0.02004861645400524
 -0.006569246761500835
 0.03992483764886856
 0.06966862082481384
 0.005749228410422802
 -6.819652626290917E-4
 -0.017764940857887268
 -0.05348227545619011
 -0.044465236365795135
 -0.05311194807291031
 0.001667084521614015
 0.04474963620305061
 -0.06011809781193733
 -0.05380656197667122
 -0.00627657026052475
 0.0019186529098078609
 0.02358398400247097
 -0.027015632018446922
 0.016319632530212402
 0.017610812559723854
 -0.07679413259029388
 0.060559771955013275
 -0.0020348879043012857
 -0.0628734901547432
 0.014883766882121563
 -0.01708674430847168
 0.04949662834405899
 -0.062579445540905
 -0.019092032685875893
 -0.0027731999289244413
 0.0687941312789917
 0.0013844186905771494
 0.006627283059060574
 -0.10076574236154556
 -0.06700824946165085
 -0.05546477064490318
 -0.040039241313934326
 -0.015564242377877235
 0.03760876506567001
 0.028527162969112396
 0.05597560107707977
 -0.005338611081242561
 -0.06150828301906586
 0.02134312503039837
 -0.05485236644744873
 0.028056101873517036
 0.009442929178476334
 -0.07672818750143051
 -0.01977386325597763
 -0.033587466925382614
 -0.05280224606394768
 0.01587846502661705
 0.0026415532920509577
 -0.046287767589092255
 0.018205588683485985
 0.020928313955664635
 -0.035104550421237946
 0.033249907195568085
 -3.0088983476161957E-4
 -0.013666434213519096
 -0.02991769090294838
 0.03248710557818413
 -0.01751006580889225
 0.03554032742977142
 -0.009262185543775558
 -0.02702823281288147
 0.016438161954283714
 0.06115686148405075
 0.022928431630134583
 0.06444596499204636
 0.09448489546775818
 -0.022010590881109238
 0.0801217183470726
 -0.03752134367823601
 0.05099751800298691
 0.0031673049088567495
 -0.03850218281149864
 0.11878649890422821
 0.07152128964662552
 -0.025661418214440346
 -0.11563768237829208
 -1.3075768947601318E-5
 -0.007219772320240736
 -0.1136319562792778
 0.0749160423874855
 0.020417701452970505
 0.07973221689462662
 0.060352783650159836
 0.02735546976327896
 0.059073109179735184
 0.0998108834028244
 0.05358720198273659
 0.04936394467949867
 0.04908831790089607
 0.04503659904003143
 0.028036555275321007
 -0.003450308460742235
 0.06463942676782608
 0.020978311076760292
 0.001572086475789547
 0.06117864325642586
 0.0667257308959961
 -0.014675203710794449
 -0.01376988273113966
 -0.020409176126122475
 0.006809021346271038
 0.03971336781978607
 0.0017054090276360512
 0.031325336545705795
 -0.02096499130129814
 -0.023284317925572395
 -0.09829110652208328
 -0.00932716391980648
 -0.060799919068813324
 -0.09727060049772263
 -0.0074576642364263535
 0.016378741711378098
 -0.012767108157277107
 -0.014048811979591846
 0.02671782486140728
 0.02153835818171501
 -0.06152304634451866
 -0.10955309122800827
 -0.06208375468850136
 -0.04336467385292053
 0.07185669243335724
 0.016868768259882927
 -0.04737558960914612
 0.04323142021894455
 -0.024233747273683548
 0.03255948796868324
 -0.009773347526788712
 -0.07567615061998367
 -0.06446169316768646
 -0.020510034635663033
 -0.008770783431828022
 0.009761517867445946
 -0.037460844963788986
 0.01588365063071251
 -0.018032142892479897
 0.04080454632639885
 0.03636828064918518
 0.010846838355064392
 0.01546839252114296
 0.02204289101064205
 -0.0101553313434124
 -0.13609136641025543
 0.06404328346252441
 0.05178745090961456
 -0.049916189163923264
 0.022713420912623405
 0.08250908553600311
 0.034565798938274384
 -0.04686768352985382
 -0.021693289279937744
 -0.003016881877556443
 0.03136468306183815
 0.0621722973883152
 0.028672022745013237
 0.013208827003836632
 -0.024197794497013092
 -0.0023044527042657137
 -0.05298304557800293
 0.07101831585168839
 0.09087875485420227
 0.07224398851394653
 -0.0016346127958968282
 0.0010669786715880036
 0.03591608628630638
 0.0035277034621685743
 0.05519156530499458
 -0.09118078649044037
 -0.11298169940710068
 0.11625632643699646
 0.027381740510463715
 0.05728548392653465
 0.05020882561802864
 -0.02992371656000614
 -0.08558548241853714
 -0.09744352102279663
 -0.021539775654673576
 -0.032822247594594955
 -0.09067529439926147
 -0.027691666036844254
 0.0841839537024498
 0.045360270887613297
 -0.15195687115192413
 -0.01633358933031559
 -0.028002634644508362
 0.1054353266954422
 5.77033031731844E-4
 0.10409010201692581
 0.11769173294305801
 0.09169889986515045
 0.13051477074623108
 -0.040438685566186905
 -0.154882550239563
 0.05719241872429848
 0.013357804156839848
 0.07308777421712875
 0.07256268709897995
 0.03480067476630211
 0.04298383370041847
 3.9570778608322144E-4
 -0.11164049804210663
 -0.2769520878791809
 -0.02933051437139511
 -0.02447417937219143
 0.007914863526821136
 0.05150744318962097
 0.007221267558634281
 0.015253270044922829
 -0.04291297867894173
 -0.00655113160610199
 -0.106993168592453
 -0.04361221566796303
 -0.04862425476312637
 0.053464408963918686
 -0.023335184901952744
 0.08675616979598999
 0.030492719262838364
 -0.004843788221478462
-0.08507132530212402
0.13502894341945648
-0.0023146048188209534
-0.041692428290843964
-0.04947660118341446
0.05694568529725075
0.03947171941399574
-0.1106405183672905
-0.07789970934391022
0.11712281405925751
0.2159426212310791
-0.06065065786242485
0.007771007716655731
-0.1926528364419937
-0.027686497196555138
-0.031446732580661774
0.030989786610007286
0.03452020138502121
0.07177378982305527
0.1766466498374939
0.056775033473968506
-0.046092450618743896
-0.05278897285461426
-0.034155555069446564
-0.13669364154338837
-0.04796292260289192
0.07227369397878647
0.14704400300979614
0.17390933632850647
-0.002856144681572914
-0.030436541885137558
0.009667117148637772
-0.029549166560173035
-0.031849514693021774
-0.0928141176700592
0.13222242891788483
-0.01325856614857912
0.08949334174394608
0.12444160878658295
0.06829787790775299
-0.01542889978736639
-0.18224844336509705
-0.16711577773094177
-0.04591627046465874
0.02340679243206978
0.0576680563390255
0.0294590312987566
-0.08562587201595306
-0.04245318844914436
0.009135480038821697
0.03305928036570549
0.070854052901268
0.10921667516231537
0.07132188975811005
0.2782911956310272
0.1746838092803955
-0.10914692282676697
-0.1147717759013176
-0.15608274936676025
-0.04073622450232506
-0.06978430598974228
-0.0060319965705275536
0.15446914732456207
0.13496069610118866
-0.19840815663337708
-0.18172378838062286
-0.18946081399917603
-0.012159867212176323
-0.09926405549049377
-0.1276739239692688
-0.061272598803043365
0.01594940572977066
-0.1389797329902649
-0.14375708997249603
-0.07280262559652328
-0.04556085914373398
-0.08363376557826996
-0.31053662300109863
-0.13263052701950073
0.058389436453580856
0.022329723462462425
-0.17774654924869537
-0.22918249666690826
-0.09381134063005447
-0.13826051354408264
-0.25138941407203674
-0.17284458875656128
-0.04467379301786423
0.13045112788677216
0.08255039900541306
-0.023541362956166267
-0.03248117119073868
-0.11488883942365646
-0.10084337741136551
-0.2566252648830414
-0.165383443236351
-0.08933118730783463
-0.01831986755132675
0.025098634883761406
-0.06654364615678787
-0.09403200447559357
0.04604358598589897
-0.07970821857452393
-0.11224891990423203
-0.21300093829631805
-0.11752301454544067
-0.049165260046720505
0.013577145524322987
-0.005219141952693462
0.10479661822319031
0.010255884379148483
0.040999796241521835
-0.04743974283337593
-0.1064976379275322
0.022648673504590988
0.08404754847288132
0.021757572889328003
0.09394669532775879
0.23055267333984375
-0.11316700279712677
0.14753100275993347
0.17995837330818176
0.15854878723621368
0.05633550509810448
0.015005284920334816
0.055940691381692886
0.09002939611673355
0.08590570092201233
0.14486005902290344
0.08249258995056152
0.0995926558971405
-0.00588175468146801
-0.033611319959163666
-0.2618020176887512
-0.280485063791275
0.026585709303617477
-0.07451532036066055
0.0991118848323822
0.06433633714914322
0.12815144658088684
0.06980941444635391
-0.06807173788547516
-0.18908610939979553
-0.12283424288034439
-0.17591550946235657
-0.18966613709926605
0.1548343002796173
0.05487379804253578
0.11089903861284256
0.11140657961368561
-0.0750911682844162
-0.05276133865118027
0.10402818769216537
0.20414279401302338
0.0012004132149741054
0.17041079699993134
0.1936565786600113
0.06164740398526192
-0.03435561805963516
0.09384600073099136
0.004765367601066828
0.06114858388900757
0.06778853386640549
0.0630161315202713
0.2383776754140854
0.07885731756687164
-0.050941791385412216
-0.09946636855602264
0.017894703894853592
0.11569702625274658
0.07255253195762634
-0.028180893510580063
0.059039317071437836
0.21308991312980652
0.016210567206144333
-0.04942415654659271
0.12211059778928757
0.048862189054489136
0.12246222048997879
0.06216995418071747
0.09902861714363098
0.09900190681219101
0.020250223577022552
0.03194206953048706
-0.020106241106987
0.03376588970422745
0.07268793880939484
0.04413637891411781
0.019301336258649826
-0.04947933554649353
0.04758840799331665
-0.1403316855430603
-0.13750697672367096
-0.2265678346157074
-0.15641511976718903
-0.025035174563527107
-0.016601121053099632
0.06018446758389473
-0.11777053028345108
-0.059957657009363174
-0.1691453456878662
-0.1703987717628479
-0.21177251636981964
-0.1534307897090912
-0.14121326804161072
-0.043218813836574554
-0.11319659650325775
-0.05839620158076286
-0.03207559511065483
0.03719927743077278
0.05967727303504944
0.0027998830191791058
-0.006183051038533449
0.004019611515104771
0.025363348424434662
0.009704852476716042
0.07883128523826599
-0.0474962554872036
0.05218517780303955
-0.040555570274591446
-0.06418176740407944
-0.055029015988111496
0.028995269909501076
-0.027887213975191116
0.022167686372995377
0.08527863025665283
0.01721535623073578
0.01037781871855259
-0.03094865381717682
-0.1042318269610405
0.0033168047666549683
0.05374043434858322
-0.05575549229979515
-0.06531976908445358
-0.002992544323205948
-0.12081073969602585
0.044493526220321655
-0.026972021907567978
-0.08836670964956284
-0.024864455685019493
-0.06776206940412521
-0.08099161833524704
-0.0321483351290226
-0.03539860621094704
-0.08388975262641907
-0.03667082637548447
-0.0834881141781807
-0.1279037445783615
-0.10272391140460968
0.036881934851408005
-0.027822578325867653
-0.06913632899522781
-0.02157251536846161
-0.1647629737854004
0.06234750524163246
0.05016632750630379
-0.027416395023465157
-0.09317333251237869
0.048564109951257706
0.042734723538160324
0.004850791301578283
-0.016013460233807564
-0.07862262427806854
-0.009463303722441196
-0.04727328568696976
-0.05105028301477432
-0.01667037419974804
0.05302306264638901
0.04694028198719025
-0.08559148013591766
-0.015411678701639175
0.0189486276358366
0.11302396655082703
0.03395260125398636
0.032603323459625244
-0.04633070528507233
0.04696163162589073
-0.03034128248691559
0.04518323019146919
0.03333985432982445
-0.0842861533164978
0.11763018369674683
0.12295601516962051
0.08096186071634293
0.0059723760932683945
0.0310323778539896
0.1203291192650795
0.0643528550863266
0.0616096630692482
7.196562364697456E-6
-0.026319898664951324
-0.08056626468896866
-0.01777387037873268
-0.061081718653440475
-0.010480634868144989
-0.021623726934194565
-0.01761234737932682
-0.020563220605254173
0.049986086785793304
-0.06688500195741653
0.023633694276213646
0.045317817479372025
0.015062281861901283
0.03534407541155815
-0.09383115917444229
-0.05168679356575012
-0.03896050900220871
-0.11353875696659088
-0.008214549161493778
0.016018560156226158
0.0393875427544117
0.030062329024076462
-0.14657457172870636
0.01881680265069008
-0.07172337919473648
-0.034579336643218994
-0.15179196000099182
0.012015638872981071
0.04634284973144531
0.09671349823474884
0.03214741125702858
0.004306016024202108
-0.013743605464696884
0.01613464578986168
-0.009809538722038269
0.03746751695871353
-0.023836717009544373
0.035211022943258286
0.025503605604171753
0.06548040360212326
-0.01917463168501854
-0.05151893198490143
0.11227209120988846
0.10270930826663971
0.01614345982670784
-0.04384158179163933
1.685053575783968E-4
0.007747217547148466
0.03902309387922287
0.02433822862803936
0.01333504356443882
0.0214771069586277
0.004903084598481655
0.0512591227889061
-0.0847584679722786
-0.035700153559446335
-0.06109489127993584
0.0255958940833807
0.10033901780843735
-0.09351851046085358
-0.03285645693540573
0.006403738632798195
-0.00425335206091404
-0.12742497026920319
-0.041093334555625916
-0.15913237631320953
0.0500238873064518
0.0452423058450222
0.0648922324180603
-0.008301515132188797
0.031569935381412506
-0.045965682715177536
-0.043311040848493576
0.0257396399974823
-0.10689175873994827
-0.015627821907401085
-0.058384958654642105
0.1713578999042511
0.08567162603139877
-4.6354252845048904E-5
0.007877396419644356
-0.012435294687747955
0.0169249027967453
0.05016382038593292
0.008672477677464485
-0.03663494437932968
-0.06005774810910225
-0.10988068580627441
-0.06921114027500153
-0.09191417694091797
0.08033568412065506
0.07665970176458359
0.03640011325478554
0.030010540038347244
0.06223094090819359
0.06286434084177017
0.06504976749420166
0.05402914807200432
-0.06243574619293213
0.013642534613609314
0.08456647396087646
-0.014446888118982315
-0.018870946019887924
0.15449199080467224
0.10589016228914261
0.1275128424167633
0.053450122475624084
-0.02203487418591976
0.045023445039987564
0.045542553067207336
0.10174401104450226
0.031724534928798676
-0.06423816084861755
0.08749128133058548
0.03781813010573387
-0.00508572394028306
-0.0037372796796262264
0.06566839665174484
-0.04835132136940956
0.04443764686584473
0.05871142819523811
-0.008314101956784725
0.06333069503307343
-0.08344949036836624
-0.0037386296316981316
-0.0064169252291321754
0.027845008298754692
0.05158291012048721
0.06626170873641968
-0.0844491720199585
0.009644710458815098
-7.947753183543682E-4
-0.024444324895739555
0.03497583046555519
0.017315266653895378
-0.03411335125565529
-0.10216539353132248
0.015798475593328476
7.458189502358437E-4
-0.029467174783349037
-0.02210795134305954
-0.013801567256450653
0.03252894803881645
0.022357698529958725
-0.019476592540740967
-0.058759450912475586
-0.01723019778728485
-0.013238705694675446
0.014602080918848515
-0.08080979436635971
-9.03851818293333E-4
-0.03833676502108574
-0.07752881944179535
-0.037854645401239395
-0.01465917844325304
-0.08471456915140152
-0.10527829825878143
-0.03241225704550743
-0.004132865462452173
-0.005493620876222849
-0.022387800738215446
-0.12601594626903534
0.07388302683830261
-0.005791157018393278
0.11427327245473862
-0.010084215551614761
0.12760202586650848
-0.039187584072351456
-0.0825519934296608
-0.13133086264133453
-0.012441322207450867
0.053572896867990494
0.08287129551172256
0.01552450843155384
-0.002880362793803215
-0.08612716197967529
-0.07585588097572327
-0.02066873013973236
-0.01574314944446087
0.1498454511165619
0.07087621092796326
0.0025076481979340315
-0.08503714948892593
0.03323902562260628
-0.01351975928992033
-0.01650076173245907
-0.03980272263288498
0.08001359552145004
0.1683841347694397
0.024413947016000748
-0.019192246720194817
-0.08843299001455307
-0.09999994188547134
-0.01752622425556183
-0.027517050504684448
-0.06213193014264107
0.026766899973154068
0.029823606833815575
-0.017745142802596092
0.12167470902204514
0.014906475320458412
0.08723799884319305
-0.07970870286226273
-0.09016421437263489
-0.0795954167842865
-0.05378749594092369
-0.08457232266664505
0.072768434882164
-0.05227469280362129
-0.09473490715026855
0.009543988853693008
-0.05776701867580414
-0.07810807973146439
0.00839979201555252
-0.06801806390285492
-0.16087891161441803
-0.05486224219202995
-0.0368368923664093
-0.07402877509593964
-0.1218448281288147
-0.004710765555500984
0.01615157723426819
0.05013420805335045
-0.025512106716632843
-0.09927253425121307
0.0431562140583992
-0.1031801775097847
0.06003808602690697
0.02680204063653946
0.07263355702161789
0.09213466942310333
0.04817269742488861
-0.08987253904342651
-0.10250379145145416
-0.01873145066201687
-0.021093426272273064
-0.029184073209762573
0.08582954853773117
0.07439305633306503
-0.057805292308330536
-0.15832598507404327
0.043999943882226944
0.0409051738679409
0.08040652424097061
-0.03449832648038864
-0.026321832090616226
-0.058703821152448654
-0.007030750159174204
-0.07535011321306229
-0.07814338058233261
-0.017628297209739685
0.020710622891783714
-0.007877262309193611
0.02846647799015045
-7.380850147455931E-4
-0.06047741323709488
-0.12062699347734451
-0.08708173781633377
-0.11670617759227753
0.03111746534705162
-0.08580339699983597
0.13045631349086761
0.22069135308265686
0.20401398837566376
-9.21100378036499E-4
0.024366313591599464
0.04395642131567001
-0.07371488958597183
-0.008409208618104458
-0.0947118028998375
0.14496323466300964
0.17714332044124603
0.15235701203346252
0.13126756250858307
0.07360390573740005
-0.007236247882246971
0.10781177878379822
-0.02710231952369213
0.009382875636219978
0.14042799174785614
0.10174107551574707
0.09457764029502869
0.07870177924633026
0.029336629435420036
0.021465079858899117
-9.206666145473719E-4
0.012752545066177845
-0.13695906102657318
0.010350399650633335
-0.02138550579547882
-0.07580721378326416
0.015859127044677734
0.05478232726454735
-0.14609360694885254
-0.006082502659410238
0.06171436980366707
0.10238875448703766
-0.037354931235313416
0.06305591762065887
-0.05369070917367935
-0.1010594591498375
-0.12751004099845886
-0.04354214668273926
0.1171763464808464
0.00452438835054636
-0.029281985014677048
0.03907571732997894
-0.1517370492219925
-0.1260967254638672
-0.017259793356060982
-0.05994277447462082
0.11506064236164093
0.01065303198993206
-0.0821407362818718
-0.09134446084499359
-0.2140272557735443
-0.1837463080883026
-0.0986010804772377
-0.09134526550769806
-0.08882179856300354
-0.10246916115283966
-0.08591695874929428
-0.18058538436889648
-0.12945641577243805
-0.14683979749679565
-0.023494316264986992
-0.07844846695661545
-0.11588409543037415
-0.13491497933864594
-0.021272357553243637
-0.16673041880130768
-0.024915916845202446
-0.009123768657445908
0.03912156820297241
-0.022106869146227837
-0.053459081798791885
0.11645489931106567
0.13621921837329865
0.10337097942829132
0.010181266814470291
0.027774382382631302
0.08185499161481857
0.05305077135562897
-0.037389133125543594
0.06829020380973816
0.022985171526670456
0.1393030285835266
0.1950938105583191
0.13793079555034637
0.0692925900220871
-0.027660401538014412
-0.16018067300319672
-0.06695439666509628
-0.10422763973474503
0.032448843121528625
0.027740316465497017
0.04292555898427963
0.041029155254364014
-0.0530085563659668
-0.09329584985971451
-0.13016752898693085
-0.013088414445519447
0.0381062775850296
0.10436734557151794
-0.04688344523310661
-0.09554142504930496
-0.14238958060741425
-0.06857586652040482
0.004507603123784065
-0.05965792387723923
-0.04038451239466667
0.12864148616790771
0.12761878967285156
-0.11021943390369415
-0.08775364607572556
-0.05091166868805885
-0.026924749836325645
-0.0639607235789299
-0.07927682250738144
0.15175223350524902
0.11614353209733963
0.034339968115091324
0.14827477931976318
-0.07502544671297073
-0.10617250949144363
-0.0552532896399498
0.008645908907055855
-0.13317056000232697
0.06764910370111465
0.03838648647069931
0.04208856821060181
-0.10029713809490204
-0.05037015676498413
-0.05543471872806549
-0.10537327080965042
-0.0595380961894989
0.09436151385307312
0.25829893350601196
0.03537513315677643
-0.0058492207899689674
-0.026101604104042053
0.053127530962228775
-0.007004063576459885
0.026571858674287796
-0.014533000066876411
0.07357314974069595
-0.1133289709687233
-0.012496711686253548
0.021826237440109253
0.0439140759408474
0.004390162415802479
-0.049953483045101166
-0.09088052809238434
0.036148734390735626
-0.01821369118988514
-0.026747876778244972
0.0010930089047178626
-0.034776151180267334
0.04435788094997406
0.014082045294344425
-0.049390558153390884
0.029304439201951027
0.019262541085481644
-0.024633819237351418
-0.054803844541311264
-0.029443832114338875
0.02323988452553749
0.039812617003917694
-0.018075337633490562
0.006382533814758062
-0.04042219743132591
0.057058803737163544
0.0756516084074974
0.015823306515812874
0.14472198486328125
0.05317245423793793
0.009994909167289734
0.03877038508653641
-0.08786655962467194
0.020340189337730408
0.019922131672501564
0.05969742313027382
0.017759231850504875
0.09130609035491943
0.09540529549121857
0.039006780833005905
0.007355805486440659
-0.005098534747958183
0.020391037687659264
0.1116073876619339
0.05203854665160179
-0.0053739286959171295
0.04101717099547386
-0.08273505419492722
-0.02101949229836464
0.009591324254870415
-0.0014197726268321276
-0.04530739784240723
0.04005933925509453
0.030235711485147476
-0.031437136232852936
-0.01059061661362648
0.03207637369632721
-0.08654164522886276
0.031845904886722565
-0.0034835750702768564
0.024794232100248337
-0.03162393346428871
0.04890943691134453
-0.08750928193330765
0.03530319780111313
0.04584144428372383
-0.11960301548242569
0.037506427615880966
0.056353673338890076
0.10440696775913239
0.00979094672948122
-0.11286469548940659
-0.06893213093280792
-0.09968673437833786
-0.09007009118795395
-0.05798181891441345
-0.02839164063334465
0.06608965247869492
-0.06788785010576248
0.047559723258018494
0.05035405606031418
0.13863874971866608
0.04606667906045914
-0.021088648587465286
-0.09023184329271317
0.023712901398539543
-0.06271635740995407
-0.1278611123561859
-0.06993437558412552
0.07227177172899246
0.003987563773989677
-0.029815252870321274
-0.009477557614445686
-0.01122385822236538
0.03826269134879112
0.08177521824836731
-0.025344237685203552
-0.008929169736802578
0.08572238683700562
0.0049251895397901535
-0.0929957702755928
0.02525915578007698
-0.04371261969208717
0.024356987327337265
0.12468945980072021
0.0709521472454071
-0.008125176653265953
1.3773213140666485E-4
-0.03869511932134628
0.02228524163365364
-0.007358661852777004
0.0666990727186203
0.059204425662755966
0.06344352662563324
0.11560455709695816
0.07281365245580673
-0.06630662083625793
-0.08850772678852081
-0.04813435673713684
0.007757039740681648
-0.05134068429470062
0.019573776051402092
-0.028963977470993996
0.09174935519695282
-0.019453005865216255
-0.06299781799316406
0.006944453809410334
-0.09345275163650513
-0.11311683058738708
-0.08423271775245667
-0.16706547141075134
0.03351354971528053
-0.05899839475750923
0.04194105789065361
0.014035039581358433
-0.02603250741958618
-0.06733287125825882
-0.08597472310066223
0.0132085420191288
-0.05794459953904152
-0.020298313349485397
-0.11179418861865997
-0.05466972663998604
-0.019964486360549927
-0.11290901154279709
-0.0679217204451561
-0.03501477465033531
-0.034688517451286316
-0.02959628589451313
-0.061409804970026016
0.006948145106434822
-0.09587520360946655
0.017180778086185455
0.06337423622608185
0.02268439345061779
0.06655227392911911
-0.05946924164891243
-0.05480560287833214
-0.1306222528219223
2.825559349730611E-4
-0.025768078863620758
0.03173533454537392
-8.734771981835365E-4
0.08831117302179337
-0.12695062160491943
-0.017301317304372787
0.1256183534860611
0.07431026548147202
0.10910014063119888
-0.009440738707780838
-0.09338575601577759
-0.02790764905512333
-0.00966666080057621
0.07011459022760391
0.003107333555817604
-0.0022640093229711056
0.09003708511590958
0.02843516133725643
0.02463257871568203
-0.07450225204229355
-0.04170939698815346
0.0385589599609375
0.0753524973988533
0.035790905356407166
0.051001690328121185
-0.05016002058982849
-0.08826752752065659
-0.04821957275271416
-0.027707021683454514
-0.004307467956095934
0.03947944566607475
0.019450625404715538
0.05641043931245804
-0.08930703997612
-0.015773214399814606
-0.11562108993530273
-0.08934566378593445
-0.06342915445566177
-0.015645163133740425
0.016033217310905457
0.10639218986034393
-0.08944711834192276
-0.02789781615138054
-0.055557116866111755
-0.0818537101149559
-0.14049997925758362
-0.016819844022393227
-0.10381269454956055
-0.07258468866348267
-0.09441018104553223
-0.04977323114871979
-0.0924774706363678
-0.014994550496339798
-0.009622447192668915
-0.11513376235961914
-0.14899493753910065
-0.08866705745458603
-0.020696498453617096
-0.13081927597522736
-0.05162615329027176
-0.12487959116697311
-0.1743793934583664
0.041833873838186264
-0.16320569813251495
-0.07048147916793823
-0.08338499814271927
-0.11571267247200012
-0.12348175793886185
-0.16101394593715668
-0.1830572783946991
-0.06265304237604141
-0.03194791078567505
-0.1637183576822281
-0.05412444844841957
-0.01007584948092699
-0.06817131489515305
-0.12463703751564026
-0.015571546740829945
0.042720720171928406
0.10823642462491989
0.01822347193956375
-0.038319870829582214
-0.023172950372099876
0.020866960287094116
-0.018149439245462418
-0.09676501154899597
-0.04787638038396835
0.012098019942641258
-0.020222343504428864
0.031259432435035706
1.3946322724223137E-4
-0.0676262304186821
-0.0906670019030571
-0.04968583583831787
0.09656725823879242
0.014732299372553825
0.027969274669885635
-0.06627529859542847
-0.020104389637708664
0.056687626987695694
-0.14336460828781128
-0.08980125933885574
0.06908341497182846
-0.006442700512707233
-0.051726460456848145
-0.07768761366605759
0.024107709527015686
-0.18276740610599518
-0.10457215458154678
-0.001847740262746811
-0.033571284264326096
-0.07220371812582016
-0.08653497695922852
-0.20084485411643982
-0.031548574566841125
0.04046349227428436
0.012651273049414158
-0.12123934924602509
0.05519752949476242
-0.06563187390565872
-0.03523252531886101
-0.20386114716529846
-0.1429252028465271
0.04297761619091034
0.14109034836292267
0.02650674805045128
-0.11791621148586273
0.06808526813983917
0.052765704691410065
-0.10012537986040115
-0.04223120957612991
-0.022452741861343384
-0.08087515830993652
0.055385757237672806
-0.16194868087768555
-0.25795960426330566
-0.03812716528773308
-0.13788264989852905
-0.05520550534129143
0.03993216156959534
0.017766352742910385
-0.16513000428676605
-0.04596737027168274
-0.19573992490768433
0.08408154547214508
-0.10292452573776245
0.0583769828081131
0.04166742041707039
0.030542168766260147
-0.0958930179476738
-0.16768088936805725
-0.18101243674755096
0.030220918357372284
0.12608420848846436
-0.0753009095788002
0.12206707894802094
