-0.0013804618502035737 -5.768922274000943E-4 -1.4843110693618655E-4 -5.283599020913243E-4 -0.0012469289358705282 -0.00131800991948694 -0.0292466152459383 -0.10004046559333801 -0.2906494438648224 0.13998927175998688 -0.040535349398851395 -0.05655983090400696 0.14508464932441711 0.04687834903597832 0.32582494616508484 0.2262292206287384 -0.5943901538848877 0.2726927399635315 -0.13360722362995148 0.002960676560178399 -0.27875712513923645 -0.2967027425765991 0.3413962721824646 0.8569796681404114 0.06341483443975449 -0.24177007377147675 0.44216853380203247 -0.21323846280574799 0.4456801414489746 0.3989390432834625 0.17954674363136292 0.7885371446609497 -0.3646700978279114 0.3267970085144043 -0.49035200476646423 0.3419339060783386 0.35624033212661743 0.605909526348114 0.200871080160141 -0.36071449518203735 -0.06729880720376968 -0.21003320813179016 0.13577838242053986 -0.3979417085647583 0.4570405185222626 -0.1830870360136032 0.19226375222206116 -0.9519254565238953 -0.5855326652526855 -0.4350091516971588 0.45159992575645447 0.17114362120628357 0.20532631874084473 0.2602299153804779 0.6531515717506409 0.422132670879364 -0.12143862247467041 0.2868945300579071 0.19489550590515137 -0.10925481468439102 -0.6089390516281128 0.2870016098022461 -0.12625685334205627 -0.4300002455711365 0.5839370489120483 -0.508152425289154 0.08988115191459656 -0.18057195842266083 -0.3170350193977356 0.280833899974823 0.1198340579867363 0.055553093552589417 0.09146925061941147 -0.6248382925987244 0.17516568303108215 -0.5488958954811096 0.41876885294914246 -0.4075431823730469 0.1349445879459381 -0.14950866997241974 -0.1797482818365097 0.14510688185691833 -0.34074950218200684 0.36741742491722107 0.34677425026893616 -0.7220295667648315 -0.07340652495622635 0.35103458166122437 0.3118261694908142 0.08084271103143692 0.5926055908203125 0.2668657600879669 -0.6057131886482239 0.04921293631196022 -0.26973268389701843 0.9458248019218445 0.08455632627010345 -0.1357758790254593 0.17522978782653809 0.4890177845954895 -0.1811213493347168 0.8939124941825867 0.43060773611068726 0.17767995595932007 0.16893568634986877 -0.46046018600463867 0.17914533615112305 0.26249274611473083 -0.20349949598312378 0.47763797640800476 -0.15805576741695404 0.014842254109680653 -0.0710560530424118 0.21670843660831451 -0.38747119903564453 0.7120237946510315 0.54412841796875 0.22282561659812927 0.4405197203159332 0.11687376350164413 0.6494303345680237 0.4021264910697937 -0.5152060389518738 0.5230196714401245 0.5219371318817139 0.10924841463565826 -0.17415525019168854 -0.5369927287101746 -0.4763638973236084 0.49418890476226807 0.25657713413238525 -0.024637196213006973 -0.19275441765785217 -0.05275764688849449 0.019701162353157997 -0.3342340588569641 -0.13672496378421783 -0.3371606767177582 -0.23073485493659973 0.3317131996154785 -0.29687947034835815 -0.21142731606960297 0.2636265754699707 0.308893620967865 0.07982630282640457 0.006010456942021847 0.008936204947531223 -0.2549275755882263 -0.1859503984451294 0.1812898814678192 -0.2281033843755722 0.6569267511367798 0.4263887405395508 -0.04764009267091751 0.05896395817399025 0.059087321162223816 0.7921388745307922 0.38118353486061096 -0.05142427235841751 0.8480526804924011 -0.10408370196819305 0.7453673481941223 -0.1990184634923935 -0.5274937152862549 0.7073826193809509 0.07403374463319778 -0.2551319897174835 0.08157293498516083 0.39701342582702637 -0.38038361072540283 -0.32082873582839966 0.15281826257705688 -0.3943639099597931 -0.1923859417438507 -0.5596868395805359 -0.2427923083305359 0.6992786526679993 -0.37646982073783875 0.0845528319478035 0.057054392993450165 -0.5164278149604797 0.3429946303367615 -0.17002065479755402 -0.19042931497097015 -0.5254300832748413 -0.4112127423286438 -0.4007663130760193 -0.05371428281068802 -0.6188406348228455 -0.9067623615264893 0.38664114475250244 0.006076375022530556 -0.3434458374977112 -0.869904637336731 -0.5889968872070312 -0.2513297200202942 0.26004770398139954 0.19581978023052216 -0.30573365092277527 -0.40427568554878235 0.6984466910362244 -0.09907200187444687 0.3276042938232422 -0.19711337983608246 -0.30798280239105225 0.13212503492832184 -0.006548937410116196 0.10303216427564621 0.6675130724906921 0.19455118477344513 -0.183243066072464 0.04706290364265442 0.13014629483222961 0.4592730402946472 0.6253506541252136 -0.2917110323905945 0.43648025393486023 -0.31159844994544983 0.2282971888780594 -0.7083186507225037 -0.10576916486024857 0.33538350462913513 0.09814874827861786 0.11322315037250519 -0.3914027214050293 -0.31653761863708496 -0.10751432180404663 -0.1834014356136322 0.6005187034606934 -0.1202726662158966 -0.41400909423828125 0.4607236683368683 -0.7043381929397583 -0.16319186985492706 0.5182586312294006 -0.06471705436706543 -0.2620742917060852 0.001433558645658195 0.20406170189380646 0.02116083726286888 -0.623890221118927 -0.38843148946762085 -0.263440877199173 -0.16400299966335297 -0.01585041731595993 0.04651262238621712 -0.5613914728164673 0.19885358214378357 -1.0996779203414917 0.035667456686496735 -0.3205345571041107 -0.5453410744667053 0.25104469060897827 0.3291734457015991 0.594569206237793 -0.5047532916069031 -0.28346559405326843 -0.2676866948604584 -0.3054085969924927 0.04391476884484291 0.15723340213298798 0.04164308309555054 -0.09246180951595306 -0.14279337227344513 -0.5735414028167725 -0.13132737576961517 -0.20401297509670258 0.22054557502269745 -0.0644800215959549 -0.5878521800041199 0.20089736580848694 0.36856213212013245 -0.691211462020874 -0.4887596666812897 -0.2332078069448471 0.3978886306285858 -0.13589990139007568 -0.29537433385849 0.6927557587623596 0.6297298669815063 -0.20395180583000183 -0.09489411115646362 0.7318199872970581 0.5680624842643738 -0.4483269453048706 -0.4545043408870697 0.28142300248146057 -0.3881045877933502 0.39816343784332275 -0.7742533683776855 -0.4531700909137726 -0.10483693331480026 -0.18847189843654633 0.6091117262840271 -0.16956265270709991 0.630286693572998 0.03052099049091339 0.33653613924980164 0.22553883492946625 0.26976028084754944 -0.41725555062294006 -0.24150903522968292 -0.19302326440811157 -0.0225085262209177 0.3840135335922241 0.4568750262260437 0.06489488482475281 -0.15068162977695465 -0.10970144718885422 -0.31548404693603516 0.024754691869020462 0.011444111354649067 -0.31185460090637207 -0.052362293004989624 0.4498940706253052 -0.04567757248878479 0.4148431718349457 0.24711771309375763 -0.5337899923324585 -0.13198313117027283 0.72116619348526 -0.2527867257595062 0.13063442707061768 -0.46498098969459534 0.10206491500139236 0.09937073290348053 0.39027532935142517 -0.7400522828102112 0.021334949880838394 -0.10255657881498337 -0.04824455827474594 -0.2311253547668457 0.4368407130241394 -0.23047307133674622 0.397728830575943 0.1599552482366562 -0.07617343217134476 0.5478560924530029 0.11985418200492859 0.496425062417984 -0.3035084307193756 0.44903644919395447 -0.26207876205444336 -0.1980571746826172 -0.21723128855228424 0.49663981795310974 0.5574685335159302 -0.45887383818626404 0.030684001743793488 -0.09715106338262558 0.24746304750442505 -0.13621461391448975 -0.636851966381073 0.07164940237998962 1.0079376697540283 0.5946188569068909 -0.24107830226421356 0.44166940450668335 0.5852768421173096 -0.6933885216712952 0.24097104370594025 0.10183359682559967 0.317452073097229 -0.13362516462802887 -0.45236265659332275 0.6782549023628235 0.3704809248447418 -0.10131237655878067 -0.031149553135037422 0.05456563085317612 -0.9260616898536682 -0.2055964469909668 0.060373496264219284 0.3035169541835785 0.19459065794944763 0.49523571133613586 0.1473812609910965 -0.588044285774231 -0.31667691469192505 -0.2901141345500946 -0.347759485244751 -0.4889395534992218 0.08822278678417206 -0.03333106264472008 0.34301257133483887 -0.042819008231163025 -0.11217661201953888 0.5535460114479065 -0.20016488432884216 0.4902379512786865 0.3782476782798767 0.27853596210479736 -0.513947069644928 -0.43483155965805054 -0.5245456099510193 0.02772357501089573 0.12484990805387497 -0.3883030414581299 0.25366857647895813 0.29111939668655396 0.11555822193622589 -0.12803757190704346 0.2319474071264267 0.1877424418926239 0.17805247008800507 -0.13969559967517853 0.14520281553268433 0.11826348304748535 0.4384145736694336 0.13905151188373566 -0.07843407243490219 -0.26198747754096985 -0.0450427383184433 -0.004627692978829145 -0.15498775243759155 -0.16493448615074158 -0.22072291374206543 -0.21155749261379242 0.27374449372291565 0.31829994916915894 0.25913485884666443 0.1443660408258438 0.060501351952552795 0.021182989701628685 -0.2652841806411743 -0.2971167266368866 0.308400958776474 -0.36276015639305115 -0.204482302069664 0.579751193523407 0.5379466414451599 -0.005099255591630936 0.11014672368764877 0.038631271570920944 -0.2645391821861267 -0.2045118659734726 -0.043023236095905304 0.27441680431365967 -0.1312306523323059 0.5450593829154968 -0.18691889941692352 -0.42320549488067627 0.44499266147613525 -0.28590288758277893 -0.31053486466407776 -0.2127489447593689 0.41068750619888306 -0.09427721798419952 0.14475539326667786 -0.4732357859611511 0.20294523239135742 -0.007280890829861164 0.3796480596065521 0.11621249467134476 0.238774374127388 0.36559996008872986 -0.3974592983722687 -0.4512059688568115 0.42862361669540405 -0.12047787755727768 -0.3864399790763855 0.03728089854121208 0.4363984763622284 0.0951559841632843 -0.3081187605857849 -0.18143001198768616 -0.22481763362884521 -0.21042686700820923 -0.3310096859931946 -0.6795194745063782 -0.08755583316087723 -0.3267601728439331 0.2126319408416748 0.5340770483016968 0.17828615009784698 0.049253303557634354 0.15174871683120728 0.027780504897236824 0.07740115374326706 -0.13347043097019196 0.019064081832766533 -0.14095766842365265 -0.6571298837661743 0.23939436674118042 -0.22400829195976257 0.5718263983726501 -0.23889051377773285 -0.015081501565873623 -0.3569827675819397 -0.19038237631320953 0.3545750379562378 -0.039728499948978424 0.32574692368507385 0.32567518949508667 0.005441164597868919 -0.09730103611946106 -0.02112201601266861 -0.018209340050816536 0.33994928002357483 -0.10661911964416504 0.5391431450843811 -0.15847648680210114 -0.3044240474700928 0.3703354299068451 -0.0015756904613226652 0.1369999349117279 0.35130611062049866 -0.3963220715522766 -0.06446897983551025 -0.5464015603065491 0.5033023357391357 -0.12488193809986115 -0.09391678869724274 0.20014220476150513 0.3057672083377838 0.08244524896144867 0.5055066347122192 0.12822987139225006 0.053947899490594864 0.19114437699317932 0.43672817945480347 0.10202708840370178 -0.19095632433891296 0.12441422790288925 -0.0704348012804985 0.683125376701355 0.13692019879817963 -0.003402292262762785 0.4209422469139099 0.48260003328323364 0.18177039921283722 0.005807494278997183 -0.1882341355085373 -0.11832321435213089 -0.5720442533493042 0.31767916679382324 0.12612269818782806 0.6330538392066956 0.07200825214385986 0.04463775455951691 0.09402991831302643 -0.207433819770813 0.15709224343299866 -0.5401505827903748 0.3617110252380371 0.08427305519580841 0.06874208897352219 0.7481873631477356 0.44293156266212463 -0.1376846581697464 0.6076571941375732 0.4027448892593384 -0.373668909072876 0.449154257774353 0.03701062873005867 0.07606960088014603 0.6146029233932495 -0.4264468550682068 -0.4534876346588135 -0.31073012948036194 -0.25228095054626465 0.3511389493942261 -0.07393094897270203 -0.1501915007829666 -0.36306124925613403 0.3091052174568176 0.9435889720916748 -0.057998236268758774 0.020070184022188187 0.12919391691684723 -0.09006448090076447 -0.7196105718612671 -0.6068481206893921 0.10004536062479019 -0.12292898446321487 -0.15131214261054993 -0.40472614765167236 0.11471959203481674 0.04480107128620148 0.46672382950782776 0.05701139196753502 -0.33321285247802734 0.08802754431962967 0.2139391154050827 -0.10818865150213242 0.12092884629964828 0.47634002566337585 0.044727303087711334 0.4176395833492279 -0.1956384927034378 -0.4364910125732422 -0.03295189142227173 -0.4628830552101135 -0.03745030239224434 0.7506404519081116 -0.18644855916500092 -0.12573641538619995 0.5019940137863159 0.1005742996931076 0.3449312150478363 -0.11055705696344376 0.4424290060997009 -0.5606324076652527 -0.17143206298351288 0.4041757881641388 0.14091847836971283 -0.11268556863069534 -0.02599778026342392 -0.14572203159332275 0.08398696035146713 -0.08010268956422806 0.0517510287463665 0.06908539682626724 0.05233097821474075 -0.09006448835134506 0.06671562790870667 0.011691417545080185 0.042760156095027924 0.0595305860042572 -0.015962157398462296 0.039865490049123764 -0.09664526581764221 -0.007883019745349884 0.11306668817996979 0.019993510097265244 0.029192814603447914 0.008054669015109539 -0.11655490100383759 0.01975415088236332 -0.037946950644254684 -0.014268055558204651 0.08331213891506195 0.007802469655871391 0.08943399786949158 0.015477766282856464 -0.09797975420951843 -0.01232944056391716 -0.07550118118524551 0.14769437909126282 0.18405896425247192 0.012433231808245182 0.16218550503253937 -0.03777807205915451 0.02270854450762272 0.10074923187494278 0.0022193777840584517 0.06317032128572464 -0.08187445998191833 -0.058919671922922134 0.11573325097560883 0.03977636620402336 0.15759313106536865 0.03705109655857086 0.11444650590419769 0.1182926669716835 -0.006354461424052715 -0.12874628603458405 0.033346813172101974 -0.08261344581842422 0.02976543828845024 0.05768434330821037 -0.036924537271261215 -0.08560173213481903 0.09563486278057098 0.0028436100110411644 -0.1037951409816742 0.0683077722787857 0.060401249676942825 -0.05731219798326492 0.026603374630212784 -0.08256551623344421 -0.03468000143766403 0.03966248780488968 0.007898163981735706 0.056881267577409744 0.0043550822883844376 0.06297571957111359 0.01574983447790146 -0.037682197988033295 0.09963870793581009 0.028167515993118286 -0.0813736543059349 0.06628257781267166 -0.003499057609587908 -0.040568284690380096 -0.06431750953197479 -0.06557460129261017 -0.09193094819784164 0.11757910996675491 -0.07396570593118668 -0.06658518314361572 -0.07087631523609161 -0.04729178175330162 -0.121927410364151 -0.06017989292740822 -0.0042871711775660515 -0.08234572410583496 0.0603916235268116 -0.005073311738669872 -0.07084882259368896 0.14093521237373352 -0.026502277702093124 -0.06541255116462708 -0.08300219476222992 0.0809554010629654 0.10056781023740768 0.10987525433301926 -0.03118475340306759 -0.017439043149352074 -0.026314938440918922 -0.029752124100923538 0.008725115098059177 0.06001732125878334 0.002578714629635215 -0.039638176560401917 0.2054618000984192 0.049977026879787445 0.12582391500473022 0.02856309898197651 -0.22107578814029694 -0.03116171807050705 0.0018656111788004637 0.039981961250305176 -0.08947285264730453 -0.1281224489212036 -0.08469318598508835 0.025018442422151566 -0.0977187529206276 0.019862011075019836 -0.005606723017990589 0.1532943993806839 0.06369807571172714 0.12348640710115433 0.04240144416689873 -0.010810337029397488 -0.011358336545526981 0.19525302946567535 0.052678827196359634 -0.025220781564712524 -0.08115693926811218 -0.04099347069859505 -0.08827058970928192 0.06732866168022156 0.0035245090257376432 -0.12484175711870193 0.050367724150419235 -0.029445817694067955 0.016707148402929306 -0.031769175082445145 -7.99800967797637E-4 -0.0960245206952095 0.0012913665268570185 0.008251730352640152 0.05486401543021202 0.1657315343618393 0.05564530938863754 -0.06252593547105789 -0.012900860980153084 0.045393526554107666 -0.014640791341662407 -0.0014053578488528728 -0.11200014501810074 -0.05339796468615532 0.01658955216407776 -0.09865844249725342 0.07572709023952484 0.032619230449199677 -0.038251738995313644 0.042325519025325775 -0.045781709253787994 -0.0700640082359314 -0.17952466011047363 -0.0747002512216568 -0.1200997531414032 0.06004122272133827 0.05152947083115578 0.04237021133303642 -0.07888306677341461 -0.0448104627430439 -0.07383502274751663 -0.06654489785432816 -0.04225073382258415 0.004607480950653553 -0.1478905975818634 -0.035440098494291306 -0.02678835391998291 0.06886666268110275 -0.022187761962413788 0.026858538389205933 -0.09219226986169815 0.16017070412635803 -0.06112513318657875 0.16192445158958435 0.014378391206264496 0.053769126534461975 0.027246732264757156 -0.10534544289112091 0.07347149401903152 -0.07104234397411346 0.12785299122333527 -0.023256847634911537 -0.050949547439813614 0.029026605188846588 0.0950007438659668 0.07040475308895111 0.09917926788330078 0.08039272576570511 0.04398611560463905 -0.1617731750011444 -0.0591309517621994 0.10656610876321793 -0.0710097923874855 -0.08387202024459839 0.04293762892484665 0.007690789178013802 -0.1466233730316162 -0.13644444942474365 0.051958102732896805 -0.07574976235628128 -0.05017785355448723 0.12684766948223114 -0.06627776473760605 -0.1225382387638092 -0.11339182406663895 -0.08223649859428406 1.4013820327818394E-4 -0.16673937439918518 0.0071142809465527534 0.08772265166044235 0.0028063971549272537 -0.08605562895536423 0.0027762423269450665 0.1093696653842926 -0.012627911753952503 -0.11961158365011215 -7.752201054245234E-4 0.046668123453855515 0.05476246029138565 9.475713013671339E-4 -0.09275957942008972 -0.11722999811172485 0.15840919315814972 -0.01910622976720333 0.09527996927499771 -0.12428653985261917 -0.08213645964860916 0.006258757319301367 0.012895497493445873 0.12669837474822998 0.024765094742178917 0.04777325317263603 0.0034889555536210537 -0.006756133865565062 -0.016447406262159348 -0.016443753615021706 0.011341575533151627 0.03365154564380646 -0.044353991746902466 0.036479853093624115 0.05370680242776871 -0.0012390201445668936 0.03536844998598099 0.03748928755521774 0.034842655062675476 0.1038961261510849 0.030860673636198044 0.06723348051309586 0.04626046121120453 -0.13384513556957245 0.0016707556787878275 0.15827979147434235 -0.11983456462621689 0.09714119136333466 -0.025477437302470207 0.08340920507907867 -0.17914405465126038 0.10534210503101349 -0.19313597679138184 -0.010948038659989834 -0.18492987751960754 0.0452401228249073 -0.11481699347496033 -0.11755380034446716 -0.008503296412527561 -0.0020430185832083225 0.0052822004072368145 0.044694121927022934 -0.023641563951969147 0.19363918900489807 -0.06821735203266144 -0.08193906396627426 -0.02967056818306446 0.0051967669278383255 0.12789301574230194 0.036046963185071945 -0.07526813447475433 -0.0065844859927892685 -0.0016521912766620517 -0.07399627566337585 -0.0721854567527771 -0.011962909251451492 0.09472265839576721 -0.038295019418001175 -0.11135584115982056 -0.0070814634673297405 0.054554056376218796 0.04135337844491005 0.03974749892950058 0.007687358185648918 -0.07824333757162094 -0.045285891741514206 -0.052222348749637604 -0.050700824707746506 0.07784466445446014 -0.019748922437429428 -0.12475927919149399 0.15827639400959015 -0.10030844807624817 -0.09496507793664932 0.03435260429978371 -0.09403279423713684 -0.052016619592905045 -0.12928301095962524 -0.03154856339097023 0.06405489891767502 0.017833806574344635 -0.12897571921348572 0.14668895304203033 -0.09220027923583984 0.038587164133787155 0.018744176253676414 -0.04637373983860016 -0.11996932327747345 0.04589427635073662 -0.043317172676324844 0.05232975631952286 -0.10736696422100067 -0.04107765853404999 0.02097082883119583 -0.05812539532780647 0.04202175885438919 -0.047287289053201675 -0.007648756727576256 -0.04970509186387062 -0.11054807156324387 -0.04745769500732422 -0.011830550618469715 0.050739239901304245 0.1403844952583313 0.17333638668060303 0.059767354279756546 -0.1278417408466339 -0.13092422485351562 0.11814074218273163 0.016958540305495262 -0.13827158510684967 -0.04225234314799309 -0.11122415214776993 0.047763705253601074 -0.06814929842948914 0.19142766296863556 0.006256734021008015 -0.11778192222118378 0.08809200674295425 0.023357057943940163 -0.07228133827447891 -0.10591407120227814 0.02306322567164898 -0.0023567851167172194 -0.021054720506072044 0.07539542019367218 -0.013536782003939152 -0.013030256144702435 0.08965165168046951 -0.06313129514455795 -0.1065717339515686 -0.021666262298822403 -0.03377588465809822 -0.014017597772181034 0.07271960377693176 0.011243714950978756 0.11237823963165283 -0.02671654336154461 -0.09148133546113968 0.17121733725070953 -0.025836385786533356 0.0479343980550766 -0.0275448989123106 0.060412269085645676 -0.012640779837965965 0.04654918611049652 0.17368608713150024 -0.0691792443394661 0.1348959356546402 -0.02810983546078205 0.05659637600183487 -0.13729923963546753 -0.006370994728058577 0.11239876598119736 -0.0042681461200118065 -0.06629197299480438 -0.12611737847328186 -0.006781722418963909 -0.016203127801418304 0.05788389965891838 0.09546824544668198 -0.04007438197731972 -0.0024300937075167894 0.003240225138142705 -0.05121558532118797 0.02982981503009796 -0.019672567024827003 -0.01416226290166378 -0.06044541299343109 0.04955347254872322 -0.07915111631155014 0.11013376712799072 -0.10593780130147934 -0.00902002677321434 -0.08738280087709427 -0.10089519619941711 0.1057441458106041 -0.013943660072982311 -0.02424616552889347 -0.15759575366973877 -0.11557476967573166 -0.02304002456367016 -0.05069391056895256 -0.0305496696382761 -0.02676898054778576 -0.0377340093255043 0.005444901995360851 -0.13164889812469482 0.029022272676229477 -0.025568632408976555 0.03404216095805168 0.07323413342237473 -0.03784535452723503 0.09619314968585968 -0.06281231343746185 -0.05674859136343002 -0.044488850980997086 -0.03510702773928642 -0.06789187341928482 -0.0017837671330198646 0.011352349072694778 -0.04968120902776718 0.07932965457439423 -0.08772566169500351 -0.004169287625700235 0.10815263539552689 -0.24514320492744446 0.01503088790923357 -0.13366077840328217 0.04035629332065582 -0.06383876502513885 0.017644071951508522 0.06555023789405823 -0.07690375298261642 -0.13447751104831696 -0.044161420315504074 -0.14744538068771362 0.10743539035320282 -0.014153590425848961 0.044482022523880005 -0.03468836843967438 -0.014455973170697689 0.030319076031446457 0.006771347019821405 0.028782334178686142 -0.03342324122786522 -0.014439839869737625 -0.03579125925898552 0.04434585198760033 -0.11183690279722214 -0.1197497546672821 -0.03494908660650253 0.08901604264974594 -0.1393497884273529 0.1213705837726593 -0.11625122278928757 -0.01893177628517151 -0.05755758285522461 0.022064749151468277 0.034511782228946686 -0.0754522979259491 -0.04922975227236748 -0.015452687628567219 0.055639538913965225 -0.10143793374300003 -0.07907601445913315 0.11636902391910553 -0.1405884325504303 0.10230985283851624 0.09393846988677979 0.03263216093182564 0.06508716940879822 -0.0356961153447628 -0.049002740532159805 0.06406485289335251 -0.012798731215298176 -0.12179861962795258 0.12409268319606781 -0.015572445467114449 0.03102339804172516 0.034879300743341446 0.14539101719856262 -0.004163380712270737 -0.04084304720163345 0.1823998987674713 0.08587183058261871 0.12466070801019669 -0.013730662874877453 0.1722283512353897 0.12802907824516296 -0.06753029674291611 0.03288176283240318 0.06479890644550323 0.0291169211268425 -0.10782404243946075 0.029692867770791054 -0.004553289618343115 -0.01780913956463337 -0.01183131244033575 -0.0032761087641119957 -0.0025382312014698982 0.08827489614486694 -0.0288279727101326 -0.017766129225492477 0.08818649500608444 0.03617262467741966 -0.11418259888887405 -0.04321291297674179 -0.021487658843398094 0.02490699291229248 -0.12677700817584991 0.006747167091816664 0.05623375251889229 -0.016176780685782433 0.07292477041482925 -0.1465703547000885 0.05099175125360489 -0.11141497641801834 0.08830694854259491 0.010529141873121262 0.03251904621720314 0.047152161598205566 -0.05820537731051445 0.07663819193840027 0.08402208238840103 -0.038269735872745514 -0.01619637757539749 -0.13207782804965973 0.04020396247506142 -0.021923935040831566 -0.018808025866746902 0.03199659660458565 -0.00595537293702364 -0.15213561058044434 0.15833339095115662 -0.15085114538669586 0.10575001686811447 -0.10640212893486023 0.012163435108959675 -0.09230361133813858 0.010565605014562607 0.08030401915311813 0.09069334715604782 0.06374380737543106 -0.17774564027786255 0.03765528276562691 0.009402361698448658 0.05768929049372673 -0.08841662108898163 0.01670108735561371 0.11581315100193024 -0.036682259291410446 -0.055752627551555634 0.08226079493761063 -0.0882684737443924 -0.03618240728974342 -0.17000851035118103 -0.09821995347738266 0.008610296994447708 -0.06150706857442856 -0.06877760589122772 -0.045574694871902466 -0.07155741751194 0.11000820994377136 -0.06968330591917038 -0.04472735524177551 0.0495343841612339 -0.09579795598983765 -0.09708406031131744 0.09612447023391724 0.11298894882202148 0.013262281194329262 0.005987944081425667 0.04179146885871887 0.03531453385949135 -0.023677418008446693 -0.02730509266257286 -0.040905799716711044 0.029933441430330276 -0.1605481207370758 -0.1459658443927765 0.02932143397629261 -0.17580699920654297 -0.139674574136734 0.16964425146579742 0.03243057429790497 0.013818418607115746 -0.013491611927747726 -0.028398457914590836 0.009606125764548779 -0.046725738793611526 0.1270912140607834 -0.006806744262576103 0.06861667335033417 0.0820620134472847 -0.09238473325967789 -0.06381837278604507 -0.021915826946496964 -0.05053257942199707 0.21398216485977173 0.07507374882698059 -9.648989071138203E-4 -0.0956995040178299 -0.022163907065987587 0.0333511158823967 -0.1451214700937271 0.178014874458313 0.10504098236560822 -0.13829174637794495 -0.019618378952145576 0.029829302802681923 0.13527996838092804 0.07253849506378174 0.011717812158167362 0.013984456658363342 -0.03857288882136345 -0.07167920470237732 0.06532171368598938 0.04925987124443054 -0.12850943207740784 0.10887369513511658 -0.08511767536401749 -0.0778617411851883 -0.09830424934625626 -0.007658725138753653 -0.04466630518436432 0.11410097032785416 0.009394771419465542 -0.02056899294257164 0.07603500783443451 0.0021634551230818033 -0.03408748283982277 -0.017297351732850075 0.025370268151164055 -0.004452658351510763 -0.26740530133247375 -0.12550221383571625 0.08358060568571091 -0.10094120353460312 -0.03338010609149933 0.06216374412178993 -0.0045919641852378845 0.1328689455986023 0.04516536742448807 -0.036473508924245834 0.06239158660173416 0.06709911674261093 0.0952383279800415 -0.032678961753845215 -0.09472464770078659 -0.01823400892317295 -0.10824158787727356 -0.049291860312223434 0.10236115008592606 0.07953933626413345 0.055157843977212906 0.051187336444854736 0.01751071773469448 -0.09830620139837265 0.03882184252142906 0.01545719988644123 -0.040612589567899704 -0.006396571174263954 0.14116205275058746 -0.06478357315063477 -0.1510176658630371 -0.03672178089618683 0.02972288616001606 -0.10172108560800552 -0.15484069287776947 -0.07500717043876648 0.02968643605709076 -0.016016755253076553 0.09089654684066772 -0.01641537994146347 0.07355928421020508 0.14376847445964813 0.020136019214987755 -0.024048319086432457 -0.06930441409349442 0.054046325385570526 -0.014390692114830017 0.10060057789087296 -0.1663445681333542 -0.02583552710711956 0.09340494871139526 -0.15101520717144012 0.04855522885918617 -0.013025696389377117 -0.13348908722400665 -0.0674547478556633 -0.01614825427532196 -0.06371170282363892 0.020507896319031715 0.028803665190935135 0.020862353965640068 0.045012250542640686 0.027303067967295647 0.05805305764079094 -0.05973058566451073 -0.032127637416124344 0.005631366744637489 0.025118444114923477 0.059691064059734344 0.08477170765399933 -0.02899150177836418 -0.03217915818095207 0.04436112567782402 -0.012317291460931301 0.07714452594518661 0.07626001536846161 -0.0510888434946537 -0.11711154133081436 0.03581521287560463 0.018564367666840553 -0.06708043068647385 0.0687776505947113 -0.12546858191490173 0.013772455044090748 0.008953206241130829 -0.1648809313774109 0.014899397268891335 0.00527435215190053 0.04490585997700691 0.025955937802791595 -0.1451885849237442 0.09666261821985245 0.0315229557454586 -0.17512138187885284 0.0837082713842392 -0.05618433654308319 0.1039963886141777 0.11620079725980759 0.012312553822994232 -0.12109522521495819 -0.04628091678023338 -0.033607181161642075 0.050532564520835876 0.03039466217160225 0.004608666058629751 0.08682748675346375 0.02153344638645649 0.026546061038970947 -0.0037760345730930567 0.16935226321220398 -0.009378568269312382 -0.07102467864751816 0.0438125878572464 -0.014245475642383099 -0.06417008489370346 -0.059299301356077194 -0.04606104642152786 0.08200517296791077 0.05394832044839859 -0.16850155591964722 -0.02245980128645897 -0.016440222039818764 -0.015016554854810238 -0.03241574391722679 -0.06921744346618652 0.006801977287977934 -0.058800697326660156 -0.06207583472132683 0.01960095763206482 0.17807713150978088 -0.15744630992412567 -0.058214154094457626 0.20305857062339783 0.005377946887165308 0.22760984301567078 -0.08695830404758453 -0.013454318046569824 0.01688198931515217 -0.1714438498020172 0.04205256700515747 -0.06771589070558548 -0.009796584956347942 0.013525303453207016 -0.09992316365242004 0.01001645252108574 -0.06637763231992722 -0.025931432843208313 0.05556301772594452 -0.058382660150527954 0.06544094532728195 0.007945475168526173 0.0030726080294698477 -0.07439019531011581 0.08242389559745789 -0.034109871834516525 -0.026713699102401733 -0.01364893652498722 0.04075891897082329 -0.038876332342624664 0.03858501464128494 -0.0279176514595747 -0.007445806637406349 -0.04273178055882454 -0.002547722076997161 0.02416861802339554 -0.16505396366119385 0.056936681270599365 -0.005569297820329666 -0.089976005256176 -0.001420527114532888 0.1267542690038681 -0.035819705575704575 0.03629308193922043 -0.027331193909049034 -0.07240337133407593 0.037363968789577484 -0.06921777129173279 -0.141974076628685 0.10316534340381622 -0.14910408854484558 0.20644278824329376 0.006576414220035076 0.10119933634996414 -0.10552626103162766 -0.11929087340831757 -0.05161801725625992 0.21495601534843445 0.008018800057470798 -0.021255353465676308 -0.026869837194681168 -0.06840267032384872 0.08451274037361145 0.0015573907876387239 0.09504608809947968 0.09869944304227829 -0.006722752004861832 0.07581135630607605 0.061841901391744614 0.021052680909633636 0.08362749963998795 0.07271658629179001 -0.08991459757089615 0.0913676843047142 -0.07096302509307861 0.06888007372617722 0.0021488245110958815 -0.040746890008449554 0.0946759507060051 0.15074855089187622 0.008487771265208721 0.15264062583446503 -0.008117761462926865 -0.003561249002814293 -0.07578787207603455 0.040359266102313995 0.04093831032514572 -0.0170732531696558 -0.04784850403666496 0.04284964129328728 -0.05996562913060188 0.008483989164233208 -0.04533487558364868 0.07385517656803131 -0.07931822538375854 0.06063856929540634 -0.13055455684661865 0.03020777739584446 -0.06950779259204865 0.10041606426239014 -0.035884033888578415 -0.12753762304782867 -0.051619887351989746 -0.03530522435903549 0.006035884376615286 0.040111567825078964 0.08103109896183014 0.11281730234622955 0.005487299058586359 -0.01077005174010992 0.11889249831438065 -0.11919771879911423 0.04408237338066101 -0.029763147234916687 0.08129964023828506 0.07718031108379364 -0.06519586592912674 0.020468762144446373 0.04503541812300682 5.058473325334489E-4 0.009378594346344471 -0.11843907833099365 0.04750807583332062 -0.019109569489955902 -0.09012708812952042 4.1678367415443063E-4 0.02277340181171894 -0.02441546879708767 -0.006539300084114075 0.08154293149709702 0.0782187432050705 -0.013102777302265167 -0.078170046210289 0.00924574863165617 0.025195159018039703 0.09739280492067337 0.029976628720760345 -0.07142031937837601 0.09991686046123505 -0.009818580001592636 0.07971898466348648 0.02127007208764553 -0.1115475594997406 -0.11219818145036697 -0.04850458353757858 -0.03665350005030632 0.020393364131450653 -0.05709599331021309 0.05512424185872078 0.005442718509584665 0.0850234180688858 0.012304237112402916 -0.09267318248748779 0.057319384068250656 0.047420624643564224 -0.026409011334180832 -0.2199239730834961 0.14850488305091858 0.12488152831792831 -0.11100776493549347 -0.050771597772836685 0.04093490540981293 0.11209255456924438 -0.06355326622724533 -0.07078089565038681 -0.0033911680802702904 0.06747578829526901 0.12152273207902908 0.034805361181497574 -0.027838993817567825 -0.0673694908618927 0.02373366802930832 -0.043566469103097916 0.1521575003862381 0.11413390189409256 0.0529399998486042 0.02359875850379467 0.019644884392619133 0.07312826812267303 0.05178183317184448 0.15641386806964874 -0.09530042111873627 -0.058322709053754807 0.2845078408718109 0.03359237685799599 0.04420929402112961 0.08230271935462952 -0.06139768287539482 -0.12315571308135986 -0.08109979331493378 0.013488775119185448 0.05220048129558563 -0.0619489923119545 0.056027885526418686 0.16224338114261627 0.08157102018594742 -0.15651103854179382 0.05664658918976784 -0.09455807507038116 0.15423092246055603 -0.06432060152292252 0.016005385667085648 -0.07137280702590942 0.06435677409172058 0.1227681040763855 -0.07463853061199188 -0.002126676496118307 0.05634080618619919 0.017372172325849533 0.041953325271606445 0.05453035607933998 -0.0855085700750351 -0.015113872475922108 -0.06621795892715454 0.032442640513181686 -0.1055426076054573 -0.07656678557395935 0.00224479241296649 -0.02311306819319725 0.08282563835382462 -0.0938015729188919 -0.07724488526582718 -0.10647612810134888 0.10117315500974655 -0.07430750131607056 -0.04542434588074684 -0.03697056695818901 0.07177358120679855 -0.06767424941062927 0.09317541867494583 0.029473159462213516 0.12583699822425842 -0.1347167193889618 -0.04214739799499512 -0.02263440378010273 -0.04183288663625717 -0.044442299753427505 0.16362996399402618 0.09330222755670547 -0.17970940470695496 -0.053090475499629974 0.13662007451057434 0.03794211521744728 -0.1273801326751709 0.0205730888992548 -0.24371588230133057 0.11554927378892899 -0.019312139600515366 0.06768009811639786 0.019952869042754173 -0.005221948958933353 -0.07904118299484253 0.06568267196416855 -0.06929340213537216 0.02445066347718239 -0.027056725695729256 -0.13158395886421204 -0.06080642342567444 0.05059334263205528 0.106229268014431 0.05959760397672653 -0.013323673978447914 0.0038557411171495914 0.10390122979879379 0.12428712099790573 0.11499608308076859 -0.0978301540017128 -0.040626101195812225 -0.014793031848967075 0.057947881519794464 -0.00882155355066061 -0.08388599753379822 -0.07998981326818466 -0.11157561093568802 -0.007209263741970062 -0.044345222413539886 0.02675997093319893 -0.014157111756503582 -0.010839544236660004 -0.04497921094298363 -0.022001149132847786 0.024367887526750565 0.04364602640271187 0.08575331419706345 -0.09152597934007645 -0.0819428488612175 -0.007277787197381258 -0.11285398155450821 -0.0927324891090393 0.18573807179927826 0.03659691661596298 0.08299271762371063 -0.024676555767655373 -0.09402823448181152 0.028723623603582382 0.05264035984873772 0.14851465821266174 0.01926940493285656 -0.11453067511320114 0.12274333834648132 -0.01046410296112299 -0.08489632606506348 -0.04107748344540596 0.10452544689178467 -0.08670652657747269 0.09159775078296661 0.13698451220989227 -0.004390505142509937 0.13731858134269714 -0.11005180329084396 0.038731761276721954 -0.03610432147979736 0.03671928867697716 0.08556395769119263 0.13240103423595428 -0.044503580778837204 0.032036688178777695 0.012116460129618645 -0.0014289224054664373 0.09919728338718414 -0.019543295726180077 -0.026282962411642075 -0.1017778217792511 0.08855754137039185 0.039290230721235275 -0.07025174051523209 -0.03227170929312706 -0.012508886866271496 0.07160954922437668 0.040122851729393005 0.00929445493966341 0.0033953702077269554 0.08546359091997147 0.06379495561122894 0.06264900416135788 -0.11416573077440262 0.028960898518562317 -0.03011750802397728 -0.06187257170677185 -0.06463860720396042 -0.04298487305641174 -0.02659129723906517 -0.08330418914556503 0.014584901742637157 0.05946565791964531 0.038218021392822266 0.019601130858063698 -0.08817429840564728 0.0787879228591919 -0.035063713788986206 0.06853137165307999 -0.06758980453014374 0.23249641060829163 -0.018681693822145462 -0.062015462666749954 -0.11000574380159378 0.04518357664346695 0.05878783017396927 0.12208336591720581 0.06145356595516205 0.0074126990512013435 -0.11703663319349289 -0.05515667423605919 -0.03866002708673477 -0.06259050965309143 0.12726116180419922 0.16822971403598785 0.039245326071977615 -0.050694242119789124 0.16777344048023224 0.04511021077632904 0.037670157849788666 2.2473384160548449E-4 0.002315840683877468 0.048078861087560654 -0.003128855023533106 -0.1159190684556961 -0.09356193989515305 -0.113343246281147 0.05221598967909813 -0.021310819312930107 -0.0471922904253006 0.04564188793301582 0.10504584014415741 -0.07148393988609314 0.15105661749839783 -0.0025079993065446615 0.03605515509843826 -0.16335450112819672 -0.12387511879205704 -0.09809590876102448 -1.6400555614382029E-4 0.004956507124006748 0.07447925209999084 -0.025521589443087578 -0.1383611112833023 0.007585848681628704 -0.0761968120932579 -0.06351711601018906 0.07212108373641968 0.041910335421562195 -0.12291641533374786 -0.04939260706305504 0.02260034717619419 -0.04304948076605797 -0.0763016939163208 0.0882372334599495 -0.002408721949905157 0.042864102870225906 0.11357400566339493 -0.03178657963871956 0.1403275728225708 -0.13505877554416656 0.17064085602760315 0.05226000398397446 -0.006743158679455519 0.0046594818122684956 -0.026174508035182953 0.017971912398934364 0.06891795247793198 -0.19271230697631836 0.042794711887836456 0.18092845380306244 0.02478799968957901 0.0608297660946846 -0.07600994408130646 -0.1388617753982544 -0.08241979032754898 -0.0077416617423295975 0.09341605007648468 -0.047442350536584854 -0.11472213268280029 0.0694999024271965 -0.012815341353416443 -0.03290071710944176 0.02933700941503048 -0.012056897394359112 0.05274268239736557 0.07143358141183853 -0.0661899745464325 0.06872012466192245 0.026989396661520004 0.07762455940246582 -0.12000223994255066 0.09851008653640747 0.11959601938724518 0.0755186453461647 0.007353227119892836 0.06495179235935211 -0.1824033260345459 -0.07285992801189423 0.011165821924805641 -0.014184555970132351 0.0034844549372792244 -0.01666754111647606 0.0160483717918396 0.05188345909118652 -0.06632334738969803 -0.01315887738019228 -0.0028239721432328224 0.05963844060897827 -0.10203616321086884 -0.011447584256529808 -0.08438043296337128 -0.12550295889377594 -0.15060612559318542 0.02320151776075363 -0.0025904509238898754 0.0694449245929718 -0.006971623282879591 0.050562214106321335 -0.07195085287094116 0.0301889069378376 0.08734391629695892 -0.0552288256585598 0.04504293203353882 -0.016860531643033028 0.03527478128671646 0.08968984335660934 0.004306375049054623 0.056364525109529495 0.012769507244229317 0.008010290563106537 0.08718373626470566 0.007111702114343643 0.14123696088790894 0.12337052077054977 0.0662202537059784 -0.035295967012643814 -0.06425566971302032 0.023543724790215492 0.002382854465395212 -0.048110056668519974 -0.07527321577072144 -0.11163648962974548 -0.09994324296712875 -0.06543291360139847 -0.05791870877146721 -0.09991462528705597 -0.004576830193400383 -0.04187804087996483 -0.10515868663787842 -0.07831855118274689 -0.01711006462574005 0.048974066972732544 0.07300371676683426 -0.16140957176685333 -0.11163381487131119 -0.16816817224025726 -0.0815066397190094 0.04039373621344566 -0.01639663055539131 -0.015720462426543236 -0.093898244202137 0.06608996540307999 0.05210048705339432 0.02917492389678955 -0.027157118543982506 0.16213582456111908 -0.003673398168757558 0.023452484980225563 -0.13457149267196655 0.18018904328346252 0.05869424343109131 0.057450681924819946 0.01706600748002529 -0.06928723305463791 0.02432718500494957 0.04589267820119858 -0.08394371718168259 0.06034274399280548 0.10242568701505661 -0.03554097190499306 -0.10866953432559967 -0.04876270145177841 -0.18563319742679596 0.12153517454862595 -0.008899257518351078 -0.023874664679169655 0.020182255655527115 0.021957427263259888 -0.11856017261743546 0.09768512099981308 -0.06418471783399582 0.08457538485527039 -0.013312391005456448 -0.07576240599155426 0.0778370350599289 -0.04478755220770836 0.055288344621658325 0.08673866838216782 -0.16115550696849823 -0.0853007510304451 -0.04545624926686287 0.07042054086923599 0.02039457857608795 -0.013730321079492569 0.005068480968475342 0.029147673398256302 -0.03914704546332359 -0.06108113005757332 0.01909426972270012 0.12045768648386002 0.012333504855632782 0.06261352449655533 -0.021031999960541725 -0.01907769776880741 -0.019504234194755554 0.0360642746090889 -0.04186944663524628 -0.0536736398935318 0.03675968572497368 0.017510315403342247 -0.010120028629899025 -0.05823018029332161 0.02347656339406967 -0.01872323825955391 -0.03717634826898575 -0.1906726062297821 0.02073173224925995 -0.08519348502159119 -0.06922482699155807 0.07759653031826019 0.03957921266555786 0.043142352253198624 -0.049500107765197754 0.02136991173028946 -0.04015469551086426 -0.08718451112508774 0.032612066715955734 -0.02680947445333004 -0.022310825064778328 -0.09623683243989944 -0.095417320728302 -0.07873689383268356 0.04390057921409607 0.15157584846019745 0.05027139186859131 -0.0646064430475235 0.11638859659433365 0.007009861525148153 0.004168258048593998 0.09791070967912674 -0.07414893805980682 -0.10451747477054596 0.0222171638160944 0.0997287780046463 -0.04514593631029129 -0.0052917106077075005 0.02279895544052124 -0.05767493695020676 -0.09352375566959381 0.02603394351899624 -0.058163199573755264 -0.09905373305082321 -0.03785277530550957 0.10816790163516998 -0.11020169407129288 0.14959926903247833 0.08189935237169266 0.020166637375950813 -0.057957544922828674 0.002407749416306615 -0.06042646989226341 0.0752945989370346 0.07208435982465744 0.04435722529888153 0.052230313420295715 0.009320411831140518 0.1233367994427681 -0.14414092898368835 -0.01049871277064085 -0.015772700309753418 -0.0466795451939106 -0.03612546622753143 0.032667163759469986 0.042761463671922684 -0.08653378486633301 0.03923727571964264 0.01923278719186783 -0.1971985101699829 -0.016657670959830284 -0.11501707881689072 0.06786106526851654 -0.07649654150009155 0.024562248960137367 -0.06716360151767731 0.07124237716197968 -0.09521941840648651 0.06844118237495422 -0.06129859387874603 0.1344720423221588 -0.07382933050394058 -0.026026589795947075 0.10061565041542053 -0.07786750793457031 -0.039674825966358185 0.023145264014601707 0.10146201401948929 0.04865666851401329 0.015403221361339092 -0.1669088900089264 -0.11046036332845688 -0.020551804453134537 0.09474482387304306 0.1147763580083847 0.0679325982928276 -0.022259658202528954 0.06839913874864578 -0.010473547503352165 -0.1290043294429779 -0.1066160574555397 -0.10229086875915527 -0.14097580313682556 0.09133115410804749 0.0303144920617342 0.1166190430521965 -0.22732017934322357 0.04126875475049019 0.09315548837184906 -0.08792611956596375 0.14693044126033783 0.1386047601699829 -0.01199225801974535 0.1969870626926422 0.0034768644254654646 0.045815758407115936 0.16714291274547577 2.581931184977293E-4 -0.10196996480226517 0.003856515744701028 0.010361459106206894 -0.07446031272411346 0.068211629986763 -0.19021660089492798 -0.04412826523184776 -0.07958827912807465 0.06432962417602539 0.009701743721961975 -0.009284261614084244 -7.531726150773466E-4 0.08876780420541763 -0.0776243731379509 -0.06270366162061691 0.02767421118915081 0.03513666242361069 -0.05906388908624649 -0.08306682854890823 -0.05238739401102066 -0.054265450686216354 -0.04748295992612839 0.08508678525686264 -0.05452510714530945 -0.13920235633850098 0.05042552202939987 0.09508928656578064 -0.08573028445243835 -1.1273332347627729E-4 1.1400572111597285E-4 1.1427382560214028E-4 9.435654646949843E-5 9.599421173334122E-5 -3.1144300010055304E-4 -1.2148877431172878E-4 -3.367068711668253E-5 8.013291517272592E-5 8.057258673943579E-5
